85 300
All -0.0061 0.0398 -0.0056 0.0191 0.0032 -0.0239 0.0124 -0.0402 0.019 -0.036 -0.0183 -0.1046 0.0242 -0.0253 0.0216 -0.021 -0.0243 -0.0006 0.0576 -0.0099 0.0143 0.0026 -0.029 -0.0026 0.0373 0.0178 1e-04 -0.0133 0.0812 0.0056 -1e-04 0.0237 0.0342 0.0063 0.1166 -0.0383 -0.0335 0.0052 0.0155 -0.0071 -0.0409 0.0523 0.0119 0.0131 -0.0174 -0.0736 -0.001 -0.0061 -0.0114 -0.0379 -0.013 0.0228 0.0579 -0.0052 0.0526 0.0386 -0.0584 -0.0042 -0.0935 0.0095 -0.0012 0.0004 -0.0002 0.0112 -0.0155 -0.0156 -0.0279 0.0224 0.0006 0.018 -0.0221 -0.0002 -0.0128 -0.0167 0.0041 -0.0039 -0.0045 -0.0355 0.0126 0.0298 -0.0205 0.0027 0.0244 -0.0042 -0.0038 -0.0209 -0.0104 -0.0831 0.0035 0.0173 -0.026 -0.0088 -0.0501 -0.0381 -0.0133 0.0173 0.0247 -0.0099 -0.0313 0.025 -0.0098 0.0318 -0.0184 -0.0042 -0.023 -0.0942 0.0308 0.0074 -0.0411 0.027 -0.0048 0.0291 0.0749 -0.021 0.0233 -0.0037 0.0109 -0.0048 0.0191 0.0048 0.0268 0.0202 -0.0113 -0.0105 -0.0028 -1e-04 -0.0382 -0.0532 0.0124 0.1222 -0.0037 0.0778 0.0292 -0.0225 0.0112 0.0464 0.0108 0.0347 -0.0445 -0.0145 -0.0101 -0.0296 -0.0094 -0.0107 0.0387 -0.0017 0.0325 -0.0172 0.0008 0.0521 0.1066 0.0592 -0.0357 -0.0858 0.0358 -0.0493 0.0177 -0.0368 -0.008 -0.054 -0.0391 -0.0313 0.0635 -0.015 -0.0011 0.0083 0.0083 -0.025 0.0231 0.0201 0.028 0.0007 0.0152 -0.0088 0.0173 0.0562 -0.0272 0.0564 0.0144 0.0238 -0.01 -0.0179 0.0026 0.0087 -0.0019 0.0998 -0.0092 0.1671 0.014 0.0049 -0.0053 0.0405 -0.1621 -0.0104 -0.0056 -0.0202 0.0398 0.0156 -0.0118 -0.0064 0.0717 0.1621 0.0097 -0.0023 0.0217 -0.0224 0.0162 -0.002 0.0519 0.0423 0.0516 -0.0304 -0.031 0.0562 0.0439 -0.1056 -0.0024 0.0498 -0.0911 -0.0266 0.0072 -0.015 0.005 0.0916 -0.0195 0.0095 0.0346 0.0701 0.0038 -0.0416 0.0284 -0.0215 -0.0608 -0.0188 -0.0366 -0.0171 0.0176 0.0059 -0.0046 -0.0478 -0.0613 -0.0038 0.0122 0.0281 -0.0539 -0.002 0.0096 -0.0171 0.0239 -0.044 0.0053 -0.0054 0.0037 0.006 -0.0075 -0.0029 0.0146 0.0729 0.0277 0.0042 -0.0531 0.0097 0.0103 -0.0483 -0.0111 0.0038 0.023 0.0518 -0.0046 0.0198 1e-04 0.0894 -0.0464 -0.0012 0.0459 -0.1166 -0.0032 0.0096 0.0286 -0.0033 -0.0453 -0.0202 0.0596 -0.0012 0.0561 0.0003 0.0295 0.0597 0.0063 -0.0108 0.0033 -0.0066 -0.0146 -0.0074 -0.0006 0.0533 0.0246 -0.0022 0.0065 0.0139
good -1e-04 -0.0053 0.0014 -0.0125 -0.0414 -0.0311 -0.0224 -0.0581 0.0208 0.0065 -0.0248 -0.0027 0.0338 -0.0218 -0.0106 -0.0073 0.0746 0.0126 0.0593 -0.0052 -0.0154 -0.0009 -0.0267 0.0394 -0.0112 0.0096 0.0124 -0.0347 0.081 0.0024 0.0095 -0.0075 -0.0006 -0.0637 0.0378 -0.0253 0.0077 -0.0046 0.0064 0.0246 0.014 -0.0509 -0.0114 0.0021 -0.0273 -0.0753 -0.0104 -0.022 0.0305 0.0285 -0.0134 -0.0064 0.0208 -0.0431 -0.0115 0.0227 -0.0118 -0.02 -0.0555 0.0049 -0.0189 -0.0029 0.0566 0.0123 -0.0026 -0.0083 -0.0044 0.0023 0.0172 -0.0131 0.0111 0.02 0.0291 -0.0155 -0.0245 -0.0063 -0.0087 -0.0495 -0.0215 -0.0241 -0.0036 0.0271 0.0553 0.0567 0.0039 0.0036 0.0029 0.0056 -0.0318 0.0059 0.0224 -0.0095 -0.0702 -0.0278 0.0107 0.0067 -0.0002 -0.0017 0.0495 0.0061 -0.0007 -0.0007 0.0073 -0.0058 -0.0228 -0.085 0.0276 -0.0004 0.0409 0.0245 0.0018 0.0523 0.036 0.01 0.0183 -0.0033 -0.0208 -0.0295 -0.0391 -0.0096 -0.0012 -0.0319 0.0222 -0.0385 0.0445 0.0064 -0.0244 -0.0633 0.0042 0.0126 0.0392 0.0154 0.0057 0.0056 -0.0358 0.0037 -0.0056 0.0216 -0.0257 0.015 0.0232 -0.0137 -0.0038 -0.047 0.0287 0.0006 0.0134 -0.0138 0.0034 -0.0227 0.0394 0.036 0.0132 -0.0466 -0.0188 -0.0203 0.0239 -0.0199 0.0064 -0.0241 0.0159 -0.0154 -0.0137 -0.0354 -0.0034 -0.0365 0.0114 0.0136 0.0269 0.0444 0.0433 -0.0045 0.0365 0.0056 0.0174 0.0486 0.0095 0.0428 0.0202 0.0147 0.0068 -0.0067 -0.0026 -0.054 0.0128 -0.0206 0.0334 0.0795 -0.0145 -0.0076 -0.01 0.0933 0.0487 -0.0204 -0.0115 0.0104 0.0296 -0.0188 -0.0148 0.0106 -0.0716 0.075 0.0082 -0.0165 0.0086 0.0184 -0.014 0.0083 0.0124 -0.0373 0.0262 -0.0186 -0.0197 0.0049 0.0237 -0.009 0.0051 -0.0111 -0.0522 -0.0045 0.0079 -0.0029 -0.038 0.0775 0.0577 -0.0196 0.0269 0.069 0.0229 -0.0318 0.0072 -0.0525 -0.0564 0.0179 0.0437 0.0132 -0.0368 -0.0137 0.0058 0.0215 0.0963 0.001 -0.0033 0.0169 -0.0982 0.0185 0.0098 -0.02 0.0034 -0.0056 0.0388 0.0089 -0.028 0.024 0.0093 -0.0288 -0.0018 0.0185 -0.0104 0.0388 -0.0048 0.0028 0.0277 -0.0017 -0.0177 0.0162 0.0187 0.0218 0.0048 0.0242 0.0032 0.0638 -0.0783 -0.0311 0.0509 -0.05 0.0071 -0.0092 -0.0094 -0.0151 0.0465 -0.0018 -0.0381 -0.0116 -0.021 -0.0088 0.02 0.0188 0.0092 0.0118 0.0092 0.0178 -0.0248 0.0116 -0.0042 -0.0186 0.0023 -0.0085 -0.0097 0.0033
so 0.0013 0.0184 0.016 0.0048 0.0731 -0.0213 -0.0062 -0.113 -0.0385 -0.0256 -0.0519 -0.0373 0.0237 -0.0064 -0.0194 0.0023 0.1431 -0.0057 0.0815 -0.0175 0.004 0.0043 0.0409 0.0461 0.0266 -0.0123 0.0519 0.0158 0.0441 -0.0074 -0.0018 0.0142 0.0199 -0.0732 0.0425 0.0263 0.0016 -0.0277 -0.0165 -0.0572 0.0107 -0.1635 -0.0194 -0.0407 -0.0291 -0.1105 0.0018 -0.033 -0.0258 -0.0321 0.0213 -0.0027 0.0319 0.0062 -0.1115 -0.0062 0.0257 -0.0095 -0.069 -0.0273 0.0169 0.018 0.0606 -0.0179 -0.0338 0.0087 -0.0141 -0.0495 -0.0107 -0.0341 -0.0265 0.0088 0.0461 0.0021 0.0207 -0.011 0.0633 0.0352 0.0226 0.0079 -0.0943 -0.0334 -0.0198 0.1078 -0.0128 -0.0027 -0.031 0.0254 -0.0028 0.0087 0.0348 0.0177 -0.0776 -0.0613 0.0218 -0.0738 0.0216 0.0023 0.07 -0.0146 0.0342 -0.0183 0.0398 0.0228 -0.0193 -0.0568 -0.001 0.0048 0.0345 0.0033 0.0389 0.1472 0.0727 -0.0257 -0.0211 0.004 -0.0289 -0.0174 -0.0419 -0.0099 0.0298 1e-04 -0.0014 0.0301 0.0661 0.0005 -0.0326 -0.0337 0.0159 -0.0402 -0.0232 0.0804 0.0241 -0.0178 0.0049 0.0303 -0.0082 0.0861 -0.0183 0.0183 0.0121 0.0033 0.0036 -0.0517 0.0168 -0.0118 0.0299 0.0073 0.0025 0.0065 0.073 0.0149 -0.0435 -0.0572 0.053 -0.0067 0.0222 0.0128 -0.0219 -0.1154 -0.006 0.0162 -0.0298 -0.027 0.0101 -0.0174 -0.0005 -0.0099 -0.0442 0.0128 0.0496 -0.0323 0.0213 0.0025 -0.0075 0.0633 0.01 -0.0242 0.0746 0.0183 -0.0101 -0.0013 -0.0154 -0.0357 -0.0032 0.0256 0.0058 0.1844 0.029 -0.0243 0.0296 0.1418 -0.1158 0.0125 -0.0092 0.0084 -0.0129 0.0175 -0.056 0.063 -0.1145 0.0055 -0.0303 -0.019 0.0082 -0.0136 -0.0347 -0.0458 0.004 -0.1219 -0.1374 -0.0183 0.0922 -0.0013 0.0242 -0.0348 0.0323 0.0345 -0.1106 -0.082 0.0547 0.0082 0.0127 0.1081 0.0132 -0.0225 0.0128 0.1346 0.0481 0.0962 0.0015 -0.1311 -0.133 0.0158 0.0397 -0.023 0.0101 0.0216 0.0137 -0.0196 0.0584 -0.0031 -0.0075 -0.0016 -0.1363 -0.0286 -0.023 -0.067 -0.0297 -0.1 0.024 -0.0135 -0.0366 0.0043 0.0543 0.0181 -0.0044 0.0729 -0.0225 0.044 -0.0525 0.0419 0.0193 0.0338 -0.0398 0.0065 0.0322 -0.0079 0.0014 0.0473 -0.0036 0.131 -0.1248 -0.0567 0.0596 -0.1448 -0.0049 -0.0238 -0.0257 -0.0096 -0.1893 0.004 0.0138 -0.0551 -0.0987 0.015 0.0832 -0.0628 -0.0095 0.0316 -0.0294 0.0052 0.0274 -0.0298 -0.006 -0.0231 -0.0058 -0.0054 0.0041 -0.0079
I -0.0954 0.067 0.0223 -0.0035 0.0671 0.1248 0.0334 0.3084 -0.1568 -0.0595 -0.0519 0.1031 -0.0181 -0.0594 0.1099 0.0134 0.1844 0.0503 -0.1853 0.0513 0.011 0.026 0.0474 -0.0241 0.0437 0.0397 0.2008 -0.0692 -0.0046 -0.0181 -0.0378 0.0121 0.0133 0.1496 0.0046 -0.1488 -0.1259 -0.0645 0.0723 0.0289 0.0027 0.1395 0.008 0.0326 -0.0292 -0.0873 0.0095 -0.0145 -0.0166 0.2221 0.0816 -0.0036 0.0184 -0.0454 0.2628 -0.0928 0.1635 -0.0323 -0.0251 -0.0481 -0.0119 -0.0657 -0.2354 -0.0213 -0.0355 -0.0633 0.0357 -0.0093 -0.0442 0.0531 -0.0529 0.0226 -0.0459 -0.0079 0.1381 -0.0513 0.0188 0.2206 0.0214 0.0879 -0.072 -0.2665 0.0712 -0.2336 -0.076 -0.0259 0.0358 -0.1491 -0.0221 0.0287 0.0036 0.0679 0.0933 -0.1556 0.0751 -0.256 0.0283 0.0309 0.1145 0.0355 -0.0414 0.0725 0.0286 0.0085 -0.0768 0.0526 0.0514 -0.023 0.1446 -0.0018 0.0183 -0.3665 -0.0224 -0.0599 -0.0302 0.016 -0.0094 -0.0824 0.4536 -0.0411 -0.025 0.0763 0.0299 0.0556 -0.0625 0.0415 -0.0041 0.2565 0.0985 -0.0781 -0.1496 0.0025 -0.0185 0.02 -0.0445 -0.0124 -0.0974 -0.0749 -0.0331 -0.0024 0.0957 -0.0594 0.0201 -0.0378 -0.1242 -0.0716 -0.0115 -0.1139 0.0636 -0.0062 0.0785 -0.087 -0.0679 0.0592 0.0762 0.0465 0.0589 -0.0031 -0.0718 -0.2116 0.0382 0.0422 0.0313 -0.0943 -0.0554 -0.1661 0.0071 -0.1564 0.0567 -0.0168 0.051 -0.0403 -0.0554 0.0225 0.0661 0.4765 0.0069 0.0667 0.4657 0.0411 0.0859 -0.0181 0.0701 -0.0312 -0.0317 -0.0762 -0.0874 1.4107 -0.0726 -0.0297 -0.0484 -0.0689 0.0339 -0.0227 -0.0309 0.013 0.1236 0.034 -0.1762 0.0081 0.4596 -0.2336 -0.1024 -0.0014 0.0123 0.0109 -0.0249 -0.0081 -0.0929 -0.0069 -0.387 -0.0913 0.1965 -0.0871 -0.1603 -0.1235 0.0667 -0.0106 -0.2244 -0.0037 0.0237 -0.0108 0.0251 -0.1546 0.006 -0.0095 -0.0488 0.0164 0.1131 0.0355 0.0343 -0.1809 0.0752 -0.1098 -0.1085 0.058 -0.019 0.01 -0.033 -0.0285 0.1729 -0.028 -0.0747 0.0847 0.2141 -0.0521 -0.0444 0.0837 -0.0559 0.0487 0.0882 -0.0156 -0.0446 -0.0193 -0.1513 -0.1173 -0.1077 0.0476 0.0764 0.0423 -0.0255 0.1303 0.0435 -0.0137 0.0143 -0.0669 -0.0119 0.0021 0.0111 0.1401 0.0239 -0.0869 -0.0116 0.0421 -0.0817 -0.0583 0.0048 -0.0049 -0.065 0.0274 -0.0787 -0.0753 0.0367 -0.0621 0.1061 -0.043 0.0727 0.0557 -0.0803 0.0508 0.0133 0.0575 0.0139 0.0521 -0.0093 -0.0075 -0.0322 -0.0538 0.0398 -0.0431
was -0.0199 0.0314 -0.0081 0.0125 0.0265 0.0231 -0.0173 -0.102 -0.0352 -0.0005 -0.0146 0.0387 0.0083 0.0114 0.0168 0.0192 0.1277 -0.0022 0.0401 0.0497 -0.0267 -0.0172 0.0155 0.0265 -0.0232 0.0101 -0.0114 -0.0088 0.0898 0.0245 -0.0127 0.0073 -0.0131 0.0024 -0.001 -0.0167 0.0171 -0.0092 -0.0008 0.0064 -0.0179 -0.0621 0.0119 -0.0301 -0.0156 0.009 0.0206 0.0014 0.1172 0.0341 0.0352 -0.0149 0.0028 0.016 -0.1146 -0.0041 -0.0089 -0.0262 -0.059 0.0004 0.0028 0.002 0.0963 0.0145 0.037 0.0586 -0.003 0.0176 -0.0211 -0.0146 -0.0107 -0.0096 -0.0858 0.0236 0.0211 0.0033 -0.0518 -0.0241 -0.0061 -0.0004 -0.0371 0.0273 0.0305 0.0362 -0.0075 0.0216 -0.0038 -0.014 -0.009 0.0015 -0.0294 -0.0124 -0.0981 -0.0571 -0.0031 0.0224 -0.0049 -0.0136 -0.0114 0.0374 0.0174 -0.0047 0.0177 0.0193 -0.0632 -0.1348 -0.0107 0.0115 0.028 0.0462 -0.0136 0.0014 0.0686 0.0084 -0.0007 0.0276 0.0324 -0.0174 -0.0095 0.0086 0.0085 0.0108 -0.0287 0.0443 0.1484 0.0089 0.0178 -0.0521 0.0007 0.0041 0.0004 -0.0731 0.0101 -0.0025 -0.0355 -0.007 -0.0015 0.0724 0.0173 -0.0005 0.0229 0.0133 -0.0135 -0.029 -0.0179 -0.0032 0.0034 0.0228 0.0426 0.0104 -0.0062 0.0013 -0.02 -0.0613 0.0135 0.0199 0.0173 -0.0159 -0.0101 -0.0338 0.0089 0.0089 -0.1027 0.0096 0.0117 -0.0184 0.0171 0.0095 0.028 0.011 0.0099 -0.0293 -0.0281 0.0569 0.0282 0.0259 0.0175 0.0217 -0.0149 0.0214 0.0234 0.0181 0.0079 -0.0414 -0.0192 0.0498 0.0013 0.1263 -0.0238 -0.0094 -0.0097 0.1825 -0.045 0.0102 0.0063 0.0087 0.0055 0.0266 -0.0073 0.0239 -0.1019 0.0562 -0.0066 0.0126 0.0015 0.0023 0.0004 -0.0148 0.0032 -0.2418 0.0231 -0.0106 -0.0606 -0.0044 -0.0389 -0.013 -0.0422 -0.0068 0.0431 -0.0558 0.0242 -0.0059 0.0067 0.0947 -0.0293 0.0212 0.0024 0.0679 0.0107 0.0381 0.0183 -0.0072 0.0009 -0.0002 0.0009 0.0214 -0.0158 0.0126 -0.0406 0.0056 0.1039 -0.004 -0.0066 0.0145 -0.0807 -0.0018 0.0141 0.0729 0.0134 -0.0323 -0.0018 -0.0038 0.0326 0.0303 0.0312 -0.0008 0.0166 0.0797 0.0108 0.0225 0.0028 -0.0291 -0.0002 0.0805 -0.0122 0.0163 -0.0255 0.0173 -0.0182 -0.0163 0.0204 0.0576 -0.0942 0.0123 0.0073 -0.0474 -0.0254 0.0401 -0.0139 0.008 -0.1416 0.0111 -0.0128 0.0301 0.0826 -0.0068 0.0083 -0.071 -0.0163 0.0254 -0.0004 0.0258 -0.0214 0.0242 0.0052 0.0296 -0.0109 -0.0212 -0.0051 -0.0174
to 0.0066 0.1309 -0.0188 0.0045 0.0158 -0.0151 -0.0123 -0.1258 -0.0259 -0.0069 -0.0431 0.0376 0.0082 -0.0165 -0.0076 -0.0143 0.1475 -0.0054 0.0909 -0.0029 0.0332 -0.022 0.0238 0.069 -0.0123 -0.0162 -0.0075 0.036 -0.1797 -0.0054 -0.0078 0.0218 0.0122 0.0143 -0.0359 -0.007 -0.0037 -0.0154 -0.0186 -0.0324 -0.0057 0.0476 -0.0221 0.0049 -0.0014 -0.01 -0.0047 -0.0142 -0.1236 0.0011 0.0063 0.009 -0.009 -0.0175 -0.3545 -0.0052 0.0111 -0.0037 -0.0938 -0.0352 0.0193 0.0223 0.1418 0.0006 0.0353 0.0058 0.0168 -0.0087 -0.0018 -0.0048 0.0493 0.0207 0.0969 -0.0044 -0.0103 -0.002 0.0244 -0.0137 0.0121 0.0205 -0.0459 0.0136 -0.0017 0.0336 -0.0537 0.0338 -0.0132 -0.069 -0.0224 -0.0292 0.047 -0.0271 -0.1686 0.0809 -0.0222 -0.0828 -0.0165 0.0155 0.0114 0.0192 0.0046 -0.0101 -0.0007 0.0054 -0.0177 -0.1629 0.0066 -0.0368 0.0346 -0.0303 0.0171 0.0112 0.0742 -0.0324 -0.002 0.0069 -0.019 -0.028 -0.0083 0.0089 0.0225 -0.0121 -0.013 -0.0562 -0.1135 -0.0058 -0.0666 -0.1342 0.0099 0.1426 -0.0208 0.1921 -0.0243 -0.0128 0.0226 -0.0328 -0.0105 0.0401 0.0492 -0.011 0.0046 -0.0039 0.0022 -0.0104 -0.0114 -0.0002 0.009 0.0125 0.0053 0.0315 -0.0541 0.2053 -0.0114 -0.1152 -0.0072 -0.0141 0.0125 -0.0321 -0.0126 -0.0213 -0.0186 -0.0073 0.1032 -0.0169 0.0204 -0.0072 0.0221 -0.0011 -0.0177 0.0102 -0.0382 0.0021 0.0226 -0.0008 0.0219 0.045 -0.0104 0.0032 -0.0049 0.0173 -0.0153 -0.0023 0.0212 0.0199 -0.0143 -0.1291 -0.045 0.2006 0.0284 -0.0285 -0.0243 0.1187 -0.1579 -0.0201 -0.011 0.038 0.0056 -0.0038 0.0339 0.017 -0.261 0.0735 0.0348 -0.0237 -0.0251 -0.0146 0.0177 0.0086 0.0105 -0.0103 0.0422 -0.0387 -0.0084 -0.0301 0.0736 0.0355 0.0184 0.0056 0.0075 -0.0215 -0.0046 -0.0155 -0.0017 0.1382 0.2017 -0.0256 0.0151 0.1145 -0.0241 -0.0832 -0.0096 -0.1042 -0.034 -0.0503 0.0926 -0.0028 -0.015 0.018 -0.0252 0.0098 0.0867 -0.0133 0.0429 -0.0348 -0.1178 0.0074 -0.0069 -0.0641 0.006 -0.0296 0.0939 0.045 0.0331 0.0092 -0.0577 0.0279 -0.005 0.089 -0.0147 -0.0106 -0.0312 -0.022 -0.0102 -0.0063 0.0232 -0.0094 0.0008 0.0956 -0.0321 0.0223 -0.0312 0.1198 -0.2078 -0.0768 -0.0299 -0.0331 -0.0075 -0.0072 -0.0187 0.009 -0.1058 -0.0017 0.0445 -0.0146 0.0704 -0.0123 -0.0015 -0.0442 -0.0033 0.0286 -0.0064 0.011 0.0209 -0.0108 1e-04 -0.0289 -0.0273 0.0212 -0.0169 -0.0094
buy 0.0446 0.0709 -0.0521 0.0051 -0.0131 -0.0248 -0.0098 -0.0884 0.013 0.0401 -0.0506 0.0165 -0.0357 -0.0409 -0.0223 -0.0111 0.077 -0.0087 0.0813 0.01 -0.0227 0.0056 -0.0655 0.0095 0.0325 -0.0231 0.0351 -0.0061 -0.0838 0.0203 -0.0216 -0.0242 -0.0421 0.0387 -0.0017 -0.0845 0.0457 0.0205 0.0099 0.0474 0.0294 -0.0293 -0.0217 0.0369 0.0216 0.0036 -0.0159 0.0004 -0.013 0.0535 0.0253 0.0009 -0.0487 -0.0199 -0.148 0.0236 0.025 0.0174 -0.0323 0.0122 -0.0328 -0.0154 0.1196 0.0806 0.0092 -0.0079 0.0006 0.0067 0.0076 -0.0187 0.056 -0.0004 0.1761 -0.0325 -0.0316 0.027 -0.0014 0.0008 -0.0376 0.0238 0.0454 -0.0692 0.0048 0.0874 -0.1101 -0.0011 -0.0016 -0.0512 -0.0316 -0.0222 0.004 -0.0034 -0.0876 -0.0315 0.0166 -0.0592 0.0414 0.0038 0.0235 -0.006 -0.031 0.0134 0.0229 -0.0271 0.0049 -0.1335 -0.0537 0.0113 0.0034 0.0325 -0.0024 0.056 0.0382 0.0422 0.0152 -0.031 -0.0583 -0.0311 -0.0113 -0.0155 -0.0046 0.0391 -0.0183 -0.0682 0.0466 -0.0099 -0.0425 -0.0381 0.0431 0.0698 -0.0087 0.0376 0.049 -0.0159 0.0517 0.0074 -0.0323 0.0295 -0.0311 0.0479 0.0477 1e-04 -0.0409 0.034 -0.0238 -0.0052 -0.0012 0.0062 0.0073 -0.0324 -0.0112 0.0537 -0.0184 -0.0338 -0.023 -0.0377 0.0188 -0.0171 0.0241 -0.0618 0.0689 0.0253 0.0086 0.0208 0.0057 0.0294 0.0614 -0.0019 0.0668 0.069 0.004 -0.0097 -0.0078 -0.0319 -0.057 0.058 -0.0096 0.0206 0.0302 -0.0087 0.0454 -0.0393 -0.0463 0.0074 -0.0169 -0.0926 -0.0108 0.1333 -0.0054 -0.0367 -0.0209 0.0315 -0.0725 -0.0038 0.0124 -0.0152 0.0545 -0.001 0.0192 0.0554 -0.1331 0.1179 0.0237 -0.0475 0.0344 -0.0613 -0.0189 -0.0431 -0.017 -0.0136 0.0056 0.0054 0.0265 -0.0664 0.0088 -0.0152 -0.0164 0.0154 -0.0277 -0.0088 0.075 0.0319 0.0582 0.1017 0.0288 -0.0345 -0.0299 0.0886 -0.027 0.0028 0.026 -0.0784 -0.0568 -0.0477 -0.0467 0.0059 -0.0131 -0.0371 0.0517 -0.0063 0.1519 -0.0512 0.0408 -0.0384 -0.085 -0.012 -0.0343 0.0013 0.007 0.0183 0.0024 -0.0282 -0.0401 0.068 0.0239 -0.0186 0.0194 -0.0329 0.0671 0.0277 0.054 0.0573 -0.0588 -0.072 -0.0018 0.0598 -0.03 -0.0244 0.0229 0.0621 -0.016 0.076 -0.0876 -0.0621 -0.0868 0.054 0.0033 0.0125 -0.0092 -0.044 -0.0299 0.0316 -0.0291 0.0015 -0.0279 -0.0137 -0.0241 0.0058 -0.0218 -0.0104 -0.0463 0.0168 0.0207 0.0319 -0.0078 -0.0712 0.012 -0.0855 -0.0317 -0.0373
a -0.0079 -0.0953 0.0313 0.0177 -0.2012 -0.0056 -0.0177 0.2046 0.0513 0.0247 -0.0751 0.1323 0.0458 0.0209 -0.0408 0.0328 0.1065 0.0124 -0.0022 0.048 -0.017 -0.0168 -0.0249 -0.0432 0.0286 -0.0387 0.0741 0.0511 -0.131 -0.0022 -0.0408 0.0412 0.0201 -0.1501 0.0467 -0.0861 -0.0324 0.0436 0.0294 0.0309 0.033 0.0598 0.027 0.0214 -0.0224 0.033 0.0065 -0.0188 -0.1285 0.1174 0.0815 0.0105 -0.0438 0.0154 0.0282 0.0191 0.1931 -0.0181 -0.0285 -0.0367 -0.0037 0.0304 -0.1563 0.0586 0.0388 0.027 0.0387 0.0713 0.0301 -0.014 -0.0246 -0.0083 -0.0013 -0.037 0.0512 0.0095 0.0203 0.0308 0.0341 0.0038 -0.0142 -0.125 0.0203 -0.1944 -0.1322 -0.007 -0.0191 -0.1144 0.0407 0.0011 0.1193 -0.0093 0.1742 -0.1481 0.0776 0.0143 0.012 -0.003 0.1356 0.0146 -0.0289 0.0181 0.001 0.0102 -0.1348 -0.0421 0.0288 -0.0068 -0.0027 0.0088 -0.0159 -0.2476 -0.0386 -0.0212 -0.0019 0.0028 -0.019 -0.0161 0.2939 0.0123 0.0237 0.0379 0.0451 -0.0043 -0.0334 -0.0287 0.0086 -0.0143 0.0234 -0.3594 -0.0153 -0.0603 -0.0169 0.0216 -0.0494 0.0077 -0.0021 -0.2387 0.0337 0.0046 0.0081 0.0169 0.0206 -0.0595 -0.0979 -0.0414 -0.0158 0.0138 0.0164 0.0076 -0.183 -0.1576 -0.0187 -0.0814 0.0439 0.052 -0.0178 -0.0999 -0.0105 -0.0864 0.033 0.0265 -0.072 0.0164 0.0063 -0.0521 0.0488 -0.004 0.0451 0.0454 -0.0774 -0.0054 0.007 0.0251 0.0017 0.4147 -0.0124 0.0277 0.0908 0.0317 -0.0735 -0.0196 -0.0289 -0.0332 0.0168 -0.0075 -0.0218 1.3016 -0.0214 -0.0045 0.0295 -0.1341 0.1648 -0.0542 -0.0778 -0.0129 0.0249 0.0206 -0.0073 -0.0062 0.1937 0.052 0.0191 -0.0064 -0.0206 0.0316 -0.0202 -0.0093 0.0106 -0.0963 -0.1429 -0.1085 0.0039 0.0141 -0.0659 -0.0009 0.0161 -0.0221 0.0526 0.0294 -0.0145 0.0251 0.0174 -0.1089 -0.0396 -0.0476 0.0257 -0.0473 -0.0067 -0.1687 -0.0152 0.0281 0.0721 -0.0267 -0.0711 -0.0039 0.0175 -0.027 -0.0681 -0.0289 0.1933 -0.0114 0.026 0.0582 -0.045 -0.0099 -0.0176 0.2713 -0.0152 -0.0865 0.1155 0.0403 0.0242 -0.0557 -0.0255 0.0301 -0.0132 0.0199 0.0069 0.0431 0.0322 0.0316 0.0034 0.0141 0.0015 -0.0359 -0.0374 -0.1491 0.0149 0.0185 -0.1027 0.0045 -0.2391 0.1592 0.0245 0.2398 0.0169 0.001 0.028 0.0254 0.3708 -0.0302 -0.0614 -0.0227 -0.1119 0.0155 0.0223 0.0284 -0.0179 -0.0143 0.0353 0.0483 -0.0442 0.0303 0.0279 0.0147 0.0147 -0.0084 -0.067 0.0254
refurbished 0.0097 0.0232 0.0048 -0.0017 0.015 0.0013 -0.012 -0.0285 -0.018 -0.02 0.011 -0.0073 -0.0139 -0.0096 -0.0121 -0.0055 0.0171 0.0157 0.0142 0.0018 -0.0066 -0.0053 0.0004 0.0113 0.0371 -0.0036 0.0014 -0.006 0.0226 -0.0048 0.0099 -0.0067 -1e-04 -0.0 0.0124 -0.002 0.0147 0.0036 0.0042 0.002 0.0006 -0.0257 -0.0008 0.0121 0.0037 0.0189 -0.0004 0.0127 0.0156 0.0266 0.001 -0.0025 -0.0245 0.0209 -0.036 -0.0007 0.0114 -0.0135 -0.0091 0.0084 0.0127 0.0077 0.0758 0.0056 0.0182 0.0005 -0.0026 -0.0159 -0.0083 0.0129 0.0245 -0.0079 0.0148 0.0029 0.0019 0.0147 -0.0096 0.0044 -0.0047 0.0165 0.0339 -0.0171 0.015 0.0114 -0.0197 0.0041 -0.0145 -0.0059 -0.0145 -0.0136 -0.017 -0.0129 -0.0263 0.0024 0.0118 0.0112 0.012 0.007 -0.0126 -0.0031 0.0299 0.015 0.0007 -0.0024 -0.0013 -0.0264 0.0127 0.0089 -0.0144 0.0119 0.0046 0.0219 0.0289 0.011 0.0052 -0.013 0.0109 -0.0137 -0.0069 -0.0019 0.0044 -0.003 0.0021 -0.0017 0.0076 0.0087 -0.0039 -0.0146 0.0202 -0.0025 -0.0007 0.001 0.0203 -0.0121 0.0074 -0.0003 -0.0051 0.0169 -0.0026 -0.0152 -0.0073 0.0069 -0.0122 -0.0179 0.0067 -0.0305 0.0384 0.0072 -0.0115 0.0126 0.0123 -0.002 0.0213 0.006 -0.0324 0.0049 -0.0178 0.0081 0.0045 -0.0162 0.0059 -0.0022 -0.004 0.0073 -0.0192 0.0004 0.0028 -0.0114 0.0013 0.0087 0.0247 1e-04 0.0126 1e-04 0.0134 0.0116 -0.0095 -0.0032 -0.0211 0.0307 -0.0103 1e-04 -0.0018 -0.0073 0.0015 0.0204 -0.0009 0.0259 -0.0025 0.0018 0.0015 0.0108 -0.0231 0.0016 -0.0029 -0.0042 -0.0142 0.0002 0.0226 -0.0058 -0.0159 0.0264 -0.0155 -0.0033 0.0012 -0.0174 0.0035 -0.0094 -0.0089 -0.0221 0.0345 0.0041 0.018 0.0023 0.0157 -0.0105 -0.0111 0.012 -0.004 0.0126 0.0166 0.005 0.0145 0.0317 -0.0205 -0.0219 0.0027 0.0209 -0.0036 -0.008 -0.0297 -0.0159 -0.0048 -0.0132 -1e-04 0.0035 0.002 -0.0005 0.0143 -0.0018 0.0473 -0.0056 0.0225 -0.0185 -0.0201 0.0246 0.0024 -0.0049 -0.0002 -0.0027 0.0013 0.0005 -0.0089 0.0095 -0.009 0.0061 0.0007 -0.0127 -0.0109 0.0119 0.0101 -0.0142 -0.0002 0.0218 0.003 0.004 0.0123 -0.0148 0.0042 0.0008 0.0004 0.0211 -0.0226 -0.0005 -0.0359 -0.0048 0.0131 0.018 -0.0081 -0.011 -0.0119 -0.0061 0.0006 0.0097 0.0085 -0.0165 -0.0334 -0.0211 0.0061 0.0113 -0.0038 0.0344 0.0076 0.0107 -0.0028 -0.0079 -0.0012 -0.0015 -0.002 -0.0174
phone -0.0172 0.0032 -0.0014 0.0127 0.0223 -0.0031 0.0081 -0.0486 0.0474 -0.0008 0.0055 -0.0254 -0.0407 -0.0024 -0.0167 -0.0262 0.0394 -0.0111 0.015 -0.0069 0.0027 -0.0086 0.0419 0.0344 0.025 0.0053 0.0119 0.0244 0.0048 0.0121 -0.0329 0.0351 -0.0054 -0.0178 0.0028 -0.0203 0.0063 0.0023 -0.012 -0.0152 -0.0147 -0.0631 0.0049 -0.0043 0.0496 0.0299 0.0045 -0.0416 -0.0092 -0.0158 0.0169 -0.0086 0.031 -0.0123 -0.0369 0.0328 -0.0265 -0.006 -0.0192 0.016 -0.0383 1e-04 0.078 0.0225 0.002 0.0023 0.0154 0.0029 -0.0631 -0.0377 -0.0153 -0.0093 0.0309 -0.0189 -0.0364 0.0072 0.0167 -0.0099 -0.0156 -0.0155 -0.0119 -0.0589 0.0024 0.0211 -0.0156 -0.0614 0.0064 0.004 -0.0243 0.018 -0.0181 0.0026 -0.0454 0.0052 0.0186 0.0309 0.0267 -0.0226 0.0286 -0.0269 0.0245 0.0126 -0.0271 0.0238 0.0097 -0.051 0.0077 -0.0016 0.0203 -0.015 0.0216 0.0222 0.0464 0.0475 -0.0499 -0.0198 -0.0196 -0.0014 -0.0124 -0.0409 0.0047 0.0356 0.0075 0.0045 0.0146 0.0065 -0.0062 -0.0436 0.0208 0.035 0.0053 -0.0218 -0.02 -0.0167 0.0113 -0.0047 0.0355 0.0274 -0.0638 0.024 0.0709 -0.0008 0.0227 -0.0117 -0.0243 0.0154 -0.0221 0.0268 0.0189 -0.0113 -0.0304 0.0251 -0.0024 -0.0259 -0.0292 0.0102 -0.023 -0.0348 0.0087 0.0174 0.0191 0.023 -0.0154 0.0031 0.0128 -0.022 0.0042 0.0096 -0.0025 0.0455 -0.0064 0.0436 0.0032 0.044 -0.0163 0.0331 0.0008 0.0182 0.003 -0.007 0.0148 -0.0023 0.0211 0.0348 0.005 -0.02 -0.0531 0.0503 0.0417 0.0019 -0.0141 0.0136 0.0063 0.0287 0.0401 -0.0175 -0.0022 0.0098 0.0042 0.0414 -0.0772 0.0419 -0.0143 0.0518 0.0028 0.0031 -0.005 -0.0191 -0.062 -0.0383 0.0648 -0.0136 0.0144 0.0314 -0.0195 -0.0284 -0.0054 0.0143 0.017 -0.0116 0.0339 -0.0127 -0.0008 0.054 0.0292 -0.0196 -0.0005 0.0303 -0.0107 0.0032 0.0291 -0.0472 -0.007 -0.0152 0.0283 0.03 0.0199 0.002 0.0228 -0.0241 0.0364 -0.0312 0.015 -0.0136 -0.0253 -0.0489 0.0056 0.0196 -0.016 0.0254 0.0037 0.006 -0.0371 0.018 0.0176 -0.0344 -0.0283 0.0005 -0.0454 0.0117 -0.0134 -0.0248 0.0132 -0.0156 0.0004 -0.0196 -0.014 0.0111 0.013 0.0237 -0.08 0.051 -0.0645 -0.0119 0.0127 -0.0178 -0.0044 0.0309 0.0249 -0.0103 0.0385 -0.0434 -0.0127 0.0087 -0.0085 -0.0191 -0.0807 -0.0099 -0.0065 -0.0313 0.015 -0.0095 -0.0487 0.0232 0.0013 0.0233 -0.036 0.021 0.0303 -0.0157
on -0.0131 -0.0433 0.0167 0.0117 0.0055 -0.0427 0.0133 -0.1527 -0.0054 0.0383 -0.0327 -0.1787 0.0488 -0.0118 0.0225 -0.0248 0.1443 -0.014 0.0736 0.0274 0.0066 0.0235 0.0422 -0.047 0.0472 0.0278 -0.0342 0.0178 -0.0209 -0.0214 -0.0102 -0.0097 -0.0102 -0.006 -0.038 -0.0198 -0.0187 -0.0202 -0.0004 0.0011 -0.0164 -0.087 -0.0324 0.0309 0.0094 0.0116 -0.002 0.0281 -0.0363 0.0079 0.0813 0.0232 0.0136 0.0163 -0.2351 0.0136 0.0194 0.0077 -0.1156 -0.045 -0.0134 0.0134 0.2479 0.0262 0.0286 -0.0268 -0.0111 0.0112 -1e-04 0.0171 0.021 0.016 0.0084 0.0315 -0.003 -0.0424 -0.0026 0.0397 -0.0097 0.0054 0.0155 -0.1001 -0.0072 0.0454 0.0101 0.0049 0.0239 -0.115 0.0081 0.0061 -0.0118 0.0088 -0.15 0.1304 0.0231 -0.0752 0.0179 -0.0163 -0.0257 -0.0085 -0.0221 0.018 0.0403 0.0266 -0.0261 -0.051 -0.0192 0.0037 0.0256 0.0086 0.0022 0.2102 0.0626 -0.026 -0.0044 -0.0028 -0.0181 0.0232 -0.0312 -0.0078 0.0255 0.0084 0.0154 -0.0426 -0.1318 0.0021 0.0584 -0.1225 0.037 0.1113 0.0359 0.0106 -0.046 0.0283 -0.0256 0.0457 0.0024 0.0784 0.0197 0.0838 0.045 0.0458 0.0209 0.0214 -0.0691 0.0736 0.0286 0.0208 0.001 -0.0249 -0.0931 -0.0189 -0.0534 -0.2062 -0.0185 0.0789 0.0239 0.0369 -0.0102 0.0235 -0.0133 -0.0053 0.0416 -0.0082 -0.0231 0.0027 0.0255 0.003 0.0155 0.0038 -0.0106 -0.0026 0.0297 0.0079 -0.0069 -0.0069 -0.029 -0.0652 -0.0016 0.0008 -0.0274 0.0358 -0.0117 -0.0405 0.0347 -0.0033 -0.0237 0.1835 -0.0427 0.0109 -0.003 0.0216 -0.1411 0.004 -0.0207 0.0178 -0.0365 -0.0113 0.0199 -0.0027 -0.2536 0.1831 0.0459 -0.0215 -0.0245 0.0384 -0.0184 -0.0101 0.0107 -0.0067 0.1754 0.017 0.0422 -0.0317 -0.0152 -0.054 0.0482 0.0376 -0.0323 0.014 -0.0119 -0.0086 -0.0198 0.1394 0.0409 -0.0057 0.0222 0.1493 -0.0193 -0.091 0.0226 -0.1114 -0.0746 -0.0327 0.0484 -0.0153 -0.0143 0.103 -0.0386 0.0093 -0.0062 -0.013 -0.0209 -0.0423 -0.1953 -0.0193 -0.0279 0.0071 0.0041 0.0062 0.0155 0.0416 0.0093 0.0261 -0.0608 -0.08 -0.0051 -0.019 0.0073 0.002 -0.033 0.0095 -0.0089 0.1319 0.0027 -0.0074 0.0105 0.0652 -0.0288 0.0235 -0.069 0.1251 -0.1607 -0.0545 0.0891 -0.0133 0.0223 -0.0069 -0.0165 -0.02 -0.0643 0.0374 0.0198 -0.0007 0.1367 0.0008 0.0255 -0.1504 -0.008 -0.0202 -0.0306 -0.0462 0.0399 0.0521 0.0093 0.0093 -0.031 -0.0956 0.027 0.0034
Amazon 0.0044 -0.0054 -0.0275 0.022 -0.007 -0.001 -0.0289 -0.0369 0.0062 0.0328 0.0048 -0.0229 -0.0343 -0.0136 0.0045 0.0268 0.0151 -0.0105 0.0232 0.0155 -0.0164 0.012 -0.0161 0.0243 0.0286 -0.062 0.031 0.0142 0.0078 0.0415 0.027 -0.0035 -0.0366 0.03 0.0053 0.0072 0.0189 -0.0315 0.0011 -0.0309 -0.0018 0.0088 -0.0045 -0.0055 -0.0031 0.0269 0.0308 -0.0065 0.0082 0.0122 -0.0129 -0.0034 0.0159 -0.0264 -0.0289 -0.0075 0.0327 -0.0127 -0.0283 0.0337 -0.0512 -0.0184 0.0122 0.0168 -0.0152 -0.0055 0.032 -0.0032 -0.0051 0.0047 -0.0115 0.0373 0.0139 -0.0033 0.0049 0.0154 0.0168 -0.0237 0.0238 -0.0175 0.0003 0.0165 -0.0228 0.0206 -0.0044 0.0103 0.0082 -0.0284 0.0077 -0.0195 0.0026 0.0052 -0.035 -0.0094 -0.0244 0.0537 0.0267 -0.0495 -0.0217 -0.0156 -0.0497 0.0387 -0.0199 -0.0169 -0.0156 -0.0694 -0.0013 0.0215 -0.01 0.0067 0.0364 0.0471 0.0259 -0.0297 -0.0087 0.0457 0.005 0.0159 -0.0017 -0.0226 0.0275 -0.0303 -0.0155 -0.0146 -0.0317 -0.0486 0.0043 -0.0353 0.0466 0.0541 -0.0381 0.0247 -0.0308 -0.0076 0.0243 -0.0006 0.0101 0.0084 -0.0032 0.0399 -0.0383 -0.0291 0.0344 -0.0286 -0.0087 -0.0031 -0.0181 0.0104 0.0142 -0.0089 0.0021 0.0173 -0.0195 0.0173 0.0304 0.0275 -0.0024 0.0052 0.032 0.0103 -0.0018 -0.0374 -0.0025 -0.0165 0.0239 0.0466 0.0131 -0.0228 -0.0016 0.0333 0.006 -0.0409 0.0278 -0.0217 -0.0379 0.0176 -0.0326 0.0076 -0.0042 0.0012 0.0134 0.0049 -0.0013 -0.0004 -0.0257 0.0311 -0.0259 0.0507 -0.0651 0.0198 0.0166 0.0314 -0.0409 -0.0202 -0.0259 0.0169 -0.0443 -0.0206 0.0022 0.0055 -0.0402 0.0284 -0.0357 -0.0009 0.0226 0.0127 -0.0014 0.0005 -0.0086 -0.0054 0.0609 -0.0115 0.0015 -0.0379 0.0082 -0.0278 0.0173 0.0003 0.0312 -0.0094 0.0064 0.0252 -0.0293 0.0445 -0.0264 0.0018 0.0228 0.0149 -0.0514 -0.0034 0.03 -0.0356 -0.0155 -0.0086 0.0194 0.0218 0.0063 0.0096 0.0637 0.0079 0.0303 -0.0122 0.0203 -0.0174 0.0453 -0.0145 -0.0444 -0.0047 0.002 0.0257 1e-04 -0.0528 -0.044 0.0387 0.0113 -0.0032 1e-04 0.0095 0.0484 -0.02 0.004 0.0332 -0.0359 -0.0229 -0.0019 -0.0045 0.0573 -0.0116 0.0028 0.0177 -0.0127 0.0446 -0.0509 0.0246 0.0221 -0.0338 -0.0235 -0.0178 -0.0502 -0.0393 -0.0061 0.0116 0.024 0.0142 -0.0077 0.0132 -0.0403 -0.0336 -0.0082 -0.0004 -0.0832 0.0215 -0.0028 0.0274 -0.0084 -0.0098 -0.019 -0.0126 -0.0071 -0.0114
after 0.0006 -0.0097 -0.003 0.0034 0.032 0.0135 -0.0003 -0.0498 0.046 -0.0165 -0.0124 0.0007 -0.0042 0.0055 -0.0168 0.007 0.0461 -0.0062 0.0408 0.02 0.0072 -0.0004 -0.01 0.0482 -0.0021 -0.0143 -0.0006 0.0038 -0.0021 -0.0003 -0.0124 -0.0017 -0.0067 -0.0489 -0.0135 0.0045 -0.0076 0.0029 -0.0132 -0.0016 0.0045 -0.0291 -0.01 0.0037 0.0056 0.0551 0.0169 -0.0056 -0.0232 0.0005 0.0254 -0.0055 0.0071 -0.0057 -0.0301 -0.0157 0.0043 -0.0136 -0.0253 -0.0057 0.0049 -0.0099 0.0366 0.0163 -0.0012 -0.0105 0.0104 -0.0254 0.0011 -0.0114 -0.0209 0.0021 0.0203 0.0019 0.0239 0.0055 -0.0121 -0.0078 0.0013 0.0132 0.0125 -0.0247 0.0033 0.0362 -0.0024 -0.0002 -0.0012 -0.0299 -0.0015 0.0049 0.0164 -0.0206 -0.0338 -0.0283 0.0052 0.0203 0.0019 -0.0057 0.0265 0.0093 0.0101 0.0009 0.0313 0.01 0.0037 -0.0112 -0.0039 -0.0006 0.0058 0.0066 -0.0115 0.0551 0.0214 0.0087 0.007 0.0161 -0.0053 -0.0031 -0.0102 -0.0065 0.0093 -0.0004 -0.0025 0.0418 -0.0281 0.0013 0.0034 -0.0228 -0.0018 0.0066 0.0192 0.0072 -0.0179 -0.0018 -0.0105 0.0172 0.0041 -0.0199 0.0175 -0.0036 -0.0019 0.0064 -0.0078 -0.0179 0.0123 0.0028 0.0128 0.0095 0.0021 -0.0167 0.0262 -0.0134 -0.001 -0.0224 -0.0031 -0.0235 0.0069 -0.01 -0.0031 -0.0063 0.0113 -0.0056 0.0115 -0.0064 0.0038 0.0062 -0.0096 -0.0138 -0.0023 0.009 0.022 -0.0072 -0.0043 0.005 0.0149 0.0108 0.0117 -0.0185 -0.0227 0.0058 -0.0083 -0.0057 -0.0077 -0.0064 0.0031 -0.0002 0.0023 0.066 0.0149 -0.0018 0.0024 -0.0005 -0.0404 -0.0007 0.0081 -0.0014 0.0046 -0.0064 0.0046 0.0171 -0.0607 0.0443 -0.017 -0.0094 0.0021 -0.0187 0.0141 -0.003 0.0009 -0.0322 0.0461 0.0121 0.0023 0.0034 0.0131 -0.0185 -0.0028 -0.0082 0.0364 -0.0825 -0.008 -0.0063 -0.0067 0.0447 -0.0035 0.0058 -0.0053 0.0575 -0.0085 0.0377 0.0059 -0.0939 -0.0108 -0.005 0.0109 -0.0096 -0.0049 -0.0056 0.0068 -0.021 0.0003 -0.0037 -1e-04 -0.0008 -0.0587 0.0058 -0.0021 -0.0278 -0.0221 -0.0027 0.0319 0.0072 0.0108 0.0187 -0.0128 -0.015 0.0139 -0.0085 -0.0273 0.0026 -0.0086 0.0125 0.0131 -0.011 -0.0213 0.0018 -0.0093 0.0261 0.0018 0.0031 0.0157 0.0369 -0.0594 -0.0019 0.0037 -0.072 0.0043 -0.004 0.0082 -0.0167 -0.052 -0.0174 -0.0101 0.0107 0.0115 0.0103 -0.0124 -0.0126 -0.0002 -0.0014 0.0046 0.017 -0.0179 -0.0014 -0.0013 -0.0009 0.0123 0.0043 -0.0008 0.0009
reading -0.0208 -0.0161 0.0139 -0.004 0.0015 0.0083 -0.0108 -0.0426 -0.0142 0.0057 0.0079 -0.048 0.0023 0.0008 0.0073 -0.0029 0.0081 0.0062 0.008 -0.0412 -0.007 -0.0055 -0.0036 0.0131 -0.0187 0.0005 -0.0083 0.0206 0.0191 -0.0028 0.0112 -0.0049 0.0116 -0.0368 0.0165 -0.0181 0.0067 -0.0007 0.009 -0.0128 0.0051 -0.0305 -0.007 0.0213 0.0163 -0.0128 -0.0121 -0.0026 -0.0056 0.0144 0.0072 0.019 0.0141 -0.0079 -0.0216 0.0032 -0.0098 -0.0108 -0.0205 -0.0053 -0.0124 -0.0189 0.0404 0.0159 -0.0036 -0.0108 0.0193 0.0256 0.0046 0.0075 0.0053 0.0039 0.0372 0.0177 0.0057 -0.0158 -0.0057 -0.0116 -0.0043 -0.0134 -0.0223 -0.0345 0.0014 0.0255 -0.017 0.0114 0.0182 -0.003 0.0079 0.0103 0.0073 0.0121 -0.0325 -0.0143 0.0046 0.0054 -0.0083 0.0015 0.0089 0.0078 0.0022 0.0106 -0.0064 0.0063 0.008 -0.0432 0.0011 0.0169 0.0168 -0.004 -0.0069 0.0087 0.0132 -0.0003 -0.0186 0.0157 -0.0055 -0.0199 -0.0306 -0.004 0.0221 -0.0069 -0.0015 0.0216 0.0023 -0.0175 -0.0079 -0.0271 -0.0234 0.0569 0.0186 0.0114 0.0215 0.006 -0.0136 -0.0109 0.0122 0.0153 0.0047 0.0002 0.0153 0.0074 -0.0155 0.0097 -0.0139 -0.0219 -0.0255 0.01 -0.0045 0.007 0.0232 0.0046 0.0025 -0.0463 -0.003 0.0052 0.0019 0.0199 0.0092 -0.0085 0.0106 0.0111 -0.0047 -0.0264 0.0013 -0.0009 0.0217 -0.0342 0.0002 -0.0009 0.0015 -0.0212 0.0046 0.0036 0.0224 0.0259 0.0041 -0.0222 0.0046 -0.0006 0.0058 -0.0019 -0.0123 0.0077 0.0049 -0.0265 0.0162 0.0319 0.0085 0.0056 0.0074 0.0238 -0.0047 -0.0114 0.0077 0.0148 -0.011 -0.0016 -0.023 0.0111 -0.0523 0.0479 -0.0023 0.0151 0.0055 0.0113 0.0097 -0.0035 -0.0101 -0.0025 0.0146 0.0143 -0.0003 -0.0108 -0.0185 0.0089 0.011 -0.0139 0.0068 -0.0147 0.005 0.0203 0.0145 0.0422 0.0044 -0.0105 0.0127 0.0606 -0.0008 -0.0008 0.0177 -0.0357 0.004 0.0052 -0.0038 0.011 0.0298 0.0069 -0.0092 -0.0218 0.0355 -0.0093 0.0055 -0.0181 -0.0611 0.0178 -0.0159 -0.0111 0.0066 -0.0049 0.0517 -0.0053 -0.019 0.0459 0.0169 -0.0024 -0.0115 -0.0169 -0.0114 0.0005 -0.003 0.0055 0.0143 0.0169 -0.0089 -0.0053 0.0159 0.0335 0.0049 0.0015 0.0221 0.0341 -0.0379 -0.008 0.0009 -0.0283 -0.0013 -0.0068 -0.0053 -0.0052 -0.0017 -0.0068 0.0258 -0.0089 0.0135 0.0063 -0.0029 -0.0205 -0.0026 0.0064 -0.0056 0.0102 -0.0064 0.0008 1e-04 0.0095 0.0244 -0.0338 -0.0025 0.0005
many -0.0136 -0.0357 0.0347 -0.0049 -0.0331 -0.0119 -0.0008 -0.0756 -0.0036 -1e-04 -0.0411 -0.072 -0.0079 0.0012 0.0017 0.001 0.0392 0.0153 0.0396 0.0119 -0.0064 0.0172 -0.0012 0.0394 -0.0069 -0.0058 0.0171 -0.0118 0.129 -0.0025 -0.0244 -0.0052 0.0002 -0.0387 0.075 0.0169 0.0089 -0.0057 -0.0016 -0.0055 0.0239 0.0002 -0.0248 -0.0013 -0.0031 -0.0169 0.0053 0.0067 0.0081 0.0242 -0.0166 0.0182 -0.011 -0.0214 0.0148 0.0026 -0.0108 0.0176 -0.0167 -0.0123 0.0041 0.0159 0.0697 0.0011 0.007 0.023 -0.0053 -0.0163 -0.0177 -0.0056 -0.0134 -0.0031 0.0872 0.0033 -0.0009 -0.0026 0.0027 -0.0041 0.0214 -0.0058 -0.0003 0.0318 -0.0114 0.0568 0.0316 -0.0027 -0.0145 0.0153 -0.0173 0.0046 0.0125 -1e-04 -0.0661 -0.0051 -0.0162 0.0042 -0.0113 0.0033 0.0126 -0.0061 -0.0085 -0.0285 0.0109 -0.0089 0.0515 -0.052 -0.0044 0.0002 0.0414 0.0035 0.0016 0.0252 0.0332 -0.0121 -0.0157 0.0029 0.0083 -0.0061 -0.0357 0.0005 -0.0137 -0.0104 -0.0061 -0.046 -0.0343 0.016 0.0049 -0.0212 0.0023 0.0094 -0.0118 0.1079 0.0136 0.011 0.0082 0.0092 -0.0032 0.0595 -0.0194 -0.0061 -0.0138 -0.0089 0.0034 0.0286 0.0044 -0.0184 0.0179 -0.0004 0.0034 -0.0089 0.0369 0.0596 -0.0202 -0.0399 0.0202 -0.0102 -0.0055 0.0119 0.014 -0.0122 0.0091 0.0161 0.088 0.0022 -0.0024 -0.0174 0.0324 -0.0078 -0.0142 0.0219 0.0369 -0.0172 1e-04 0.016 -0.0101 0.0286 -0.0073 0.0104 -0.0044 0.0092 -0.0024 -0.006 0.0097 -0.0094 0.0173 -0.0335 -0.0011 0.09 -0.0181 -0.0088 0.0012 0.0011 -0.0966 0.0066 0.0106 0.0145 0.007 -0.0111 0.0002 0.001 -0.0843 0.0261 -0.0255 0.0024 0.0053 -0.0257 0.0012 -0.0157 -0.0083 -0.0615 0.0253 0.0126 0.0503 0.0125 -0.0171 -0.0183 0.0223 0.0413 -0.0193 -0.0545 -0.0129 -0.0177 -0.008 0.0631 0.0396 -0.0075 -0.0043 0.0546 -0.0026 0.0182 0.0114 -0.0137 -0.0657 0.0206 0.005 0.0124 -0.0012 0.0024 0.0134 -0.0036 0.0416 -0.0112 0.0077 0.0248 -0.0993 0.0116 -0.0055 0.0138 0.0146 -0.0327 0.0023 0.0038 -0.0029 0.0107 -0.0067 0.0326 0.002 0.0668 0.0168 0.0246 0.0032 -0.0002 -0.0061 -0.0317 0.0222 -0.0162 -0.006 0.03 0.0176 0.0057 0.0132 0.0419 -0.0689 -0.0182 0.0519 -0.0526 -0.0155 0.0037 -0.004 0.0157 -0.0093 0.0103 -0.0127 -0.0192 -0.0248 0.007 -0.0223 -0.0103 -0.0372 0.0107 -0.0096 0.0143 -0.0026 -0.0135 0.0219 -0.0008 0.012 0.0165 0.0249 -0.0018
negative 0.0197 0.0094 0.0097 0.0057 0.0133 0.0086 0.0131 -0.0327 0.0036 -0.0128 -0.0051 -0.0165 0.0153 -0.0008 -0.0235 -0.0165 0.0064 0.0038 0.0129 -0.0131 0.0021 0.0086 -0.0178 0.0311 -0.009 0.0274 0.001 0.0158 0.0428 0.0063 -0.0029 0.001 -0.0005 -0.032 0.0091 0.0042 -0.0257 0.0025 -0.0065 0.008 0.0226 -0.0278 -0.0008 -0.0044 0.0166 0.0131 -0.0027 0.0233 0.0184 -0.0133 0.006 -0.0154 0.0031 -0.0021 -0.0008 0.0108 0.0165 -0.0188 -0.018 0.0226 0.0099 0.0028 0.0464 -0.0156 -0.0012 -0.0159 -0.0015 0.0309 0.0004 0.0092 -0.0045 -0.0135 0.0226 -0.008 0.016 0.0108 0.0198 -0.01 -0.0027 -0.0058 -0.005 0.0018 0.0062 0.027 -0.0169 -0.0038 -0.0035 0.0097 -0.0053 -0.006 -0.0177 -0.0252 -0.0315 -0.0055 -0.0271 -0.0025 -0.0097 -0.0222 0.0032 0.008 -0.0279 -0.001 0.0079 0.0048 0.0107 -0.0331 -0.0192 -0.0234 0.0336 0.0382 -0.0133 0.0343 0.0147 -0.0312 0.0109 0.0096 -0.0007 0.0137 -0.0188 -0.0162 -0.0145 -0.0024 0.0167 0.0022 0.0342 -0.0045 -0.0098 -0.0061 0.0231 0.0034 0.007 -0.0043 -0.0228 0.0026 -0.0291 0.0076 0.0168 0.0451 -0.0064 0.0238 0.0082 -0.022 0.0177 -0.0076 -0.0029 0.0075 -0.0034 0.0038 0.0282 0.0095 0.0004 0.0336 -0.0083 -0.0136 -0.0096 0.0013 -0.005 0.0041 -0.0073 0.0196 0.0036 0.0331 -0.0199 -0.0293 -0.0003 -0.0128 0.0296 0.0156 0.0079 0.0067 0.0048 0.0005 -0.0023 0.0055 -0.0114 0.0195 0.0195 0.009 -0.0063 0.0104 -0.0063 0.0079 -0.0124 -0.0253 0.0122 -0.0067 0.0329 0.0295 0.0045 0.0021 -0.0075 0.0082 0.0192 -0.0068 -0.0097 -0.0346 0.0047 0.0024 -0.0032 -0.0043 -0.0529 0.0112 0.0059 -0.0516 0.0093 0.0367 0.0046 0.0131 -0.0083 -0.0121 0.0361 0.0006 0.0057 0.0053 0.0478 0.0082 0.0173 0.0237 -0.0229 -0.0339 0.0095 -0.0041 0.0019 0.0334 0.0304 0.004 -0.0257 0.0268 0.0322 -0.0173 0.0137 -0.0279 -0.0185 -0.0254 0.0115 0.0044 0.0187 0.0021 0.0016 -0.0177 0.0411 -0.0049 0.0109 0.0304 -0.0699 0.0251 0.011 -0.0064 0.001 -0.0226 0.0219 0.0054 0.0013 0.0274 -0.013 0.0011 -0.005 -0.0015 0.0116 -0.0293 0.0164 -0.0024 0.0046 -0.0088 -0.0016 0.0058 0.0169 0.013 -0.0091 0.0063 -0.0143 0.0303 -0.0285 -0.0201 0.0357 -0.0597 0.0024 0.0078 -0.0026 0.015 0.039 0.0079 -0.0062 -0.0012 -0.0093 0.0096 -0.0045 0.0175 0.0096 -0.0065 -0.01 0.007 0.0095 0.0098 -0.017 0.004 -0.0108 0.0123 0.0015 0.0019
reviews 0.0003 -0.0213 0.0074 0.0067 0.0158 -0.0245 0.0199 -0.0441 0.007 0.0137 0.0092 -0.0439 0.0161 -0.0138 -0.01 0.0249 0.0176 0.0083 0.0174 -0.0058 -0.0222 0.0118 -0.0055 0.0397 0.0266 0.0324 -0.0387 -0.0003 0.0403 -0.0145 -0.014 -0.0157 -0.0047 -0.0418 0.0193 0.0113 0.0057 -0.0099 -0.0098 -0.0344 0.0091 -0.0398 -0.0188 0.0095 -0.0043 0.0228 0.0253 -0.0102 0.0113 0.0085 0.0078 -0.0041 0.0069 -0.0158 -0.0123 -0.0027 -0.0137 0.0055 -0.0219 0.0446 0.0093 -0.0159 0.0722 -0.0084 0.0085 -0.0127 -0.0184 0.0119 -0.015 0.0193 -1e-04 -0.0019 0.0247 -0.0356 0.0169 -0.0117 0.0025 -0.0073 0.0277 -0.0116 -0.0038 -0.0164 0.0036 0.0383 -0.0287 0.024 0.0232 0.0131 0.0323 -0.0149 -0.0193 -0.0126 -0.0175 0.0104 -0.0218 0.0024 0.0142 0.007 -0.0084 0.011 -0.0301 0.0274 -0.0145 -0.024 0.033 -0.0169 0.0098 -0.0069 0.0177 0.028 -0.0015 0.0044 0.0177 -0.0099 -0.01 -0.0082 -0.0063 -0.0099 -0.023 -0.0136 -0.0057 -0.0097 -0.0065 0.0087 0.0482 -0.0283 -0.0397 0.0057 0.0421 0.0704 0.0214 0.0215 0.0078 -0.0157 0.0027 -0.0153 -0.0017 0.0381 -0.0177 0.0181 0.0036 -0.0165 0.0015 -0.0232 0.0097 -0.0025 -0.0147 -0.0081 0.0238 0.0092 -0.0025 0.034 0.0156 -0.0518 0.0123 0.0042 0.0007 0.0078 0.0226 0.0301 0.0048 0.0149 0.0052 -0.0389 -0.007 0.0102 0.0312 -0.0306 0.008 -0.0041 0.0326 -0.0053 0.023 0.0017 0.0019 0.0194 -0.0024 -0.0223 -0.0088 -0.0332 0.0262 -0.0046 0.0169 0.0006 -0.0064 -0.0049 0.0324 0.0278 -0.0323 0.0053 -0.0031 0.021 -0.0483 -0.028 -0.0173 -0.0082 0.006 -0.0139 -0.0186 -0.0079 -0.0556 0.0218 -0.0075 -0.0348 -0.0103 -0.0012 -0.0224 -0.0099 -0.0021 -0.026 0.0441 0.0199 -0.0077 0.0265 0.0032 -0.013 0.022 0.0126 -0.0195 -0.0084 -0.0026 0.0107 -0.0052 0.0391 0.0656 -0.0048 0.0014 0.0491 0.0062 0.0079 -0.0114 -0.0355 -0.0068 0.0435 0.02 -0.0331 0.0028 0.0035 0.0345 0.0013 0.008 0.0233 -0.0002 -0.0145 -0.0213 0.0047 -0.0197 -0.0264 0.0032 0.0007 0.0519 -0.0047 -0.0132 0.0319 -0.0062 -0.0137 0.0029 0.0012 0.0004 -0.0195 0.0312 0.004 0.0112 -0.0167 -0.0104 0.0019 -0.0124 0.0224 0.0094 -0.0046 0.0106 0.0312 -0.0404 -0.0041 -0.0208 -0.0021 0.0067 0.0119 0.0012 0.0039 0.0088 0.0254 0.0161 -0.0026 -0.0173 0.0082 -0.017 0.0243 -0.0213 -0.0137 -0.0063 -0.0034 -0.0057 0.0251 0.0087 -0.018 -0.0143 0.0067 -0.0108 -0.0237
various -0.0018 -0.0147 0.0143 0.005 -0.0079 -0.0224 -0.0021 -0.0431 1e-04 0.0023 0.0055 -0.0417 -0.0026 -0.0061 0.0043 0.0129 0.0411 0.0009 0.0183 0.0065 -0.0068 0.0174 -0.0014 0.0452 0.0006 0.0066 -0.0127 -0.005 0.0657 0.0073 -0.0154 -0.0157 -0.0024 -0.0248 0.0478 0.0079 0.0036 0.0032 -0.0077 -0.0087 -0.0003 -0.0284 -0.0055 -0.0051 -0.005 0.0 -0.0016 -0.0048 -0.0054 0.0069 -0.0227 0.016 0.015 -0.0111 0.0058 0.0111 -0.0004 0.0056 -0.0195 0.0065 0.012 0.0009 0.0619 0.0042 0.0172 -0.0156 0.0042 0.0065 -0.0174 0.016 0.0049 -0.0112 0.0442 -0.0003 0.0043 -0.0041 0.0015 0.0079 0.0112 -0.0127 -0.0048 0.0161 0.0027 0.0299 0.017 -0.0079 -0.0005 0.0019 -0.018 -0.0049 -0.0003 -0.0184 -0.036 0.0043 0.0027 0.0022 0.0008 0.0067 0.0015 0.0082 -0.0051 0.0121 0.0005 0.0029 0.0402 -0.0309 -0.0069 -0.0076 0.0061 0.0137 0.0168 0.01 0.0204 -0.0116 0.0045 0.0011 -0.0012 -0.0067 -0.0152 -0.0053 -0.0076 0.005 0.0057 -0.0186 -0.0245 0.0089 -0.0065 -0.0323 0.007 0.0283 0.0172 0.0467 0.0076 -0.0025 -0.01 0.009 -0.0158 0.0415 -0.0031 0.0113 -0.0081 -0.0009 -0.0065 0.0327 -0.0035 -0.0044 -0.0015 -0.0146 -0.0042 -0.0 0.0165 0.0583 -0.0048 -0.023 0.0076 -0.0097 -0.0155 -0.0013 -0.0052 0.0214 0.0026 -0.0042 0.0157 -0.0007 -0.0082 -0.004 0.0047 -0.0103 -0.0052 0.0072 0.0108 0.0044 0.0047 0.0024 -0.0184 0.0235 -0.0104 -0.0086 -0.0076 0.0026 0.0056 0.0084 0.0084 0.0046 0.0163 0.0021 -0.0029 0.0577 0.0086 -0.0076 0.0033 0.0063 -0.0192 -0.0075 0.0181 0.0151 -0.0029 0.0019 0.0006 0.0019 -0.0622 0.0025 0.0073 0.0104 0.0045 -0.0149 0.0016 0.0156 0.0158 0.0011 0.0718 0.0257 0.035 0.0004 0.0066 -0.002 -0.0038 0.004 -0.0128 -0.0023 -0.008 -0.0093 -0.0071 0.0315 -0.0007 -0.0003 0.0181 0.0248 -0.0049 -0.0344 -0.0142 -0.0035 -0.0377 0.0067 0.0149 0.0105 -0.002 0.0027 -0.0036 -0.0076 0.0202 0.008 -0.0106 -0.0057 -0.0882 0.007 -0.0139 0.0003 1e-04 -0.0035 -0.0049 -0.0022 0.0058 0.006 -0.0162 -0.0004 0.001 0.0227 -0.0021 0.0006 0.0147 -0.0047 -0.0016 0.0081 0.0051 -0.0192 -0.0025 0.019 -0.0027 -0.0068 -0.011 0.0304 -0.03 -0.0175 0.0287 -0.0531 -0.0046 0.0049 -0.0101 0.0069 0.0437 0.0027 0.0026 -0.0047 0.0039 0.0079 -0.0224 -0.0218 -0.0203 0.0275 -0.007 0.0028 -0.0011 -0.0153 0.0072 0.0068 -0.0045 -0.0065 0.0145 -0.0031
spent 0.0273 -0.038 -0.0145 -0.0142 0.0434 0.0023 -0.0336 -0.0633 0.0137 0.0079 -0.039 -0.0487 -0.0224 -0.0041 -0.0045 0.0272 0.0219 0.0121 0.0253 0.0439 -0.0183 0.0042 -0.0764 0.0348 0.0141 0.0246 0.0072 -0.0103 0.0467 -0.0082 -0.0273 -0.0177 -0.0081 0.0052 -0.0019 -0.0341 -0.0298 -0.0316 0.0035 -0.0061 -0.0072 0.0432 0.0309 0.0284 -0.0101 0.0175 -0.0064 0.0043 0.0511 0.061 -0.0095 0.0242 0.0021 0.0173 -0.0969 0.0205 -0.0675 -0.0051 -0.0294 -0.0273 0.0081 -0.0279 0.1077 0.0308 -0.0015 -0.005 0.0116 -0.0161 -0.0291 0.0066 -0.0019 0.0006 0.0887 0.0112 -0.011 -0.0026 -0.0032 0.018 -0.0403 -0.0094 -0.0399 -0.0443 0.0436 0.0389 -0.0225 -0.0112 0.0275 0.0029 -0.0038 -0.0085 -0.0294 -0.0075 -0.066 -0.018 0.0033 0.0278 0.0304 -0.0165 0.0286 0.0194 0.016 0.0171 0.0079 0.0368 0.0232 -0.0483 -0.0113 0.0144 -0.004 0.0275 0.019 -0.0126 0.0179 -0.0185 0.0093 -0.018 -0.0003 -0.0153 -0.0091 -0.0136 -0.0022 -0.0123 -0.0156 -0.018 0.0232 -0.0223 -0.0185 -0.0669 -0.0098 0.0144 0.0606 0.0047 0.0199 -0.0018 -0.0017 -0.0027 0.0137 0.0055 0.0258 0.0162 0.0321 -0.018 -0.0055 0.0349 -0.0306 0.0102 0.0113 0.0114 0.0349 -0.0601 0.105 -0.0288 -0.0309 -0.0706 -0.02 -0.0246 -0.0262 0.0431 0.0123 -0.0586 0.0248 0.028 -0.0073 -0.0066 -0.0114 0.0458 0.0032 -0.0359 -0.0084 0.0004 0.0407 -0.009 -0.0249 0.0018 0.0014 0.0153 -0.0146 0.0229 -0.0227 0.0228 -0.0655 0.028 -0.0216 -0.0063 0.01 -0.016 0.0192 0.0691 0.013 0.0104 0.0273 0.013 -0.0362 0.0327 0.0042 -0.0066 0.0123 0.0345 0.0025 -0.0168 -0.0072 0.0209 0.0111 0.0477 1e-04 0.0299 -0.0488 -0.0092 0.0282 -0.0932 0.0515 -0.0153 -0.0147 -0.0236 -0.0083 -0.0298 0.0035 -0.0107 0.0192 -0.0655 -0.0162 0.0023 0.0141 0.0596 -0.0145 -0.0003 0.0242 0.0824 0.0117 0.0242 0.0254 -0.053 0.022 -0.0254 0.0048 -0.0002 -0.0003 0.0234 -0.0256 -0.0239 0.1112 -0.0333 -0.0023 -0.0108 -0.0741 0.0309 -0.0065 -0.0254 0.0019 0.0062 -0.0174 -0.0092 -0.0076 0.0279 -0.0093 -0.0207 0.0091 0.0219 -0.0106 0.0193 -0.0148 -0.0089 -0.0128 0.0542 0.0251 -0.0157 -0.0175 -0.0359 0.0042 -0.0141 0.0269 0.032 -0.0497 -0.0019 -0.0161 -0.0515 0.0171 0.0197 0.0062 -0.0083 -0.0416 0.0046 0.0002 -0.0044 0.0221 0.0029 -0.0135 -0.0371 -0.025 0.013 0.0339 0.0133 -0.0435 0.0139 0.0037 -0.0145 -0.0182 -0.0362 -0.003 -0.0086
lot 0.0205 -0.0557 0.0147 0.0165 -0.0309 0.0025 0.0056 -0.0667 0.0115 0.0146 -0.0934 -0.0833 0.1002 -0.0229 -0.0118 -0.0072 0.1039 0.0504 0.0657 0.0164 0.0381 -0.0007 -0.0135 0.061 0.0566 0.0103 0.0373 -0.0312 0.0221 0.0042 -0.0396 -0.0076 -0.0113 -0.0899 0.0375 -0.029 0.0073 0.0116 0.0204 -0.0678 0.0296 0.0129 -0.0127 -0.0003 -0.0366 -0.0181 -0.0055 -0.0093 0.0056 0.0625 -0.025 -0.021 0.0191 0.0073 -0.0397 0.0083 -0.0476 0.004 -0.0955 -0.0291 0.0052 0.0076 0.0321 0.0155 0.0077 -0.0168 0.0479 -0.0189 -0.0181 -0.0372 0.0076 -0.0043 0.0495 0.0008 0.0189 0.0151 -0.0404 -0.0466 -0.0236 -0.0075 -0.0923 0.0026 0.0244 0.0846 0.0364 -0.0347 0.0017 -0.009 0.0153 0.0193 -0.0057 0.0467 -0.1035 -0.0194 -0.0117 0.0165 -0.0102 0.0463 0.0156 -0.0037 0.0096 0.0557 0.0015 0.0332 -0.0123 -0.0887 0.0175 0.0685 0.04 0.068 -0.0198 0.014 0.0498 0.0328 0.0193 -0.0201 -0.0394 -0.0487 -0.0661 0.0418 -0.0132 -0.0143 0.0197 -0.06 -0.0063 0.0078 -0.0416 -0.1288 0.0202 -0.0003 0.0293 0.01 0.0492 -0.0082 -0.0224 0.0011 0.0277 0.1404 -0.0037 -0.0051 -0.0348 -0.0195 0.0145 -0.0035 -0.0418 0.0008 0.0129 0.0338 0.0355 -0.0819 0.0621 0.0686 -0.0372 -0.0354 -0.0189 -0.0041 0.0375 0.0209 -0.0081 -0.0332 0.02 0.026 0.0045 -0.0139 0.0107 -0.0301 0.0225 -0.0278 0.0486 0.0314 0.0247 -0.0521 0.0654 -0.0202 0.0077 0.0703 0.0309 -0.012 0.0431 -0.009 -0.1185 -0.0212 -0.0261 0.0465 0.0148 0.0023 0.0257 0.0766 -0.007 -0.0119 -0.0246 0.0083 0.0004 0.035 0.0168 0.0117 -0.033 0.015 -0.0205 0.0699 -0.1216 0.0379 0.0323 -0.0283 0.0125 -0.0279 -0.0299 -0.0361 0.0251 -0.0487 -0.0022 -0.0309 0.0742 -0.0058 -0.0002 -0.0317 -0.023 0.0142 0.0137 -0.0329 0.0262 0.0091 -0.0256 0.0745 0.1129 -0.0074 0.0258 0.1037 0.0277 -0.0252 -0.0384 -0.0249 -0.0589 0.0398 0.0097 0.0031 -0.0271 0.0039 0.0653 -0.0434 0.1061 -0.0073 0.0153 0.019 -0.1315 0.0255 -0.0133 0.0703 0.0121 -0.0251 -0.0028 0.0244 -0.0377 0.0455 0.0243 0.0526 -0.0536 0.0791 0.0312 0.0288 0.0009 0.0159 -0.0127 -0.0499 0.0318 0.0038 0.0139 0.046 -0.038 -0.0209 -0.0111 0.0762 -0.1269 -0.0409 0.1423 -0.0731 -0.0194 0.0185 0.0243 -0.0349 0.0083 -0.0339 0.0094 0.0177 -0.0676 -0.0064 -0.014 0.0654 -0.0035 -0.0015 -0.0185 -0.0344 -0.0633 0.0285 -0.0085 -0.0092 0.0174 -0.047 -0.0062 -0.0222
of 0.0045 -0.0415 0.0522 0.0169 -0.0966 -0.0374 -0.004 -0.1236 0.04 0.0147 -0.0306 -0.103 0.0315 0.003 0.0089 -0.0049 0.1241 0.0103 0.1313 0.043 0.0003 0.0043 -0.0151 0.0664 0.0242 -0.0136 -0.0306 0.0088 0.1806 0.0016 -0.0099 -0.0037 0.0076 -0.0863 -0.0621 0.0035 -0.033 -0.0077 0.0067 0.0068 0.0031 0.0361 -0.0147 -0.0126 -0.0057 0.0129 0.0177 -0.0033 -0.042 0.0188 -0.0178 -0.0128 -0.0563 0.0025 0.0024 0.0113 -0.0008 -0.0076 -0.1238 -0.0095 0.0118 0.0098 0.2024 -0.0002 -0.0061 0.0312 0.0028 0.0471 0.0165 0.017 0.0068 -0.0011 0.0916 -0.0028 0.0245 -0.0042 -0.0018 -0.0587 -0.0126 -0.0164 -0.0863 -0.023 -0.0003 0.05 0.0402 -0.0037 -0.0163 -0.1011 -0.0205 -0.0092 0.0118 0.0349 -0.1571 -0.0339 -0.032 -0.0206 -0.0211 -0.0067 0.0287 0.0059 -0.0126 0.0131 0.0134 0.0309 0.0283 -0.1329 0.0139 -0.0136 0.019 -0.002 -0.0014 0.0332 0.0665 -0.0194 -0.0195 0.0031 -0.0066 -0.0053 -0.0199 -0.012 0.0003 0.004 0.0136 -0.0368 -0.0875 -0.0024 0.0164 -0.1773 0.0076 0.2882 0.0116 0.0612 0.0102 0.0076 0.0108 0.0181 -0.0137 0.0113 0.049 0.0134 -0.0119 -0.0029 -0.0016 0.0137 0.0569 -0.0093 0.0064 0.0034 0.0106 -0.0013 0.0789 0.0283 0.0057 -0.1705 0.0452 -0.0528 -0.005 0.0311 -0.0114 0.0051 -0.0069 -0.0184 -0.0147 -0.0135 -0.001 -0.013 0.0311 -0.0295 0.0218 0.0018 0.0284 0.004 0.0251 -0.0082 -0.011 0.0419 0.043 0.0302 -0.0252 -0.0088 0.0134 0.0214 0.0169 0.0233 0.0035 -0.0885 0.0112 0.2153 -0.0023 -0.0102 0.0189 0.0345 -0.2302 -0.0364 -0.0196 0.0049 0.0133 -0.0136 -0.0219 0.0096 -0.1178 0.0537 -0.0158 0.0055 0.0027 -0.0059 0.0063 -0.0009 0.0147 0.0465 0.2571 0.0026 -0.0571 0.0046 0.1017 -0.0009 0.0248 -0.0222 0.0381 -0.0495 -0.02 -0.0138 -0.0 0.1084 -0.0125 0.0082 0.0385 0.0464 -0.0082 -0.3407 -0.0127 -0.004 -0.0606 -0.016 -0.0431 0.02 -0.0027 -0.0141 -0.0143 -0.0136 -0.0062 -0.0126 0.0043 0.0285 -0.2371 -0.0194 -0.0209 0.1263 0.0033 -0.0641 0.0339 -0.0066 0.019 0.005 0.0346 0.011 -0.0343 0.1466 0.0331 0.0115 -0.0359 -0.014 -0.0026 0.0957 0.0168 -0.0139 -0.0203 0.0923 -0.0003 0.0098 0.026 0.103 -0.173 -0.0277 0.0141 -0.0969 -0.0012 0.0173 0.0292 -0.007 -0.0579 -0.0007 0.009 -0.0132 0.0805 0.0161 -0.0424 0.0476 0.0024 0.0251 -0.0013 0.0072 0.0099 -0.0093 -0.0058 0.0045 -0.0028 -0.0119 -0.0263 0.0068
time -0.0032 -0.0722 0.0054 0.0051 0.0142 0.0261 -0.0157 -0.0661 0.0553 -0.0115 -0.0219 0.0177 0.0119 0.0206 0.015 -0.0017 0.0368 0.0117 0.0551 0.0185 -0.0064 0.0143 -0.0387 0.0307 -0.0225 0.0176 0.0079 -0.0134 1e-04 0.0042 -0.0216 0.0049 -0.0013 -0.0911 -0.0345 -0.0232 0.016 0.0052 0.0085 0.0105 -0.0196 -0.0416 0.0081 0.0007 -0.0069 -0.0321 0.0192 -0.0063 -0.0233 0.0182 -0.0073 -0.0135 0.0227 0.0471 -0.0421 0.0241 0.0104 0.0032 -0.0174 -0.0174 0.0276 -0.007 0.0817 0.0083 -0.0215 0.0006 1e-04 -0.0147 -0.0185 -0.004 -0.0009 -0.0099 0.0099 -0.0049 -0.0025 0.008 0.0057 0.0002 -0.0077 0.0017 -0.0711 -0.0239 0.0089 0.0458 -0.0133 -0.0089 -0.004 -0.0311 -0.0118 -0.0321 0.0071 -0.0212 -0.0534 -0.0192 0.0207 0.0036 0.0009 -0.003 0.0477 -0.0006 0.0127 -0.0194 0.021 -0.0004 0.0195 -0.0141 0.0033 0.0019 0.0182 -0.008 -0.006 0.0339 0.0326 0.0254 -0.0161 -0.0027 -0.009 -0.0014 -0.0265 0.0018 0.0033 1e-04 0.0035 0.0429 -0.016 0.0023 0.0021 -0.1269 -0.01 0.0038 0.0298 0.0327 0.0139 -0.0099 0.0124 -0.0038 0.0202 0.0248 0.0399 0.0048 0.0289 -0.0084 0.0016 0.0231 0.0152 0.0385 0.0096 -0.0217 0.0091 -0.0283 0.0405 0.0276 -0.0423 -0.0551 0.0144 -0.017 0.0179 1e-04 0.0034 -0.0283 0.0043 0.019 0.0344 0.0036 0.0053 0.0042 -0.0083 -0.0345 0.0036 -0.0095 -0.0073 -0.0006 -0.0067 -0.0281 0.0053 0.0209 -0.0362 -0.0194 -0.0002 0.0116 -0.0078 -0.0006 -0.0134 0.0102 -0.0118 -0.0581 0.0138 0.0718 0.0012 -0.0012 0.032 0.0472 -0.0082 -0.004 0.0161 -0.0014 0.0141 0.0067 -0.0014 0.0268 -0.0377 0.0511 -0.0129 0.0205 0.0036 -0.0081 0.0068 -0.0221 0.0005 -0.053 0.0269 -0.0407 -0.0062 -0.0134 0.0185 -0.0025 -0.0061 -0.0132 0.0075 -0.0867 0.0078 0.0257 0.012 0.069 0.0438 -0.0117 0.0287 0.0816 -0.0208 -0.0063 -0.0137 -0.108 -0.0416 0.0104 0.0031 -0.026 -0.0012 0.033 0.0063 -0.0191 0.0403 0.0061 -0.0157 0.0228 -0.0374 0.0113 0.0041 -0.0145 -0.0117 -0.0008 0.009 0.0058 0.0101 0.0242 -0.0157 -0.001 -0.0028 0.0457 0.0055 0.0134 -0.0034 -0.0251 0.0095 -0.0731 -0.0095 -0.0228 -0.0249 0.031 0.0027 0.0009 0.0227 0.0666 -0.0603 -0.0329 0.0569 -0.0731 0.004 0.0086 -0.0196 -0.0005 -0.0264 -0.0151 -0.0026 -0.0045 0.0336 -0.0055 -0.0066 0.0078 -0.0054 0.0061 0.0257 -0.0008 -0.002 -0.0187 0.0247 0.0275 -0.0083 -0.0151 -0.0035 -0.0059
my -0.0731 -0.0031 0.0282 -0.0553 0.0043 -0.0256 0.0176 -0.1408 -0.1029 -0.0568 -0.1298 -0.2613 -0.0368 -0.0219 0.0654 -0.0547 0.0786 0.0391 0.0235 0.038 -0.0055 0.0405 0.0038 0.0527 0.0578 0.054 0.1705 -0.0116 0.1391 0.0114 0.0406 0.0051 -0.0197 -0.0768 -0.0713 -0.0288 -0.0789 0.0096 -0.0271 0.0136 0.0601 0.066 0.0386 -0.0115 0.0078 0.0315 -0.0022 -0.0247 0.0148 0.0367 0.012 0.0157 0.1256 0.0187 0.026 -0.0529 -0.0077 0.0145 -0.1452 0.0073 0.0186 -0.0096 0.1709 0.0228 0.0667 -0.0121 0.0129 -0.0185 -0.0668 -0.0177 0.0092 0.0147 0.0331 0.0419 0.0143 -0.0492 0.0364 0.0447 0.0407 0.0123 -0.0348 -0.0407 -0.0705 0.1166 -0.0281 -0.0172 0.0248 -0.0374 -0.0033 0.0507 0.0231 0.0607 -0.1341 -0.0286 0.059 -0.0247 0.0523 -0.0343 0.0123 0.0286 0.0174 0.0832 0.0347 -0.028 -0.0144 -0.1743 -0.0476 0.0203 0.0655 -0.0168 -0.0287 0.0632 0.0415 0.0702 -0.0168 0.0085 -0.0273 -0.0227 -0.013 -0.0552 -0.0316 0.0374 -0.0167 -0.0259 -0.1857 0.0568 0.0294 -0.1996 0.0509 0.2031 -0.0365 0.0277 -0.0441 -0.0194 -0.0175 -0.0106 0.0157 0.0962 -0.0153 -0.0228 0.0023 -0.0539 -0.0201 0.0027 -0.0498 -0.0762 0.012 -0.0449 0.0683 -0.0141 -0.0688 0.0718 -0.008 -0.114 -0.0089 -0.0533 0.0526 0.0097 0.014 -0.0694 0.0283 0.0492 0.0367 -0.0662 -0.0937 -0.0377 0.0049 -0.0813 -0.0443 0.0274 0.0049 -0.0084 -0.0163 -0.022 0.0077 0.0772 0.0071 0.0333 0.314 -0.0486 0.0168 0.0281 -0.0513 -0.0386 -0.0266 -0.0376 -0.0496 0.2463 0.0024 -0.0216 0.0106 0.1473 0.1047 0.0086 0.0303 0.0483 0.0329 0.067 -0.1223 0.0497 -0.1812 0.0876 -0.0109 -0.0107 0.018 0.0187 0.0148 -0.0174 0.0069 0.006 0.1605 0.0162 -0.0124 -0.0311 0.0029 -0.0174 0.041 -0.008 -0.059 0.0063 0.0422 0.0145 -0.0072 0.1495 0.0571 0.0175 -0.0243 0.1535 0.0225 0.005 0.0505 -0.1382 -0.0454 0.0022 0.1196 0.0576 -0.0092 0.02 -0.0687 0.0025 0.0603 -0.0342 -0.0082 -0.0048 -0.2684 -0.023 0.036 -0.1028 -0.007 0.0271 0.0428 -0.0317 0.0011 -0.0025 0.0999 -0.1113 -0.0241 -0.0123 0.0582 -0.0157 -0.0407 0.0476 -0.0053 -0.0533 0.0387 -0.0357 -0.0211 0.1072 0.0169 -0.0079 0.0227 0.1216 -0.1398 0.0068 0.1244 -0.0974 -0.027 -0.0015 -0.0133 0.0128 0.0711 0.022 0.0293 -0.0523 0.1035 -0.0193 -0.0493 -0.1566 -0.0184 0.0258 0.0114 -0.0027 -0.0606 0.0597 0.0065 -0.0047 0.0257 -0.062 -0.0193 -0.0075
options 0.0163 -0.0114 -0.0061 -0.0077 -0.0092 0.014 -0.004 -0.0321 -0.0136 -0.0014 -0.0096 -0.0117 -0.0148 0.0114 -0.009 -0.009 0.0076 -0.0095 0.0318 0.0011 0.0068 -0.0024 -0.0066 0.0296 0.0023 -0.0054 -0.0116 -0.008 0.0455 0.017 -0.0218 -0.0323 -0.0303 -0.0325 0.0248 -0.005 0.01 0.0236 -0.0017 0.005 -0.0118 -0.054 -0.0181 -0.0012 -0.0159 -0.028 0.0081 0.0164 0.0145 -0.002 -0.0266 -0.0084 0.0039 -0.0135 -0.0388 -0.0114 -0.0328 0.0147 -0.0086 -1e-04 -0.0062 -0.0019 0.0813 0.0317 0.0163 -0.0098 0.0217 -0.017 -0.0087 0.0037 -0.0014 0.0015 0.0044 0.0143 0.0114 0.0144 -0.0101 -0.0378 -0.0149 -0.0329 0.0007 -0.0021 0.0102 0.026 -0.0195 -0.0036 0.0012 -0.009 -0.0352 -0.0152 0.0408 -0.0131 -0.0286 0.0078 -0.0093 0.0021 0.0032 0.0327 -0.063 -0.0233 -0.0122 0.0119 0.0361 0.0084 0.0132 -0.0121 -0.0205 -0.0017 0.007 -0.0159 -0.0005 0.0313 0.0318 0.0041 -0.003 -0.0006 -0.0236 0.0037 -0.0258 0.0161 0.0043 -0.022 0.0097 -0.0136 0.0576 0.0171 -0.0224 -0.0115 0.0229 0.0368 0.0071 0.0149 0.0305 0.0156 -0.0181 0.0026 -0.0226 0.01 -0.0181 0.0159 -0.0057 -0.0052 -0.0034 0.0417 0.0058 0.0067 -0.0214 -0.0319 0.0108 0.0182 0.0102 0.0291 0.0204 -0.0438 -0.0013 0.013 0.0073 -0.0003 -0.0029 0.0008 0.0146 0.006 0.0118 0.0046 0.0097 0.0119 0.0037 -0.0313 -0.0063 0.0012 0.0111 -0.0156 -0.0064 -0.0068 -0.0287 0.0291 -0.0129 0.0087 -0.0163 -0.0113 0.0256 0.0034 -0.0081 0.004 0.038 -0.0131 -0.0279 0.0384 0.0111 0.01 -0.0015 0.0328 -0.0325 -0.0195 0.0002 -0.0237 0.0102 -0.0151 0.0047 0.0216 -0.0477 0.0326 0.0133 -0.0141 -0.0373 -0.0154 0.0062 0.0211 0.0058 -0.0281 0.0341 0.0148 0.027 0.0204 0.0024 0.0105 0.0223 -0.0029 -0.0371 -0.0167 0.0073 0.0077 -0.0213 0.0426 0.0466 -0.0005 -0.0061 0.0247 0.0178 0.0085 -0.0072 -0.0169 -0.034 -0.0133 0.0271 0.009 0.0213 -0.0105 0.0204 0.0138 -0.0061 0.0144 -0.0114 -0.0118 0.0026 0.0047 -0.0055 -0.0002 0.0039 -0.0024 -0.0023 -0.0147 -0.0117 -0.0038 -0.014 -0.0089 0.0097 0.0274 -0.0094 0.0355 0.002 0.0049 -0.0074 -0.021 -0.0047 -0.0056 -0.0057 0.0054 0.024 0.0165 -0.024 0.0386 -0.0471 -0.026 0.0248 -0.0067 -0.0088 0.0207 0.0189 -0.0176 0.0086 0.0075 0.0138 0.0193 -0.0044 -0.0024 -0.0139 0.0305 0.0109 -0.0087 -0.0018 -0.0054 -0.001 -0.0118 0.0225 0.0118 0.0043 -0.0204 0.0232 -0.0027
and 0.0012 -0.0021 -0.0039 0.0048 0.0152 0.0051 0.0023 -0.0461 -0.0189 0.0139 -0.0003 -0.0333 0.0049 -0.0081 0.0098 -0.0083 0.0384 -0.0023 0.1058 0.0043 -0.015 0.0033 0.0124 0.0548 -0.001 0.0216 -0.0274 0.0017 -0.02 0.0011 -0.0187 0.0007 0.0131 -0.0085 0.0185 0.0159 0.0117 0.0065 0.0043 -0.0158 -0.0118 -0.0509 -0.0063 -0.009 -0.0058 -0.006 0.0117 -0.0148 -0.0761 -0.0032 -0.0119 0.0051 -0.0 -0.0139 -0.047 0.0207 -0.003 -0.0032 -0.059 -0.0051 0.0104 -0.0112 0.0803 0.0026 0.0316 -0.0009 -0.0072 -0.0429 -0.0048 0.0008 0.0115 -0.0179 0.0737 0.0071 0.0007 -0.0108 0.0126 -0.0267 0.0098 -0.0002 -0.0183 -0.0137 -0.0243 0.0272 0.0245 -0.0064 0.0034 0.003 -0.008 -0.0142 0.0016 -0.0088 -0.0738 -0.0164 0.0128 0.037 0.0153 0.004 0.0017 0.013 0.0081 0.0191 0.0015 0.0053 0.0238 -0.0901 0.006 -0.0015 0.0115 0.008 0.0085 0.0977 0.06 -0.0107 -0.0114 -0.0005 -0.0081 -0.0074 -0.0004 0.0007 -0.0031 0.0048 0.0101 -0.0473 0.0603 -0.0018 -0.0259 -0.0156 0.0061 0.0661 0.0345 -0.0045 -1e-04 0.002 0.008 0.0068 -0.0054 0.0275 0.0073 0.0158 0.0076 0.0039 0.0043 0.0035 0.021 0.0161 0.0236 0.0019 0.0086 -0.0094 -0.001 0.0532 0.0089 -0.0244 0.0091 -0.0084 0.0049 -0.0058 0.0024 -0.0086 0.0013 -0.011 -0.0431 -0.0046 0.0022 -0.0052 0.004 -0.0016 -0.0057 0.0082 0.0373 0.0039 0.0041 0.0002 -0.0117 0.0161 0.0112 0.0056 0.0 0.0042 -0.0088 0.0014 0.006 -0.0049 0.002 -0.0065 0.0019 0.1244 0.0013 -0.0004 -0.0017 0.051 -0.0582 -0.0071 0.0089 0.0079 0.0016 0.0058 -0.0042 -0.0073 -0.0965 0.0144 0.0023 -0.008 0.0043 -0.018 -0.0076 -0.0083 0.0139 -0.05 0.0331 0.0256 0.0294 -0.0081 -0.0095 -0.0105 0.0143 -0.015 -0.0246 -0.0337 0.0023 -0.0032 -0.0207 0.04 -0.0168 -0.0015 0.0074 0.0512 0.0003 -0.0011 0.0182 -0.0409 -0.0698 0.0084 0.0326 0.0096 -0.007 0.0089 -0.0093 0.003 0.0031 -0.0026 -0.0013 0.0157 -0.0038 0.0071 -0.014 -0.0114 0.0192 -0.0375 0.0305 0.0126 0.0115 0.0178 -0.0112 -0.0155 -0.0022 0.0616 0.0047 -0.0034 -0.0237 0.0019 0.0096 0.019 -0.0 -0.0133 0.0177 0.0011 -0.0103 -0.0018 0.0113 0.0722 -0.0854 -0.0393 0.014 -0.0635 -0.0066 0.0073 -0.0023 0.0007 -0.0725 0.0039 -0.0028 -0.0148 0.0189 0.0083 -0.0225 -0.0145 -0.0111 0.0109 -0.0093 0.0114 0.019 0.0039 -0.0019 0.0004 0.006 -1e-04 0.0021 -0.0117
figured -0.0043 -0.0077 0.0185 0.0016 0.0186 0.0037 -0.0312 -0.0436 -0.0066 -0.0078 -1e-04 -0.02 0.0075 -1e-04 -0.0115 0.0046 0.0184 -0.0101 0.015 0.0093 0.0034 0.0182 -0.0038 0.02 0.0168 -0.0255 -0.0027 -0.0037 0.0356 0.0227 -0.0256 0.0084 -0.001 0.0065 0.0071 -0.0129 0.0071 0.0083 0.0135 0.0187 -0.0224 -0.0287 -0.0019 0.0009 -0.0026 -0.0033 0.0178 -0.0078 0.0136 0.0245 0.0286 -0.0059 -0.004 -0.0148 -0.0146 0.0048 0.0105 -0.0104 -0.0206 -0.0159 -0.0098 -0.0274 0.0677 -0.0049 0.0173 0.0023 0.0162 0.0173 -0.0158 0.0102 -0.0128 0.0138 0.024 -0.0046 0.037 -0.0014 -0.0112 -0.0203 0.0049 -0.032 0.0042 -0.0061 0.0064 0.0214 -0.0031 -0.0044 0.0032 -0.0111 0.0142 -0.0134 -0.0296 -0.011 -0.0362 -0.031 -0.0077 0.0102 -0.0184 -0.0101 0.0129 0.0081 0.008 -0.0066 0.0006 -0.0028 -0.0177 -0.0439 -0.0032 0.0132 0.0018 0.0025 0.0247 0.0235 0.0293 -0.0309 -0.0088 -0.0088 0.0113 0.0085 -0.0144 -0.0199 0.0091 0.0145 -0.0195 0.0112 0.0219 0.0271 -0.0007 0.0019 0.0061 0.0136 -0.0008 0.0015 -0.0002 0.0051 -0.024 -0.0079 -0.0053 0.0658 0.0083 -0.0134 0.0176 0.0014 -0.0159 0.0161 -0.0087 -0.0179 -0.0065 0.0206 0.0104 -0.0286 0.0171 0.0072 -0.0222 -0.0324 0.0039 -0.018 0.0152 -0.0224 -0.005 -0.014 0.0037 -0.0026 -0.002 0.004 0.0034 0.0048 0.006 -0.0028 -0.0078 0.0043 0.0086 0.0053 -0.0021 0.0033 0.0028 0.0176 0.0116 0.0026 -0.0105 -1e-04 -0.0021 0.0006 -0.0065 -0.0075 0.0085 -0.0078 -0.0125 0.0358 0.003 -0.0071 0.0044 0.0074 -0.0389 0.0188 -0.0119 0.0148 -0.0065 -0.0049 -0.0105 0.0084 -0.0324 0.0085 0.019 0.0116 0.0038 0.0237 -0.0141 -0.0118 0.0003 -0.0439 -0.013 0.0059 0.0305 -0.0245 -0.0301 0.0119 -0.0211 -0.0082 -0.0248 -0.0087 0.011 0.0061 0.0035 0.0386 0.0214 0.0059 0.0269 0.0471 0.023 0.0099 0.0032 -0.0519 -0.048 0.0014 -0.0261 -0.0051 0.0007 -0.009 -0.0253 0.0002 0.0738 0.0044 -0.0138 -0.0057 -0.0199 -0.0006 -0.0143 0.0062 -0.0045 -0.0272 0.0052 -0.0056 -0.0076 -0.0055 -0.0009 -0.0055 -0.0078 -0.0079 0.0077 -0.0024 0.0028 0.0049 -0.0049 0.007 -0.0184 0.0204 0.0018 -0.0068 -0.0029 0.0028 -0.0012 0.0355 -0.0465 0.0024 0.0017 -0.0015 -0.0148 0.0034 0.0008 -0.0144 -0.0384 0.0051 0.0175 0.0133 0.0186 -0.0049 0.0233 -0.022 -0.0425 0.035 0.0123 0.0177 0.0048 0.0208 0.0034 -0.0019 -0.0169 0.0023 0.017 -0.0054
this 0.0048 0.015 0.0005 0.0006 -0.0091 -0.0075 -0.0076 -0.0778 -0.0392 -0.0151 -0.0163 -0.0585 0.0176 0.0045 0.0041 1e-04 0.0816 -0.0141 0.0187 -0.0035 0.0031 0.0027 0.0105 0.0134 0.0019 -0.0042 -0.0014 -0.0133 0.0512 0.0087 -0.0028 0.0106 0.0033 -0.0728 -0.0362 -0.0491 -0.0132 -0.0169 -0.0164 -0.0036 0.0016 0.0123 -0.0007 -0.0105 -0.0022 -0.0122 -0.0175 -0.0035 0.0339 0.005 0.0232 -0.0068 0.006 0.0077 -0.0409 -0.015 0.0025 0.0031 -0.062 -0.0023 -0.0015 -0.0061 0.0458 -0.0117 -0.0033 -0.0107 0.0008 0.0144 0.0081 -0.0018 -0.0083 0.0054 -0.0392 0.0005 0.006 0.0014 0.0101 0.025 0.0208 0.0201 -0.042 0.0027 -0.0026 0.0417 -0.0058 0.0095 -0.0094 -0.0172 -0.005 -0.0144 -0.0023 0.0318 -0.0779 -0.0376 -0.0225 -0.0105 0.0119 -0.0098 0.0278 0.0076 0.0008 -0.0082 0.0065 0.0044 -0.0247 -0.0575 0.0035 -0.005 -0.0007 0.009 0.0037 0.0123 0.0346 0.0069 -0.0086 -0.0031 -0.0102 -0.0012 -0.0327 0.0176 0.0128 -0.002 -0.0055 0.0347 -0.0466 0.0089 0.0138 -0.0492 0.0144 0.097 -0.032 -0.0294 0.0044 -0.0111 -0.0083 -0.0063 -0.0137 0.0479 -0.0051 -0.011 0.0098 -0.0045 0.0028 0.0031 -0.0499 -0.0152 0.0062 0.0032 -0.0076 -0.0023 0.0375 0.0205 -0.0291 -0.072 0.0268 0.008 0.0157 0.0038 -0.0114 -0.0374 -0.0078 -0.0142 -0.0414 0.0002 0.0127 0.0105 -0.0053 0.0015 0.0011 -0.0 0.0094 0.0122 0.0112 0.0013 0.0321 0.0175 -0.0139 0.0169 0.0057 0.0051 -0.0107 -0.0024 0.0008 -0.007 -0.0075 -0.0079 0.0029 0.0737 0.0177 0.0039 -0.0015 0.0842 0.0012 0.0044 -0.0079 0.0111 -0.0 0.0041 -0.0289 0.0129 -0.0964 0.07 0.0044 0.0012 -0.0039 -0.0061 0.0027 0.0012 -0.0026 -0.014 0.0256 -0.0009 -0.02 -0.0068 0.0591 0.0117 0.0011 0.0146 -0.0355 -0.0274 -0.0059 -0.0089 -0.0035 0.0859 0.0221 -0.0004 0.014 0.0665 -0.0107 0.0326 0.0095 -0.1361 -0.0357 0.0036 0.028 -0.0018 0.0051 0.0148 0.007 -0.0409 0.0509 -0.0072 0.0054 -0.0179 -0.0993 -0.0022 -0.0142 0.0147 0.0006 0.0303 0.0214 0.0037 0.0012 0.0067 -0.0084 0.0141 -0.0052 -0.013 0.0043 -0.0044 0.0019 -0.0152 -0.0037 -0.0365 -0.0167 0.0018 -0.0064 -0.0105 0.0041 0.002 -0.0067 0.089 -0.0908 -0.0096 0.0517 -0.0508 -0.01 0.0091 -0.0019 0.0053 0.0015 1e-04 0.0061 -0.0017 0.0072 -0.0138 0.0203 -0.0014 0.0023 0.0117 -0.0086 -0.0038 0.0073 -0.0131 -0.0054 -0.0034 -0.0095 -0.0071 -0.0057 0.0061
one 0.0104 0.0027 0.0131 -0.002 -0.0282 -0.0057 0.0089 -0.0956 -0.0398 -0.0086 -0.0526 -0.0514 0.027 -0.006 0.0059 0.0099 0.0409 0.0052 0.0088 0.0226 0.0004 0.012 -0.0367 0.0327 0.0293 -0.0073 -0.0005 0.026 0.0709 0.0217 -0.0212 -0.0059 -0.0094 -0.0527 -0.0182 -0.0207 -0.0261 1e-04 0.0062 0.0155 -0.0112 -0.0441 -0.0098 0.0002 0.0062 0.0343 0.0003 0.0012 -0.0141 0.0393 0.0199 -0.0025 0.0043 0.0085 -0.0052 -0.002 0.0462 -0.0079 -0.0943 -0.0037 -0.0185 -0.006 0.0955 -0.0323 0.0012 0.0131 -0.0123 0.0722 0.0081 -0.0038 0.0229 -0.0053 0.0482 -0.0226 0.0149 -0.0155 0.0126 -0.003 0.0095 0.032 0.0068 0.0165 -0.0465 0.043 -0.034 -0.0404 -0.0077 -0.0035 0.0057 -0.0057 0.0402 0.0102 -0.0929 -0.0379 0.0051 0.0303 0.0239 0.004 0.0114 0.0204 0.0122 -0.0146 0.0186 0.0057 -0.0573 -0.0792 0.0099 0.0049 0.0327 -0.0023 -0.0038 0.0631 0.0267 -0.0216 0.0063 0.0161 -0.0142 0.0183 -0.0845 1e-04 0.0169 -0.008 0.0085 -0.0156 -0.0291 -0.0069 -0.0055 -0.1119 0.017 0.0154 -0.0289 0.0114 -0.0124 -0.0138 0.0167 -0.0054 0.0102 0.059 -0.0023 -0.0033 -0.0092 -0.0058 0.0112 -0.028 0.0089 -0.0034 -0.0197 0.0017 0.0068 -0.0025 0.0023 0.0056 -0.0215 -0.0828 -0.0036 -0.0479 -0.0092 -0.0146 -0.0339 0.0106 -0.0013 -0.0059 0.0584 0.0045 0.0136 -0.0255 0.023 -0.0448 0.013 0.0351 -0.0008 -0.0141 -0.0165 0.0127 -0.0046 0.0122 -0.0047 -0.0015 -0.0114 -0.026 0.0263 -0.0043 0.0026 0.001 0.0162 -0.0452 0.0092 0.0937 1e-04 -0.0231 0.0064 0.1098 -0.0391 0.0029 0.0007 -0.0125 0.0148 -0.0062 0.0 0.012 -0.1072 0.0527 -0.0296 -0.012 -0.0003 -0.0319 -0.0281 -0.022 0.0455 -0.1028 0.0615 -0.0335 -0.0408 0.0069 -0.0599 0.0029 -0.0057 0.0198 0.0042 -0.0414 0.0133 0.0158 -0.0116 0.0799 0.0464 -0.0146 0.0075 0.0624 0.0247 0.0464 0.0176 -0.0917 -0.0131 -0.0247 -0.0298 0.0182 0.0117 -0.0241 -0.0025 0.0247 0.0937 0.0081 0.0188 0.0248 -0.0573 -0.0014 -0.0129 0.0699 0.0177 0.003 -0.0529 0.0263 0.0113 -0.0021 0.0221 -0.0004 -0.0088 0.0701 0.0112 0.0109 -0.0384 0.0022 0.0063 -0.0329 -0.0243 0.0029 -0.011 -0.0202 0.0036 0.0554 0.0033 0.0615 -0.0739 -0.0325 0.0642 -0.0071 -0.0086 0.0158 0.0173 -0.0172 0.0086 0.0097 0.0366 -0.0284 0.0148 0.0177 0.0088 -0.0457 -0.0007 0.0119 -0.0057 -0.0108 -0.0361 -0.0448 0.024 0.0019 0.025 0.0195 0.0267 -0.0044
probably -0.011 -0.0036 0.0054 0.0032 0.0017 -0.0013 -0.001 -0.0366 -0.0051 0.0027 -0.0226 -0.0331 0.017 0.0016 0.0025 0.0037 0.0383 -0.0017 0.0229 0.0003 -0.0011 0.0037 0.0011 0.0082 0.0088 -0.0021 0.0162 -0.0014 0.0238 0.0055 0.0042 -0.0098 0.0041 0.0037 0.0047 -0.0131 -0.0094 -0.0057 0.0268 0.0027 -0.0058 -0.0141 -0.0099 -0.0009 -0.0075 0.0011 -0.0008 -0.0046 -0.0081 0.0083 -0.0142 -0.0084 0.007 -0.0081 -0.0317 0.0031 0.0014 0.0058 -0.0202 -0.0044 -0.0053 -0.0066 0.0196 0.0024 0.01 0.0117 -0.0027 0.0123 -0.0011 -0.0033 -0.0037 0.0147 -0.0065 -0.0062 0.0004 -0.0078 -0.0108 -0.0028 0.0031 -0.0061 -0.0166 0.0064 -0.0027 0.016 0.0015 -0.0045 0.0042 0.0079 -0.0034 -0.002 -0.0098 0.0251 -0.0237 -0.0091 -0.0143 -0.0224 -0.0052 1e-04 -0.0064 0.0037 -0.0016 -0.0073 0.0167 0.0055 1e-04 -0.0459 0.0017 -0.0121 0.0142 0.0117 -0.0076 0.0163 0.0213 -0.0111 -0.0081 -0.0092 -0.0072 0.0022 -0.0185 -0.0016 0.0124 0.001 -0.0034 -0.0112 0.0476 0.0037 0.0057 -0.0334 -0.0181 0.007 -0.0099 0.0021 -0.0084 0.0032 -0.0121 0.0063 -0.0074 0.0178 0.0069 -0.0053 0.0072 0.0016 0.0078 0.0064 -0.0076 0.0045 0.0008 0.012 -0.0037 -0.0084 0.0168 0.0501 -0.0104 0.0027 -0.0052 -0.0003 0.0023 -0.0023 -0.0051 -0.0129 0.0024 -0.0007 -0.0141 -0.0047 0.0061 -0.0048 0.0124 -0.0185 0.0119 0.0071 0.0177 1e-04 0.0052 -0.0008 0.0141 0.0102 0.0148 -0.0036 0.0139 0.0101 0.0154 -0.0014 0.0027 0.0026 0.0115 0.0106 0.0117 0.0289 -0.0079 -0.0036 0.0049 0.0531 -0.0508 0.0102 -0.0077 -0.0014 -0.0026 -0.0018 -0.024 0.0176 -0.0298 0.0054 -0.0148 0.0189 0.0048 -0.0058 -0.002 -0.0075 -0.0072 -0.0672 -0.0209 -0.0108 0.0191 -0.0339 -0.0088 0.007 -0.0196 0.0108 0.0083 -0.0294 -0.0032 -0.004 -0.0036 0.0309 0.0091 -0.0075 0.0106 0.0305 0.0018 0.015 0.0198 -0.0218 -0.0386 0.0074 0.0162 -0.0036 0.0087 0.0092 -0.0045 -0.0039 0.0616 0.009 -0.0029 0.0112 -0.0195 -0.0008 -0.0196 -0.0063 -0.0066 -0.0302 -0.0088 0.0023 -0.0117 -0.0061 0.0159 0.0003 -0.0133 0.014 -0.0032 0.0035 -0.0012 -0.014 -0.012 -0.0028 -0.0018 -0.0021 -0.0213 -0.039 -0.007 0.0044 0.0065 0.0253 -0.0368 -0.0069 0.0374 -0.0171 -0.0187 -0.0052 0.0036 -0.0124 -0.0367 0.0103 0.0012 0.0095 0.0213 0.002 -0.0039 -0.0055 -0.0064 0.005 0.0005 0.0105 -0.0017 -0.0012 0.0078 -0.0051 0.0005 -0.0068 -0.008 -0.0018
Phone -0.0172 0.0032 -0.0014 0.0127 0.0223 -0.0031 0.0081 -0.0486 0.0474 -0.0008 0.0055 -0.0254 -0.0407 -0.0024 -0.0167 -0.0262 0.0394 -0.0111 0.015 -0.0069 0.0027 -0.0086 0.0419 0.0344 0.025 0.0053 0.0119 0.0244 0.0048 0.0121 -0.0329 0.0351 -0.0054 -0.0178 0.0028 -0.0203 0.0063 0.0023 -0.012 -0.0152 -0.0147 -0.0631 0.0049 -0.0043 0.0496 0.0299 0.0045 -0.0416 -0.0092 -0.0158 0.0169 -0.0086 0.031 -0.0123 -0.0369 0.0328 -0.0265 -0.006 -0.0192 0.016 -0.0383 1e-04 0.078 0.0225 0.002 0.0023 0.0154 0.0029 -0.0631 -0.0377 -0.0153 -0.0093 0.0309 -0.0189 -0.0364 0.0072 0.0167 -0.0099 -0.0156 -0.0155 -0.0119 -0.0589 0.0024 0.0211 -0.0156 -0.0614 0.0064 0.004 -0.0243 0.018 -0.0181 0.0026 -0.0454 0.0052 0.0186 0.0309 0.0267 -0.0226 0.0286 -0.0269 0.0245 0.0126 -0.0271 0.0238 0.0097 -0.051 0.0077 -0.0016 0.0203 -0.015 0.0216 0.0222 0.0464 0.0475 -0.0499 -0.0198 -0.0196 -0.0014 -0.0124 -0.0409 0.0047 0.0356 0.0075 0.0045 0.0146 0.0065 -0.0062 -0.0436 0.0208 0.035 0.0053 -0.0218 -0.02 -0.0167 0.0113 -0.0047 0.0355 0.0274 -0.0638 0.024 0.0709 -0.0008 0.0227 -0.0117 -0.0243 0.0154 -0.0221 0.0268 0.0189 -0.0113 -0.0304 0.0251 -0.0024 -0.0259 -0.0292 0.0102 -0.023 -0.0348 0.0087 0.0174 0.0191 0.023 -0.0154 0.0031 0.0128 -0.022 0.0042 0.0096 -0.0025 0.0455 -0.0064 0.0436 0.0032 0.044 -0.0163 0.0331 0.0008 0.0182 0.003 -0.007 0.0148 -0.0023 0.0211 0.0348 0.005 -0.02 -0.0531 0.0503 0.0417 0.0019 -0.0141 0.0136 0.0063 0.0287 0.0401 -0.0175 -0.0022 0.0098 0.0042 0.0414 -0.0772 0.0419 -0.0143 0.0518 0.0028 0.0031 -0.005 -0.0191 -0.062 -0.0383 0.0648 -0.0136 0.0144 0.0314 -0.0195 -0.0284 -0.0054 0.0143 0.017 -0.0116 0.0339 -0.0127 -0.0008 0.054 0.0292 -0.0196 -0.0005 0.0303 -0.0107 0.0032 0.0291 -0.0472 -0.007 -0.0152 0.0283 0.03 0.0199 0.002 0.0228 -0.0241 0.0364 -0.0312 0.015 -0.0136 -0.0253 -0.0489 0.0056 0.0196 -0.016 0.0254 0.0037 0.006 -0.0371 0.018 0.0176 -0.0344 -0.0283 0.0005 -0.0454 0.0117 -0.0134 -0.0248 0.0132 -0.0156 0.0004 -0.0196 -0.014 0.0111 0.013 0.0237 -0.08 0.051 -0.0645 -0.0119 0.0127 -0.0178 -0.0044 0.0309 0.0249 -0.0103 0.0385 -0.0434 -0.0127 0.0087 -0.0085 -0.0191 -0.0807 -0.0099 -0.0065 -0.0313 0.015 -0.0095 -0.0487 0.0232 0.0013 0.0233 -0.036 0.021 0.0303 -0.0157
came -0.0089 0.0604 -0.0074 0.0147 0.0062 -0.0048 -0.0118 -0.0769 0.0104 0.0176 -0.0376 -0.0617 0.006 -0.0028 0.0265 -0.0026 0.0909 -0.0048 0.0172 0.0275 -0.0092 -0.0175 -0.0074 0.028 0.0201 -0.0119 0.0152 -0.0106 0.0167 0.0096 -0.015 0.0135 -0.0112 0.0253 -0.0223 0.0196 -0.009 0.0292 0.0048 -0.0133 -0.0101 -0.021 -0.0088 -0.0196 -0.0093 0.0405 0.0253 -0.0347 0.0833 -0.0045 0.0576 0.0084 0.0039 0.0241 -0.0998 0.0101 0.0459 -0.0247 -0.0635 -0.0335 0.0009 -0.0174 0.1253 0.0223 0.0021 0.0253 -0.0075 -0.0034 -0.0373 -0.0062 -0.0173 -0.0124 -0.0056 0.0084 0.0072 -0.0028 -0.0265 0.0046 0.0165 0.0067 -0.0213 0.0002 0.0801 0.0481 0.0223 0.0029 -0.0164 -0.0297 0.0042 -0.0254 -0.0185 -0.0436 -0.0703 -0.036 -0.0129 0.0098 0.0092 -0.0067 0.0053 0.0119 0.0073 -0.0088 0.0344 0.0097 0.0246 -0.0959 -0.0081 0.0138 0.0366 0.0268 -0.0197 0.0126 0.0215 0.0078 0.0012 0.038 0.0318 -0.004 -0.0268 -0.0081 -0.0065 -0.0151 -0.004 0.0469 0.0438 0.0094 -0.0323 -0.0119 0.0018 0.0437 -0.0295 -0.0239 -0.0047 0.0063 -0.0236 -0.0189 -0.0066 0.1035 -0.0242 0.0225 0.0126 0.015 -0.0171 0.0312 -0.0257 0.0039 0.0011 0.0356 0.0159 -0.0051 0.0238 0.039 -0.002 -0.0683 0.0237 -0.0029 0.0337 -0.0304 0.0098 0.0087 0.0202 0.0016 0.0194 -0.0187 -0.0107 0.0111 -0.014 -0.0112 0.0202 0.0085 0.0392 -0.0154 -0.0272 0.035 0.018 0.0151 -0.0032 -0.0107 0.0127 0.0157 -0.0228 0.0142 -0.0176 -0.0167 -0.019 0.0188 -0.0052 0.0947 -0.0065 -0.0036 -0.0096 0.0088 -0.0173 0.0142 0.0059 0.0119 0.0242 0.0138 0.0094 0.009 -0.0808 0.0709 0.0118 0.0019 0.0181 -0.0146 0.0173 -0.0119 0.012 -0.0631 0.0362 -0.0225 0.0062 -0.0075 -0.0326 0.0066 -0.0346 -0.0112 0.0205 -0.0725 0.0204 -0.0536 -0.0086 0.0851 -0.0304 0.0184 0.0025 0.0633 -0.0112 -0.0133 0.0141 -0.0821 0.0327 -0.0152 -0.0259 0.018 0.0014 -0.0339 -0.0323 -0.0259 0.0806 -0.0194 0.0042 -0.0054 -0.0114 -0.008 0.0111 -0.0048 -0.0281 0.0182 0.0619 -0.0093 0.0409 0.0076 0.01 0.0068 -0.0168 0.0236 0.0036 0.0014 -0.0065 0.0046 0.0104 -0.0015 0.0049 0.014 0.0065 -0.0111 -0.0196 -0.0036 -0.0059 0.0381 -0.0807 0.0173 0.0006 -0.0465 -0.026 0.0348 -0.0162 -0.0109 -0.1022 0.0082 0.0148 0.0257 0.0206 -0.0029 0.0171 -0.0219 -0.015 0.0337 0.0193 0.0219 -0.0347 -0.0079 0.0073 0.0306 0.015 0.0129 0.0056 -0.0018
in 0.0062 0.0091 0.0268 -0.017 -0.0181 -0.0137 -0.0187 -0.1504 0.0026 -0.0144 -0.0163 -0.3327 0.0217 -0.003 0.0027 0.0023 0.142 0.0088 0.0622 -0.0035 -0.0047 -0.0097 -0.0004 0.0768 -0.0077 -0.022 -0.0056 0.0151 -0.0799 -0.0075 -0.0223 0.0056 0.0032 -0.1146 -0.0157 -0.0203 0.0066 -0.0148 0.018 -0.0034 -0.0089 0.0327 -0.0333 -0.0371 -0.0007 -0.0317 0.0084 -0.0335 -0.031 0.0591 0.0474 0.0114 -0.0332 0.0053 -0.273 0.0057 -0.001 -0.0027 -0.1408 -0.0033 -0.0125 0.0066 0.192 -0.0172 0.0273 -0.0198 0.0125 0.0142 0.0241 -0.0031 -0.041 -0.0067 0.0521 0.0022 0.0144 0.0033 0.0075 0.0243 0.0045 0.0208 -0.0952 0.0013 -0.0215 0.0537 0.058 -0.0105 -0.0031 -0.0369 -0.0065 -0.0205 -0.0077 0.0265 -0.1728 0.0731 -0.0138 -0.0057 0.0144 -0.0326 0.0056 0.0043 -0.0181 -0.0198 0.0083 -0.0077 0.0648 -0.1047 -0.0012 0.0186 0.0289 0.0005 -0.0057 0.1732 0.0713 -0.0027 -0.0303 -0.0252 -0.0068 -0.0116 -0.0337 -0.0133 0.0023 0.0093 0.012 -0.0668 -0.1423 -0.0216 -0.0154 -0.0892 0.0041 0.1017 0.0299 0.0569 -0.025 0.0129 -0.0137 0.0107 0.0019 -0.095 0.0552 -0.0271 0.0073 0.0093 -0.0075 0.0004 0.0081 -0.0191 -0.0035 -0.0083 0.0195 -0.0096 0.0927 -0.0794 0.0069 -0.1145 -0.0091 -0.0008 0.0017 0.0177 -0.0072 -0.0045 -0.0002 -0.0155 -0.0203 -0.0123 -0.0058 -0.0276 -0.0061 -0.0061 0.0058 0.008 0.0643 -0.0114 -0.0025 0.0063 -0.0134 0.029 -0.0031 0.0196 -0.0182 -0.0038 0.0252 0.0052 -0.0029 -0.0458 0.0079 0.0644 0.0174 0.1762 0.0235 0.0029 -0.009 0.0414 -0.1144 -0.0064 -0.0079 0.0192 -0.0016 -0.0063 -0.0018 -0.0105 -0.2034 0.0992 -0.0053 0.0517 -0.0174 -0.0194 0.0094 -0.0032 0.0191 0.0236 0.1767 -0.0341 -0.0405 -0.0212 0.0594 0.014 0.0306 0.0003 -0.0022 -0.0253 0.0013 -0.0197 -0.0149 0.1294 -0.0622 0.0009 0.0075 0.1315 -0.0446 -0.0299 -0.0071 -0.1224 -0.047 -0.0068 -0.0594 0.0296 0.0025 -0.0153 0.0012 -0.0064 0.0433 -0.0045 0.0058 0.0498 -0.1741 -0.0232 -0.0349 0.0106 0.0172 -0.0656 0.0267 0.0223 0.0178 -0.0084 -0.0805 -0.0051 0.0243 0.1049 0.0126 -0.0033 -0.0248 -0.0259 -0.024 0.0775 -0.0261 0.0033 -0.0019 0.0396 -0.0137 0.0147 0.0038 0.0822 -0.1488 -0.0402 0.0835 -0.1566 0.0005 0.0006 0.0288 -0.0101 -0.0794 -0.0157 0.0551 -0.0137 -0.0336 0.0045 0.0338 -0.1184 0.0219 0.0029 0.012 0.0246 0.0154 0.0057 -0.0183 -0.0042 -0.0221 -0.0231 0.0038 0.009
perfect 0.0036 0.0168 0.0086 -0.0034 -0.0222 -0.0042 -0.0051 -0.0398 -0.0044 -0.0 -0.0089 0.0074 -0.0049 0.0054 -0.0106 -0.0247 0.0276 0.016 0.0259 0.0123 -0.0048 0.0109 -0.0066 0.0229 -0.0082 -0.0089 0.0141 0.0047 0.0228 -0.0079 -0.0044 -0.0105 0.0041 -0.0263 0.0104 -0.0106 -0.0027 0.0024 -0.0098 -0.0024 -0.016 -0.0336 -0.0274 -0.0145 -0.003 -0.024 -0.0053 -0.0181 0.026 0.0071 -0.0056 -0.0151 -0.0035 -0.0036 -0.0275 -0.0061 -0.0006 -0.0248 -0.0328 -0.0042 -0.0038 -0.0009 0.0185 0.0071 0.0261 -0.0077 -0.0103 -0.0078 0.0014 0.0006 0.0164 -0.005 -0.0017 -0.0282 -0.0109 -0.0116 -0.0061 -0.0398 -0.0258 0.0145 0.0311 0.0068 0.0196 0.0423 0.0121 -0.0121 0.0148 -0.0176 -0.014 0.0021 0.0038 -0.015 -0.0417 -0.0184 0.0097 0.0091 0.0008 -0.0014 0.0408 0.0118 0.0053 0.008 0.0014 -0.0071 -0.0302 -0.0497 0.012 0.0027 0.0146 -0.0003 0.0008 0.036 0.0118 -0.0087 0.0006 0.0052 -0.0032 0.0159 -0.0225 -0.0133 -0.0026 -0.0023 0.0029 -0.0127 0.031 -0.0059 0.0115 -0.0357 -0.005 -0.0002 0.0221 -0.0061 -0.0004 -0.0186 -0.0293 -0.0341 0.0088 -0.0025 0.0041 -0.0196 0.0059 -0.0187 -0.0036 -0.0132 0.0231 0.0218 -0.0038 -0.0243 0.0155 0.0004 0.012 0.0148 0.0103 -0.0264 0.0006 -0.0017 0.0096 -0.0086 0.0093 -0.0157 0.0192 0.0043 -0.0154 -0.0081 0.0197 -0.0068 -0.014 0.0106 0.0153 0.0315 -0.0134 0.0042 -0.0095 -0.0161 1e-04 0.0298 0.0026 0.01 0.0143 0.0065 0.012 -0.0055 -0.0114 -0.0336 0.0099 0.0062 0.0102 0.0363 -0.0099 -0.0017 0.0044 0.06 0.0149 -0.0201 -0.023 -0.0014 0.0204 0.011 0.0082 0.0134 -0.0641 0.0568 0.0055 0.0209 0.0092 -0.0111 -0.0051 -0.0056 -0.0154 -0.0165 0.0207 -0.0282 -0.017 0.0331 0.006 -0.0094 0.0068 0.0035 -0.017 -0.0191 0.0004 -0.0008 -0.0104 0.0396 0.0136 -0.0087 -0.0077 0.031 0.0119 0.0012 0.0064 -0.0337 -0.0483 -0.0009 0.0145 -0.0078 -0.0058 -0.0172 -0.0135 0.0212 0.0738 -0.0071 -0.0124 0.002 -0.0669 -0.0052 0.0059 -0.0104 0.0129 -0.0125 0.0123 -0.0127 -0.0188 0.0261 0.0123 0.0174 -0.0078 0.0083 0.01 0.029 0.0095 0.0051 0.0056 -0.0069 -0.0108 -0.0009 0.0012 -0.0063 0.0081 0.0037 0.0005 0.0344 -0.0399 -0.0071 0.0111 -0.0273 -0.0134 0.0072 0.0078 0.0082 0.0159 0.0075 0.0141 -0.0145 -0.0174 -0.0114 -0.0065 0.0018 -0.0018 0.0138 -0.0034 -0.0226 -0.0037 -0.0196 0.0193 -0.0053 0.005 -0.0048 -0.0143 -0.0085
condition 0.017 0.003 0.0022 0.0021 -0.0074 -0.0097 -0.0002 -0.0273 0.0049 -0.0126 -0.0172 -0.0096 0.0043 -0.0008 -0.0036 -0.0055 0.0138 0.0061 0.0106 0.0148 -0.0009 -0.0152 -0.0056 0.018 -0.0115 -0.0025 -0.0095 0.0099 0.0042 -0.0064 0.0102 0.0329 0.0034 -0.0313 -0.0087 0.0019 -0.0011 0.0013 0.0042 0.0089 0.0254 -0.0367 -0.0159 0.0109 -0.0102 -0.0116 0.006 0.0037 -0.0096 0.0055 0.009 -0.0033 -0.0076 -0.0132 -0.0135 -0.0063 -0.0028 -0.0021 -0.0024 0.0013 0.003 0.0079 0.0335 0.0073 0.0125 -0.0219 0.0074 -0.0028 0.0076 0.005 0.0022 -0.003 -0.0113 -0.0198 -0.0026 0.001 -0.0052 -0.0077 -0.0244 0.0036 0.0076 0.0032 0.0101 0.0164 -0.0094 0.0038 0.0164 -0.0043 -0.0089 -0.0031 0.009 -0.0027 -0.0136 -0.0079 -0.0135 0.0119 0.0004 0.0052 0.017 0.0116 -0.0025 -0.0097 0.0108 0.0074 -0.0155 -0.0197 -0.0046 0.0011 0.004 0.0043 0.0005 0.0098 0.0223 0.0127 0.0038 -0.0009 -0.0021 0.0096 -0.0201 0.0044 0.0035 -0.0025 -0.0056 0.0027 0.0218 -0.0114 0.0112 -0.0312 0.0162 0.0365 0.0224 -0.0211 0.0034 -0.0017 -0.0135 0.0277 -0.0025 0.005 0.0195 0.0233 0.0037 0.0006 -0.0073 -0.0157 0.0028 0.0045 -0.0056 -0.0004 0.0156 0.0119 0.0065 0.0078 0.0062 -0.0233 -0.0071 0.0081 -0.0055 0.0029 0.0049 -0.0174 0.0114 -0.0075 -0.0281 -0.0029 0.0046 -0.0218 0.0014 -0.0025 0.001 0.0131 -0.0115 -0.0084 -0.0081 0.002 0.0025 0.0201 0.0048 -0.0077 -0.0123 -0.0036 0.0078 0.0174 -0.0143 0.0024 0.0051 -0.0126 -0.017 0.0211 0.0026 -0.008 -0.0011 0.0193 -0.0069 -0.0068 -0.01 0.001 0.008 0.0145 0.0018 -0.004 -0.0492 0.0083 -0.0178 -0.0253 0.017 -0.0257 0.0154 -0.0031 -0.0095 -0.0038 0.0233 -0.0058 0.0005 0.0201 0.014 0.013 0.0014 0.0105 -0.0112 1e-04 0.0038 -0.0005 -0.0209 0.0316 0.0025 -0.0014 -0.0101 0.0239 -0.007 0.0131 -0.0143 -0.026 -0.0325 -0.0198 0.0226 0.0114 0.0107 -0.0002 0.0099 0.0026 0.0179 0.0023 -0.0035 0.0042 -0.0159 0.0109 0.0127 -0.0118 -0.0084 -0.0139 0.0106 0.004 0.0228 0.0127 0.0073 0.0018 0.0097 0.0112 0.0171 0.0035 -0.0187 -0.0201 -0.002 -0.0132 0.0043 -0.0151 0.0072 0.0096 0.0097 0.0083 -0.0033 0.0291 -0.0349 -0.0054 0.0291 -0.0142 -0.0026 0.0064 -0.0018 -0.0058 0.0265 0.0049 -0.0087 0.0046 0.0054 0.0077 0.0009 0.0071 -0.002 0.0234 -0.0017 -0.0013 0.0003 -0.0065 -0.0006 -0.0193 -0.003 -0.0146 -0.0189 0.0016
it 0.0009 -0.0303 0.0241 0.0367 0.0733 0.0264 -0.0181 -0.1227 -0.0493 -0.0251 -0.0721 -0.0926 0.0359 0.0052 -0.0063 -0.0239 0.1737 -0.0081 0.025 0.015 0.0084 -0.0257 0.0306 0.007 0.028 0.0113 0.0324 0.017 0.1974 0.0066 -0.006 0.0273 0.0115 0.0015 0.0415 -0.0284 -0.0107 -0.009 -0.042 -0.03 0.0144 -0.0702 -0.0159 -0.0386 -0.0351 -0.0063 0.0018 -0.0293 -0.0869 0.0215 -0.0133 0.0082 0.0221 -0.0183 -0.1686 -0.0224 0.015 -0.0344 -0.1166 0.0096 0.0015 -0.0096 0.076 -0.0171 -0.0188 -0.0055 0.0154 0.0232 0.0077 0.0018 0.0347 0.0264 -0.0854 0.0158 0.0404 -0.0274 -0.0227 0.0118 -0.0206 -0.0097 0.0128 -0.0172 -0.0445 0.1103 -0.0508 0.0351 -0.0272 -0.0284 0.0078 0.0092 0.0086 0.0482 -0.1148 -0.0291 0.0365 -0.0905 0.0385 -0.0357 0.095 0.0479 -0.0147 0.0049 0.0677 0.0154 -0.0562 -0.1633 -0.0183 0.0374 0.0091 0.0145 0.0107 0.082 0.1065 -0.0233 0.0117 0.0184 -0.0197 -0.0062 -0.0552 0.0421 -0.0061 -0.0489 -0.0318 0.0731 -0.0734 0.0036 -0.0473 -0.0977 0.0246 0.1256 -0.0468 -0.018 0.025 -0.0184 0.014 -0.0047 -0.0075 0.1177 0.0252 0.0272 0.0012 -0.0168 0.0149 -0.0402 -0.0186 0.0165 0.0362 0.0114 -0.0005 0.0055 0.0379 0.0239 -0.0171 -0.0762 -0.0245 0.0008 0.0077 -0.0424 -0.0184 -0.0487 -0.005 -0.0207 -0.0494 -0.0065 0.0211 0.0113 0.0248 0.0219 -0.0154 -1e-04 0.019 0.0132 -0.0006 0.0111 0.0042 0.0669 -0.0291 -0.0131 0.0155 0.0116 -0.0175 -0.0254 0.0023 -0.0432 -0.0305 -0.0291 0.0247 0.2155 -0.0074 -0.0314 0.0128 0.0039 -0.1454 0.0118 -0.024 0.0202 -0.0175 0.0134 -0.0468 0.0633 -0.2303 0.0956 0.0248 -0.0023 0.019 -0.0218 0.0012 -0.0216 0.0138 -0.1409 -0.0724 -0.0416 0.0102 -0.0344 0.1038 0.0176 -0.0003 0.0096 -0.0285 -0.0793 0.0306 -0.0248 0.0109 0.1795 0.1583 -0.0169 0.0387 0.0868 0.0249 0.1407 0.0245 -0.1784 -0.1017 -0.01 0.0624 -0.012 -0.0254 0.017 0.0477 -0.0377 0.0819 0.003 0.013 0.0037 0.0268 -0.0097 -0.0149 -0.0287 -0.0232 -0.0611 -0.0175 0.0195 -0.0082 -0.011 0.1004 0.007 -0.0285 0.0123 -0.0636 0.0192 0.0362 -0.0105 0.0059 -0.0383 -0.0446 0.002 -0.0068 0.0125 -0.0045 0.0802 -0.0317 0.1708 -0.1509 -0.0524 0.0414 -0.0578 -0.0064 0.0044 -0.044 -0.0353 -0.0679 0.008 0.0102 -0.0144 -0.01 -0.0142 0.0002 0.0859 -0.0289 0.0121 0.0108 0.0123 0.092 0.0083 0.0236 0.0031 -0.024 -0.0324 0.0271 0.0007
looks 0.023 0.0052 0.0386 -0.0117 -0.0177 -0.0381 -0.0054 -0.0585 -0.0472 0.022 -0.0025 -0.0441 0.0279 0.0073 -0.0251 0.0192 0.0858 0.0107 0.051 -0.0192 0.0095 -0.0207 -0.0225 0.0522 0.0232 -0.0064 0.0041 0.0038 0.0308 0.0033 0.0011 -0.0189 0.0098 -0.0074 0.035 -0.0214 0.0355 0.0009 -0.0086 -0.0157 0.0046 -0.025 -0.0218 -0.03 -0.0009 -0.0169 0.0038 -0.0318 0.0237 -0.0122 0.0038 -0.0147 0.0037 0.0017 -0.043 0.0156 -0.0164 -0.0039 -0.0357 -0.0086 -0.0084 -0.0268 0.0657 -0.0189 0.0176 0.017 0.0083 -0.0096 -0.0154 0.0183 0.0166 0.0079 -0.0122 -0.0463 -0.0012 -0.0009 0.019 -0.0171 0.0077 -0.0341 0.0021 -0.0097 0.0127 0.0457 -0.0033 0.001 -0.0097 0.0059 0.0169 0.0032 0.0024 -0.0206 -0.0419 -0.0163 0.0311 -1e-04 0.0211 -0.0123 0.0366 -0.0068 -0.0051 0.0138 0.0002 0.0205 0.0114 -0.0733 -0.0051 0.011 0.0172 0.0288 -0.0071 0.0101 0.0368 0.0007 -0.0121 -0.0104 -0.0528 -0.019 -0.037 0.0066 -0.0048 -0.0248 0.0032 0.027 0.0914 0.0007 0.0 -0.0418 0.0095 0.0284 -0.0074 0.0407 -0.0099 0.0023 -0.0386 -0.0371 -0.0081 0.0886 -0.0061 0.0048 -0.0091 0.0074 0.0022 0.0041 0.0136 0.0234 0.021 0.0017 -0.014 -0.0073 0.0014 0.0127 0.0323 -0.0823 -0.0415 0.0225 0.0135 -0.0079 -0.0068 -0.0257 0.0025 -0.0277 -0.014 -0.0069 -0.0157 0.0078 -0.0167 -0.0271 0.0019 0.0152 -0.0171 -0.0217 -0.0096 -0.0046 0.0226 0.0326 0.0029 -0.0257 0.0119 -0.011 0.0085 -0.0339 0.0206 -0.0074 0.0168 -0.0002 -0.007 0.0555 -0.0109 0.0279 0.0109 0.0326 -0.0608 -0.0166 -0.0094 -0.0109 0.0019 -0.0117 -0.0317 0.0048 -0.0682 0.0439 0.053 -0.0442 0.0029 -0.0008 0.0124 0.0085 -0.0106 -0.0481 -0.0138 0.0057 -0.0488 0.0105 0.0073 -0.0 -0.0195 0.0086 -0.0195 -0.0054 -0.0114 -0.008 -0.0304 0.065 0.0525 -0.0139 0.002 0.0629 0.0025 0.031 0.0136 -0.0082 -0.0549 0.0066 0.0156 -0.011 0.0132 -0.0205 0.008 -0.0208 0.0335 0.0143 -0.0016 0.0093 -0.045 0.0154 -0.013 -0.0092 0.0006 -0.018 0.0299 -0.0154 -0.0098 -0.0013 0.0307 0.0134 -0.0308 0.0166 -0.0028 -0.0086 -0.0108 -0.0176 0.0095 -0.0105 0.0314 0.0002 0.0173 -0.0005 0.0099 0.0249 -0.0347 0.0688 -0.0641 -0.0146 0.0331 -0.0583 0.0077 -0.004 -0.005 -0.0306 -0.0555 -0.0031 0.0249 -0.0046 -0.0363 -0.0003 -0.0159 -0.016 0.0022 -0.0019 -0.0209 0.0047 -0.0235 0.0228 0.0101 -0.02 0.006 -0.0211 0.0296 -0.0206
brand -0.0296 -0.0034 -0.0123 0.0368 -0.031 -0.0412 0.0079 -0.0405 0.0354 -0.001 -0.0145 -0.0151 -0.0197 -0.0156 -0.0403 0.0101 0.0567 -0.014 0.0513 -0.0208 0.0211 0.0195 0.0369 0.0207 0.0284 0.0094 0.0167 -0.0046 0.0155 0.0095 -0.027 -0.026 -0.0044 -0.0049 -0.0148 -1e-04 0.0038 0.0069 -0.0295 0.0121 0.0199 -0.045 -0.0483 -0.0404 0.0331 -0.0164 -0.0045 0.0179 0.0 -0.0219 0.0192 -0.0303 -0.0044 0.0207 -0.0158 0.0263 0.0049 0.0164 -0.0335 0.0279 0.0041 -0.0365 0.0671 -0.0227 0.005 0.0023 -0.0008 0.0142 0.0106 -0.0285 0.0068 -0.0191 0.0157 0.0258 0.0052 -0.0132 0.0167 -0.0184 -0.0055 0.0051 0.0263 -0.0092 -0.0165 0.0309 0.0019 -0.0132 -0.036 -0.0234 -0.0171 -0.0327 0.0323 -0.0036 -0.0534 0.0056 0.0377 0.045 0.0053 -0.0013 0.0226 -0.0296 -0.0061 0.0253 0.0038 0.0026 -0.0388 -0.0743 -0.0512 0.0008 -0.0174 0.0382 0.0308 0.0247 0.045 0.0182 -0.0147 -0.0381 -0.0169 -0.0154 -0.0126 0.0177 -0.0017 -0.004 -0.0035 -0.0351 0.0497 0.0373 -0.0044 -0.0317 0.0527 0.0476 -0.0033 -0.014 0.0067 -0.0456 -0.0061 0.0211 0.0172 0.0258 0.0015 -0.0298 -0.001 0.0044 -0.0351 -0.0173 -0.0274 -0.0113 0.0624 0.0081 -0.0028 -0.0079 0.0066 0.0342 0.0117 -0.0225 -0.0069 -0.0002 -0.0117 0.026 0.0053 0.0025 0.0135 -0.0314 -0.047 0.0179 0.022 0.0012 0.0115 -0.0342 -0.0126 0.0039 -0.0065 0.0094 -0.0191 0.0172 -0.0098 0.0227 -0.0374 0.0384 -0.0268 0.0003 -0.0089 -0.0443 -0.0006 -0.0175 0.0186 -0.0264 -0.0006 0.0506 -0.0088 -0.0327 -0.0105 0.0443 0.0057 -0.0073 0.0027 -0.0251 0.0196 -0.0055 0.0183 -0.0011 -0.0682 0.0569 -0.0188 -0.0118 -0.0069 -0.0126 0.0227 0.0013 0.0055 -0.0159 0.0723 -0.0 0.002 -0.0241 -0.0098 -0.0109 -0.0437 -0.0316 0.0003 -0.0105 -0.0429 -0.0039 0.0474 0.0537 0.0025 -0.0335 0.0066 0.0229 0.0077 -0.0208 0.0278 -0.0191 -0.0395 -0.0362 0.0042 0.0292 -0.035 -0.0395 0.0302 -0.0128 0.0432 -0.0007 0.0103 0.0107 -0.0151 -0.0206 -0.0156 0.0088 -0.013 0.0063 0.0056 0.0037 0.0016 0.0333 0.0179 0.0043 -0.0234 0.0108 0.0387 -0.009 0.0217 0.0283 0.0289 -0.0191 0.0008 -0.0141 0.0075 -0.0117 0.021 0.0066 -0.0046 0.0481 -0.0672 -0.0164 0.0028 -0.0301 -0.0278 0.0501 -0.0644 -0.0 0.0555 -0.0072 -0.0057 0.0162 0.0005 -0.0372 -0.0406 0.0098 -0.0006 -0.0012 -0.0125 0.0253 0.0131 -0.0064 -0.0274 -0.0265 0.0211 -0.0005 -0.0256 -0.005
far -0.0074 -0.0236 -0.0107 -0.0219 0.0564 -0.0682 0.0098 -0.0797 -0.0644 0.0391 -0.0719 -0.0765 0.0302 0.0145 0.0123 -0.0166 0.19 0.0028 0.029 -0.0175 0.001 -0.0055 0.0602 0.0246 0.0049 0.0014 0.0261 -0.0031 0.0426 -0.0263 0.0004 -0.0244 0.0082 -0.0458 0.0041 0.0563 0.0007 -0.0244 0.0005 -0.0479 0.0171 -0.0716 0.0141 0.037 -0.001 -0.0804 0.0065 0.0229 0.0424 -0.0406 0.0266 0.033 -0.003 -0.0302 -0.1417 0.0253 0.0344 -0.0081 -0.0551 -0.0596 -0.0254 0.0205 0.0232 0.0065 -0.0312 0.0412 -0.0141 -0.0258 -0.0298 -0.0346 -0.027 0.001 -0.0456 -0.0117 -0.0062 0.0076 -0.0212 -0.0177 0.0551 -0.0207 -0.0295 0.0071 -0.0551 0.0383 -0.0277 -0.0129 0.0034 -0.0041 -0.0503 0.0005 -0.006 -0.0361 -0.0657 -0.0327 -0.0425 -0.0184 -0.0323 -0.0076 -0.0512 -0.0028 0.02 -0.0429 0.0107 -0.0017 0.013 -0.1364 0.0071 -0.0282 0.0801 0.0346 0.0095 0.123 0.0476 -0.0278 -0.0039 -0.0239 -0.0124 0.0076 -0.041 -0.0116 0.002 -0.0085 0.0177 0.0367 -0.0028 -0.0094 -0.0338 -0.1278 0.0306 -0.0425 -0.0111 0.0575 0.0147 0.0072 0.0248 -0.0577 0.0391 0.0802 -0.0159 -0.0127 -0.0385 -0.042 0.0106 0.0407 0.0333 0.0451 0.0053 0.0011 0.0004 -0.0742 0.0785 -0.0201 -0.0518 0.0014 0.0122 -0.0367 0.0348 0.0151 -0.0161 -0.0126 0.0118 0.0109 0.0288 -0.0005 -0.015 0.0445 0.0332 0.0028 -0.0041 -0.0205 0.03 -0.0122 -0.0026 -0.0025 -0.0209 0.026 -0.0015 -0.0509 0.0269 0.006 -0.035 0.0185 0.0034 -0.0348 0.0081 0.0361 0.002 0.0962 -0.0108 0.0063 0.0205 0.0296 -0.0679 0.0201 -0.0383 0.0108 -0.0102 0.0124 -0.0322 0.0449 -0.1113 0.0461 -0.0116 -0.0223 -0.0077 -0.0361 -0.024 -0.0113 0.0328 -0.1043 -0.0845 -0.0692 0.0609 -0.0179 0.0206 -0.0281 0.0132 0.0206 -0.0568 -0.1162 -0.0281 0.004 -0.0216 0.0965 0.0513 -0.01 -0.0281 0.0908 0.0565 -0.0055 0.0428 -0.0562 -0.0965 0.0294 -0.0419 -0.0163 0.0106 -0.0678 0.0126 0.0509 0.1225 -0.0152 -0.0029 -0.0124 -0.1315 -0.0105 -0.0114 -0.0614 -0.0225 -0.0804 0.0137 -0.023 -0.0301 -0.0149 0.041 0.0213 -0.0507 0.0495 0.0264 0.0395 -0.0061 -0.0376 -0.0281 0.0258 0.0046 -0.0226 0.0065 -0.0077 0.0161 0.0346 -0.0088 0.0869 -0.0969 -0.0271 0.1106 -0.1232 0.0014 0.0102 0.0111 0.0274 -0.0681 -0.0186 -0.0138 -0.029 -0.0316 0.0005 -0.007 -0.049 0.0129 0.0263 -0.0106 0.0072 -0.0575 -0.0563 0.0378 -0.0273 -0.0303 -0.0275 0.0255 -0.0198
all 0.0114 -0.0159 0.0213 0.0167 -0.0095 -0.0209 0.0198 -0.0773 0.0025 -0.0204 -0.0411 -0.0521 0.0143 -0.0166 0.0083 -0.0159 0.0464 -0.0105 0.0579 0.0058 -0.0045 -0.0061 -0.0276 0.0392 0.009 -0.0076 -0.0042 0.0161 0.1232 0.011 0.0019 0.015 0.0111 -0.0166 0.075 -0.0055 -0.0272 0.0072 0.0011 -0.0313 -0.029 -0.0237 -0.0147 -0.0011 -0.0158 -0.0544 -0.0114 -0.0167 0.0037 -0.0091 -0.008 -0.0157 0.0198 -0.0134 -0.0292 0.0258 -0.0533 -0.0229 -0.0787 -0.0083 -0.0077 -0.0034 0.1218 0.0098 -0.003 -0.0181 -0.0216 0.0137 0.0195 0.0145 0.0032 -0.0008 0.1015 -0.0053 -0.0053 -0.0111 0.0047 0.0167 -0.0133 0.0191 -0.0283 0.0006 0.0349 0.099 0.0243 -0.0003 -0.0113 -0.0294 -0.0026 0.0039 -0.0146 0.0409 -0.0815 -0.0096 -0.0078 -0.0424 0.0082 0.0034 0.0194 0.0232 -0.0085 0.011 -0.0136 -0.0011 0.05 -0.0987 0.0018 0.0081 -0.0222 0.0142 0.0134 0.0775 0.0538 -0.0374 -0.005 -0.015 -0.0082 -0.0055 -0.073 -0.0112 0.0198 -0.0044 0.0031 -0.0186 -0.0264 -0.0039 -0.0121 -0.067 0.0101 0.0506 -0.0181 0.0695 0.003 -0.0063 0.0065 0.0189 0.0046 0.0549 -0.0368 -0.0095 0.0059 -0.0186 -0.0031 0.0054 0.0236 0.0095 0.0145 -0.0006 0.004 0.0059 0.0421 0.0825 -0.0255 -0.0727 0.0324 -0.0244 0.0102 -0.0334 -0.0063 -0.0376 -0.0011 -0.0158 0.0476 -0.0194 0.0152 -0.0084 0.0043 -0.0053 -0.0064 -0.0026 0.0622 0.0036 0.0013 -0.0026 -0.0048 0.0349 -0.0066 0.012 -0.0094 0.007 0.0278 -0.015 -0.0113 0.0 0.0162 -0.0518 -0.0031 0.1016 0.0002 0.0031 -0.0015 0.012 -0.1175 -0.0044 0.0136 0.0019 0.0085 0.0101 -0.009 0.0154 -0.1016 0.0522 -0.0359 -0.0257 0.0052 -0.0268 0.0193 -0.0085 0.0143 -0.0481 0.0152 -0.0252 0.0028 0.0354 0.0003 -0.036 -0.0005 0.0211 -0.0193 -0.0527 0.0366 -0.0105 -0.0214 0.0848 0.0199 0.0099 0.0252 0.0789 0.0168 -0.003 -0.0105 -0.0229 -0.0816 0.018 0.0182 -0.0099 -0.0172 0.0119 -0.0145 -0.0163 0.0787 -0.0157 0.0052 0.0377 -0.0996 0.0181 -0.0063 -0.0082 -0.0046 -0.031 0.0274 -0.0121 0.0221 0.0048 -0.0061 -0.0048 -0.0081 0.0587 0.0159 0.0204 -0.0171 0.0292 -0.0011 -0.029 -0.0106 -0.0003 0.0155 0.0529 1e-04 0.023 -0.0037 0.0746 -0.1014 -0.0402 0.0414 -0.0612 -0.0066 0.0102 -0.0127 -0.0022 0.0063 0.0018 0.04 -0.0234 0.037 -0.0006 -0.0332 0.0241 0.0096 0.0251 0.0108 0.0051 -0.0123 -0.0381 0.0091 0.0019 0.0239 -0.0148 0.0111 -0.0166
the 0.0129 0.0026 0.0098 0.0063 0.0102 -0.0002 -0.0056 -0.0829 -0.042 0.0064 -0.0086 -0.0785 0.0148 0.0099 -0.0041 0.0127 0.0706 -0.0017 0.0577 0.014 -0.0073 -0.0082 0.0047 0.0336 0.01 -0.0024 0.0135 0.0061 0.0939 0.0103 -0.0088 0.0092 0.0072 -0.0317 -0.0562 -0.0387 -0.0038 -0.0036 -0.0013 -0.0157 0.0009 -0.0091 -0.0141 0.0052 -0.004 0.0379 0.0045 -0.0047 -0.0172 -0.0038 0.0048 -0.0008 -0.009 0.0155 -0.008 0.0041 -0.0086 -0.0149 -0.0734 0.0007 0.0103 0.0004 0.1226 -0.0018 -0.0023 0.0095 0.0069 -0.0076 0.0092 0.0069 -0.0094 -0.0147 -0.0229 0.0111 0.0067 0.0044 -0.0056 0.0333 -0.0104 0.0048 -0.0173 0.0364 -0.0167 0.0562 0.0043 0.0029 0.0005 -0.0642 -0.0087 -0.01 -0.0209 -0.0233 -0.096 -0.0271 0.0026 0.0321 0.011 -0.0157 0.0131 0.0051 1e-04 0.005 0.0203 0.0192 -0.0097 -0.1351 0.0011 -0.0039 0.0079 0.005 0.0007 0.0576 0.0559 -0.0066 -0.0054 0.0046 -0.01 -0.0009 -0.0402 0.0076 0.013 0.0122 0.0028 0.017 -0.1228 -0.0106 0.0053 -0.1456 0.0037 0.1202 0.0159 0.0208 -0.0035 0.0073 0.0254 0.0035 -0.0085 0.0662 0.0122 0.0006 -0.0047 0.0062 0.0013 -0.0076 -0.0134 0.0038 0.0013 0.0051 -0.0027 0.0076 -0.0036 0.0093 -0.0035 -0.0319 0.0287 -0.0167 0.0065 -0.0032 -0.001 0.0083 -0.009 -0.0167 0.0024 -0.0068 0.0122 -0.0065 -0.0003 -0.0034 0.0029 -0.0031 0.0011 -0.0099 0.0025 0.0062 0.0026 0.0045 -0.0029 0.0192 -0.0126 0.0024 -0.0082 0.0111 0.0096 -0.0191 -0.0106 -0.0187 0.0027 0.1193 0.0153 -0.0053 0.0044 0.1007 -0.0522 -0.0027 0.0013 0.009 0.0105 0.0088 -0.0008 0.0087 -0.1102 0.0473 0.0037 -0.0044 -0.008 -0.0115 0.0043 0.0021 0.0077 0.0322 0.1404 0.0014 0.0163 -0.0047 0.0257 0.0141 0.021 0.0161 0.0141 -0.0222 0.005 -0.0114 -0.0096 0.0908 -0.0031 0.0015 0.0052 0.0454 0.0054 -0.0041 0.012 -0.0774 -0.0504 -0.011 0.0029 0.0098 -0.0097 -0.0093 -0.006 -0.0081 0.0669 0.0084 -0.0062 0.003 -0.1998 -0.0039 -0.0113 -0.0053 0.0005 -0.0364 0.0302 0.0088 0.0159 0.0172 -0.0227 0.0008 -0.0077 0.0302 -0.0163 0.0027 -0.0094 -0.0112 -0.0057 -0.0252 0.0038 0.006 -0.0092 -0.0239 -0.0027 0.0082 0.0078 0.0903 -0.1246 -0.0256 0.0558 -0.0565 -0.0033 0.0046 0.0092 -0.0176 0.0538 0.0099 0.0113 -0.0019 0.0738 -0.0035 -0.038 -0.0967 0.0028 0.0027 -0.0066 0.0213 0.0053 0.0097 -0.0035 -0.0046 -0.0099 -0.0186 0.0098 0.0019
functions 0.0104 -0.0228 0.0164 -0.0048 0.002 -0.0299 0.0137 -0.0298 0.0069 -0.0144 0.0057 -0.0245 -0.0149 0.0106 0.0025 0.0138 0.0254 0.0033 0.0291 0.0095 -0.0114 0.006 0.02 0.0248 -0.0004 0.0092 -0.0071 0.0117 0.0257 -0.0022 0.002 -0.0251 0.0212 -0.0153 0.0106 -0.0013 -0.0142 0.0069 -0.0044 -0.0129 0.023 -0.0401 -0.0209 -0.007 -0.0142 -0.0166 -0.0008 -0.0067 0.0018 -0.0045 -0.0093 -0.0024 0.0213 -0.0188 -0.0282 0.0009 -0.0115 0.0098 0.0059 -0.0077 0.0105 -0.0024 0.0703 0.0134 -0.009 -0.0117 0.0197 0.0068 -0.0038 0.0077 0.0161 -0.0188 0.0067 -0.0068 -0.0088 -0.0028 0.0094 -0.0094 -0.0133 0.003 -0.0095 -0.0046 -0.0178 0.0235 0.0281 -0.0153 0.0074 -0.0096 0.0062 0.0095 0.0015 -0.0007 -0.0205 0.0132 -0.0103 0.0064 0.0041 -0.0004 0.0016 0.0087 0.0262 0.0086 -0.0163 0.0091 0.0084 -0.0216 0.0113 -0.0281 0.0077 -0.0251 0.0157 0.0068 0.0222 -0.0197 0.0169 0.0076 -0.0036 -0.0016 -0.0222 0.0122 -0.0103 -0.0123 -0.0056 -0.0087 0.0449 0.0129 0.005 -0.0229 0.0202 0.0349 0.0016 0.0145 0.0124 0.0027 -0.0098 -0.0052 -0.0046 0.0136 0.001 0.0067 -0.0034 0.0101 -0.0029 0.0173 0.0054 -0.0117 -0.0005 -0.0061 0.0034 0.0331 0.0096 0.0207 0.0023 -0.0407 0.0117 0.0072 -0.0343 0.0015 -0.0008 0.0045 0.0091 0.0118 0.0007 -0.0009 0.0029 0.0122 -0.0118 -0.0031 -0.0139 -0.0039 0.0178 -0.0035 -0.0008 0.0056 -0.0144 0.0187 0.0023 0.0163 -0.0147 -0.0053 0.0026 0.0004 -0.0043 0.0072 -0.0064 -0.0135 -0.0036 0.0213 0.0214 0.0088 -0.0082 0.0167 -0.0257 0.0008 0.0087 -0.0299 -0.0064 -0.0021 -0.0034 0.0089 -0.0501 0.0136 0.0037 0.0003 -0.0083 -0.0038 -0.008 -0.0124 -0.0104 -0.017 0.031 0.0128 0.0067 0.0212 0.0035 0.026 -0.0143 0.0077 -0.0223 0.022 -0.0056 -0.0129 0.0044 0.0396 0.0316 -0.0062 0.0038 0.015 0.0017 0.0075 -0.009 -0.0125 -0.0373 0.0004 0.0061 -0.0087 0.0092 -0.0056 0.0147 0.0066 -0.0018 -0.0056 -0.0119 -1e-04 -0.0072 0.0151 -0.0118 -0.0092 0.0059 0.0032 0.0024 0.0226 -0.0051 0.0131 -0.0004 0.0167 -0.001 0.0177 -0.0045 0.0042 0.0052 0.0131 -0.0065 -0.0189 -0.0042 0.0003 0.0088 -0.0094 -1e-04 0.016 0.0085 0.0316 -0.0354 -0.019 0.0122 -0.0 0.0017 -0.0016 0.0114 0.0006 0.0103 -0.0247 -0.0124 0.0129 0.0069 -0.0016 -0.0011 0.007 -0.0101 0.0024 -0.0157 0.0289 -0.0009 -0.0115 0.0225 0.0128 -0.0161 0.0148 1e-04 0.004
seem -0.0019 0.0114 0.0305 -0.0027 -0.041 0.0179 -0.024 -0.0926 -0.0205 0.0135 -0.0326 -0.0075 0.038 0.0056 0.0156 0.0302 0.0837 0.0211 0.0232 -0.0047 -0.0166 0.016 0.0181 0.0561 -0.0006 -0.0456 0.0284 0.0194 -0.0192 -0.0134 -0.0102 -0.003 -0.0083 0.0183 0.0375 0.0425 0.0085 -0.0068 -0.0015 -0.0169 -0.0129 0.0264 -0.0345 0.0115 0.0168 -0.0331 0.0058 -0.0046 0.0561 -0.0076 -0.0433 0.002 0.0059 -0.0027 -0.1229 0.0183 -0.0091 -0.0003 -0.031 0.0173 0.0059 0.004 0.0298 -0.0091 0.0553 0.0018 -0.002 -0.0306 -0.0247 0.0165 0.0017 0.0174 -0.0632 -0.004 0.0015 -0.0156 -0.0115 -0.0465 -0.0031 -0.0079 -0.0639 0.0266 -0.0027 0.034 0.0142 0.0138 -0.0047 0.0062 -0.0507 0.0069 0.0195 0.0537 -0.0669 -0.0528 -0.0078 -0.0975 -0.0235 -0.0014 0.03 0.0008 -0.0029 0.0245 -0.0166 0.0066 0.0085 -0.091 -0.0045 -0.0295 0.0494 0.0057 0.005 0.0129 0.0322 -0.0387 -0.0107 -0.0153 -0.0399 -0.0056 -0.0303 -0.0187 0.0002 -0.0084 0.0253 0.0106 0.0992 -0.0105 0.0169 0.017 -0.0049 -0.0034 -0.0356 0.0979 0.0297 0.0281 -0.0121 -0.0147 0.0183 0.0867 -0.007 0.0064 -0.0021 0.0085 0.0032 0.0379 0.0269 0.016 0.0197 -0.0105 -0.0298 -0.0212 -0.0229 0.1455 -0.029 -0.1009 -0.0047 0.0354 -0.0003 -0.0033 -0.0198 -0.014 0.001 0.0171 0.0241 0.0077 -0.0221 -0.0032 0.007 -0.0227 0.019 0.0007 -0.0026 0.0019 -0.0036 0.0045 0.0205 0.04 0.0086 -0.0039 0.0423 -0.0342 0.0273 -0.0037 0.0278 -0.0258 0.0364 0.0399 0.0323 0.0877 -0.0092 0.016 0.0218 0.1229 -0.109 0.0144 0.0006 0.0074 0.003 -0.005 -0.0661 0.02 -0.1046 0.052 -0.0085 0.0214 0.0116 0.0213 0.0028 -0.0142 0.0019 -0.1132 -0.0796 -0.0326 -0.045 -0.0061 0.0174 0.0178 -0.0167 -0.0002 -0.0385 -0.0342 0.0034 0.01 -0.0174 0.081 0.004 -0.0127 0.0285 0.056 0.0061 -0.041 0.0015 0.0014 -0.0593 -0.0046 0.0391 -0.0164 0.0058 -0.0288 0.0284 -0.0338 0.1629 0.0057 -0.0255 0.0417 -0.0818 -0.0018 -0.0318 -0.0426 -0.0183 -0.0292 -0.0048 -0.0029 0.0004 0.0026 -0.0217 0.0241 -0.0086 -0.0671 0.0216 -0.0152 -0.0078 -0.0271 0.0103 -0.0579 0.0645 -0.0084 0.0138 0.0107 -0.0106 0.038 -0.0205 0.0633 -0.0651 0.0073 0.0747 -0.0869 -0.0099 -0.0161 0.0019 -0.0147 -0.1186 -0.0256 0.0341 -0.011 -0.0192 0.0014 0.0133 -0.0428 -0.0079 0.0078 -0.0173 -0.0299 -0.0075 -0.0056 -0.0019 -0.009 0.0301 -0.0076 -0.0153 -0.0025
Set -1e-04 0.0029 -0.0041 0.017 0.0141 -0.04 0.0211 -0.1102 -0.0279 -0.0276 -0.009 -0.0575 0.0135 0.0335 0.0057 -0.007 0.0566 -0.021 0.083 0.0322 -0.0394 0.0148 -0.0436 0.0368 0.0416 -0.0159 -0.0106 0.0349 -0.0084 -0.0211 -0.0478 0.0204 0.0149 -0.0202 0.0345 -0.0026 -0.0126 0.05 -0.0076 -0.01 0.0424 -0.0742 -0.0268 0.0073 -0.039 0.0329 0.031 0.0249 0.0199 0.0208 0.0278 0.0054 -0.0344 0.023 -0.1358 0.0585 0.0629 0.0118 -0.0506 -0.062 -0.0131 -0.0371 0.1886 -0.002 0.106 -0.0143 0.0292 0.0016 -0.0154 0.0354 0.0153 -0.0107 -0.009 0.0148 -0.0168 0.0459 -0.0203 -0.0588 -0.007 0.0305 0.0136 -0.0529 0.0035 0.0511 -0.0175 0.0184 0.0128 -0.0349 -0.0034 -0.02 0.057 0.0022 -0.0883 0.0042 0.0067 -0.009 0.0014 0.0004 0.0537 0.0172 0.0269 -0.0321 -0.0119 0.0338 -0.0035 -0.1007 0.0043 -0.0338 -0.0174 -0.0013 0.0345 0.0282 0.0741 -0.0272 0.0247 -0.0021 -0.0097 -0.0033 -0.0556 0.0015 -0.0016 -0.0164 -0.0045 0.0062 0.0637 0.0066 0.0033 -0.062 0.0109 0.0399 -0.0114 1e-04 -0.0137 0.0134 -0.0159 -0.009 -0.038 0.1141 0.0052 0.0027 -0.0054 -0.0085 0.0273 -0.0317 -0.0162 -0.0104 -0.0174 -0.0352 0.0037 0.0023 -0.0347 0.0867 0.0016 -0.0422 0.0329 0.0662 0.0251 -0.0153 0.0304 -0.02 0.0128 0.0057 -0.0026 0.0111 0.0048 -0.0129 -0.0182 -0.0245 -0.0334 0.0086 -0.0506 -0.0016 0.0073 -0.0047 -0.0599 0.0276 -0.0489 0.0549 -0.0336 0.0253 -0.0054 -0.0111 -0.0246 0.0057 0.0236 0.0023 0.0067 0.0606 -0.0261 0.0215 -0.0264 -0.0059 -0.0203 -0.0295 0.0392 -0.022 0.0029 0.0182 0.0129 0.0392 -0.1144 0.0915 -0.0148 0.0118 0.0046 0.0049 0.0391 -0.0174 -0.0035 -0.078 0.1014 -0.0284 0.0067 0.0225 -0.0184 -0.0278 -0.0367 0.0129 -0.0103 -0.0632 -0.0062 0.0295 -0.0309 0.0918 0.0281 -0.0097 0.0129 0.0463 -0.0406 0.0199 -0.0288 -0.0646 0.0043 0.0241 -0.0188 0.0238 0.0338 -0.0171 0.0106 0.0584 0.1538 -0.0122 0.0612 0.0363 -0.0992 -0.0209 0.0088 0.0442 0.019 0.0094 0.0303 -0.0505 0.0046 0.0338 0.0056 0.0184 -0.0398 0.0741 -0.016 0.0433 0.0002 -0.0175 0.0088 -0.0006 -0.0338 -0.0028 0.0101 0.068 -0.0026 -0.0133 0.0262 0.0915 -0.1142 -0.0226 0.007 0.0249 0.0202 0.0133 0.0425 0.0118 -0.0059 0.0036 0.006 -0.0014 0.045 -0.014 0.0392 0.0154 0.0623 0.0059 0.0231 -0.0098 0.0628 -0.0095 0.045 -0.0011 0.0005 -0.0067 -0.0037 0.0097
up -0.0107 0.0218 0.0178 -0.0187 0.0117 0.0048 0.0091 -0.1269 -0.082 -0.0236 -0.0305 -0.0932 0.0332 -0.0298 -0.0093 0.0086 0.2368 -0.0053 0.0894 0.022 0.0117 0.0162 -0.0293 0.0392 0.0123 -0.0097 0.0143 0.0144 0.027 0.0114 -0.003 0.0256 -0.026 0.0134 -0.0286 -0.0341 0.0321 0.0005 0.0151 -0.0157 -0.0505 0.0013 -0.0124 0.0246 -0.0061 0.0683 0.0301 0.0271 -0.011 0.0029 0.1134 0.0235 -0.0149 -0.0206 -0.2646 -0.0112 -0.0056 -0.0249 -0.0483 -0.0316 -0.005 0.0276 0.2262 -0.0241 0.0709 -0.0095 0.0263 -0.0593 -0.003 -0.0136 -0.0026 0.0261 0.1181 0.0055 0.0181 0.0057 -0.0246 -0.0671 -0.0268 -0.0204 0.0035 -0.2109 0.0138 0.0839 -0.0092 0.0293 -0.0191 -0.1121 -0.0127 -0.0173 0.0288 0.1402 -0.1421 0.1601 0.0285 -0.0946 0.0007 0.0074 0.0176 0.0135 0.0203 0.0003 0.0263 0.0575 0.0425 -0.121 -0.0108 -0.0383 0.0275 0.038 0.026 0.0907 0.0832 -0.0125 0.0394 0.0114 -0.0359 -0.0471 -0.0518 -0.04 0.0066 -0.019 0.0151 0.0223 -0.1246 0.0083 -0.0836 -0.0905 -0.0178 0.0486 0.0071 0.0389 0.0313 -0.0317 0.0052 -0.0317 -0.0547 0.273 -0.085 0.0369 0.0344 -0.0042 0.0302 -0.0148 0.0527 0.0063 0.0266 0.0065 0.0096 -0.0626 -0.0149 -0.0136 0.0039 -0.0748 0.0286 -0.0821 0.0159 -0.029 0.0033 0.0024 0.0127 -0.0023 0.0006 -0.0347 -0.0126 -0.0143 -0.0087 -0.0068 0.0207 0.0245 -0.0265 -0.0206 0.0565 0.013 -0.0057 0.0611 -0.0691 0.0291 0.0175 -0.0107 -0.139 -0.0195 0.0195 0.0123 0.0473 -0.0765 -0.0105 0.2104 0.009 -0.0085 -0.0091 -0.1685 -0.066 -0.0588 0.0131 0.037 0.0125 -0.0277 -0.022 0.0546 -0.3085 0.1526 0.0505 0.0457 0.0041 -0.0159 0.0695 0.0197 0.0276 -0.0916 -0.0226 -0.0704 -0.0927 -0.0248 -0.0018 -0.0734 -0.0267 -0.0237 0.056 -0.0317 0.0429 0.0297 -0.0432 0.1135 0.2741 -0.0182 -0.0011 0.1005 -0.0547 -0.1008 -0.0155 -0.1062 -0.016 0.0023 -0.0273 0.0433 0.0025 -0.0081 -0.0345 0.0971 0.12 -0.0173 0.0234 -0.0504 -0.19 -0.0309 -0.0303 -0.067 0.0014 -0.0295 0.0134 0.0255 0.0032 0.0254 0.0582 0.0478 0.0416 0.0232 0.0061 0.0085 0.0179 -0.0286 0.0051 0.079 -0.0353 -0.011 0.0316 0.0949 0.0252 0.006 -0.0519 0.1487 -0.156 -0.068 0.2032 -0.0521 0.0246 -0.0049 -0.0048 0.0037 -0.0702 0.0458 0.0854 -0.0054 0.1353 -0.0159 0.0456 -0.0568 0.0338 0.0221 0.0415 0.0199 0.0037 -0.024 0.0176 0.0058 -0.027 -0.0025 0.0039 -0.0261
ready -0.0155 0.0297 0.021 -0.0034 -0.0051 0.0065 0.0075 -0.0633 -0.0016 0.0096 -0.0239 0.0444 -0.0046 0.0293 -0.0042 -0.0304 0.0211 0.0076 0.0211 0.0101 0.0098 0.0116 -0.0126 0.0178 -0.0048 0.0275 0.0108 0.0004 0.0236 -0.0077 0.0047 0.0441 0.0111 -0.0195 0.0049 0.0012 0.0325 0.0192 0.0115 -0.0108 -0.0158 -0.0504 -0.0121 -0.0021 -0.0034 -0.0236 -0.0045 0.0173 0.0259 -0.003 0.0327 -0.0042 0.0122 -0.0089 -0.0803 0.0222 0.0053 -0.0252 -0.0417 0.0013 0.0059 0.0125 0.0591 0.037 0.0104 -0.0263 -0.0256 -0.0332 -0.0458 -0.0179 0.034 0.0165 0.0108 -0.0474 -0.0221 -0.0174 -0.0282 -0.0441 -0.0161 0.0153 0.006 0.0009 0.0301 0.0466 -0.0165 0.0115 -0.0026 -0.0318 -0.0037 -0.0245 -0.0177 0.0045 -0.0589 -0.0249 0.024 0.013 -0.0055 -0.0071 -0.0136 0.0057 0.0028 0.0013 0.0395 0.0231 -0.006 -0.0648 -0.0076 -0.0043 -0.0294 -0.011 0.0068 0.0233 0.03 0.0125 0.0156 -0.0322 -0.0026 -0.001 -0.0368 -0.0369 0.015 -0.0083 -0.0053 0.0052 0.0407 0.0372 -0.0137 -0.0287 0.0216 -0.001 -0.0 -0.0044 0.0245 -0.0138 -0.0009 -0.0447 -0.0028 0.0004 -0.015 0.0246 -0.0048 0.0056 -0.0071 -0.0483 0.03 0.0259 0.0118 0.0203 0.0012 -0.0052 0.0049 0.0521 0.018 -0.0406 0.004 -0.0458 0.0142 -0.0389 0.0269 -0.0192 0.0135 0.0179 0.0195 -0.0034 -0.0138 -0.0301 -0.0122 -0.0134 0.0066 0.006 -0.0226 0.005 0.0077 -0.0153 -0.0245 0.0414 -0.0077 -0.0205 0.003 0.0153 0.0061 -0.0171 0.0093 -0.0259 -0.0067 -0.0367 -0.009 0.0501 -0.0257 -0.016 0.0035 0.0421 0.0203 -0.0385 0.0195 0.0091 0.007 -0.0041 -0.001 0.0022 -0.0791 0.0996 0.0021 0.0483 -0.0029 -0.008 0.0237 -0.0068 -0.0398 -0.0627 0.0149 -0.0086 -0.0101 0.0207 -0.0104 0.0036 -0.0006 0.0036 0.0113 -0.0146 0.0278 -0.0215 -0.0139 0.0701 0.0234 -0.0456 0.0122 0.0459 -0.0156 0.0045 -0.014 -0.0691 -0.0774 -0.0047 0.0018 -0.0009 -0.0214 -0.0051 -0.0209 -0.0261 0.1226 0.0284 -0.0161 0.0185 -0.0544 -0.0055 -0.0343 -0.0492 -0.0079 -0.0293 0.0357 0.0011 0.0044 0.0008 -0.0074 0.0077 0.017 -0.0105 0.0078 0.0381 -0.001 0.0404 0.0149 0.05 -0.0258 0.0149 0.0103 0.046 -0.0311 -0.0013 0.0402 0.0662 -0.0665 -0.0245 -0.0067 -0.0274 0.0019 -0.0018 -0.007 -0.0091 -0.0362 -0.0018 0.0284 -0.0327 -0.0249 -0.0063 0.0086 -0.0172 0.0067 -0.003 0.0028 0.0078 -0.0199 0.013 0.0214 0.0094 0.0069 0.0055 -0.0079 -0.006
