85 300
All -0.18933 -0.30046 0.19386 -0.25914 -0.15143 -0.25087 -0.028469 0.71239 0.11181 1.0226 0.20304 -0.044995 0.096403 -0.53753 -0.32716 0.18182 0.010649 1.0844 -0.27469 0.59399 -0.16213 -0.45036 -0.13046 0.10886 -0.25044 -0.16912 -0.062139 -0.12664 -0.01062 0.21562 -0.024636 0.2207 0.050721 0.18146 0.18602 0.1639 -0.13038 0.06263 -0.16289 0.32869 -0.14777 0.092954 -0.057645 0.26601 -0.022178 -0.24419 0.066525 0.53688 0.43562 -0.35034 -0.27076 -0.29665 -0.067368 -0.051668 0.0063467 0.15886 0.14659 -0.32013 -0.37983 -0.57588 0.22528 0.16605 -0.0066599 -0.056578 -0.18784 -0.012711 -0.082542 0.31477 -0.066519 -0.072308 0.14557 -0.18966 0.80722 0.1734 0.31029 0.14603 -0.051142 -0.092956 0.38771 0.36068 0.015193 -0.057532 -0.58415 -0.17135 -0.19337 -0.17893 -0.83907 0.45053 0.51401 -0.0027055 -0.040293 -0.076342 -0.17362 0.034982 0.32738 -0.16771 -0.089791 0.10126 0.012956 -0.053661 -0.15747 0.18102 -0.20891 0.010388 -0.24101 1.6154 -0.065857 0.072982 0.076865 0.16714 0.031431 -0.076191 0.51855 -0.22708 -0.28294 -0.25588 0.046521 0.74705 -0.21035 -0.38597 -0.18895 -0.30535 0.2409 -0.18694 0.2854 -0.054901 0.24767 0.0055542 0.0072768 -0.2381 0.35551 -0.43923 -0.087205 -0.44824 0.41674 0.38202 0.15638 0.32194 0.50179 0.19173 -0.61055 -0.19573 0.017797 0.46375 0.17741 0.38484 -0.5479 -0.073127 -0.20749 -0.40461 0.6932 -0.58844 0.16081 -0.20516 -0.08969 0.18935 -0.30978 0.28537 -0.077362 0.047823 0.30821 0.1563 0.25774 -0.1445 -0.0019916 -0.49667 0.4923 -0.31564 -0.38182 -0.31536 0.057579 0.41788 -0.18176 0.0017683 0.13241 0.18438 -0.14374 0.23618 0.37981 -0.022704 0.18251 0.28662 -0.069963 0.19219 -0.21919 0.016642 -0.059001 -0.25702 0.45663 0.24962 0.066395 -0.24882 -0.055299 -0.14584 -0.40929 0.51157 0.1868 0.17042 0.18408 0.40833 -0.29586 0.04853 0.13916 -0.070714 0.28276 -0.029209 0.16653 -0.2083 0.23685 -0.24738 0.12151 0.11913 -0.044217 -0.16196 0.017333 0.14879 -0.24376 -0.17794 -0.79241 0.14708 -0.086009 0.070227 -0.014397 0.38 0.15599 -0.063909 -0.36665 0.055363 -0.15845 -0.084653 -0.037162 0.029116 -0.16183 0.0064822 0.027635 0.16387 -0.17368 -0.68158 -0.3818 -0.25175 -0.16183 0.1222 0.045342 0.055001 -0.091497 -0.10255 0.066884 -0.34529 -0.46178 0.41499 -0.098599 0.15257 -0.2295 -0.23427 -0.14631 1.0829 -0.16924 -0.19025 0.15264 0.50504 -0.21403 0.1598 -0.1399 -0.20066 -0.30151 -0.011072 -0.18554 0.069019 0.65997 -0.20436 0.098485 -0.38293 -0.43014 -0.45364 0.20629 0.12597 0.36766 0.088118 0.01053 -0.033419 -0.063601 0.46379 -0.30435 -0.027324 -0.21247 0.13343 -0.65841 -0.16787 -0.077576 -0.12105 -0.44304 0.10805 -0.016262 -0.22245 0.35676 -0.23954 -0.37242 -0.5739 0.33503 0.23078
good -0.42625 0.4431 -0.34517 -0.1326 -0.05816 0.052598 0.21575 -0.36721 -0.04519 2.2444 -0.29089 0.1667 -0.052051 0.15964 -0.42759 -0.11147 -0.14951 1.18 -0.19603 0.15592 -0.06112 -0.011576 0.26849 -0.30175 -0.055796 0.12116 0.010542 -0.18065 0.23281 -0.26367 0.11032 0.06216 0.015019 -0.10687 0.098486 0.048457 0.33355 -0.16177 -0.28503 -0.28655 -0.11245 0.12417 -0.24975 -0.2008 0.26034 0.25208 -0.17841 0.15395 -0.19799 -0.22644 -0.074088 0.50289 0.32105 -0.034766 0.16543 0.057095 -0.20973 0.098376 0.035058 -0.023057 -0.11736 -0.51327 -0.020999 0.39962 0.30533 -0.38839 0.0026097 0.29022 0.017045 0.063961 0.10789 0.29013 0.061732 0.068231 -0.014031 0.048649 -0.011663 -0.26527 -0.14494 0.45397 0.067191 0.14195 0.37302 -0.0076579 0.018443 -0.10224 -0.0051647 -0.12233 0.25855 -0.11212 -0.053952 -0.19947 -0.32291 0.26205 0.35758 -0.2607 0.37932 -0.4268 0.061313 0.0085055 -0.31061 -0.15091 -0.22569 0.074085 0.26419 -0.9689 0.3205 0.013197 0.020656 -0.24059 0.21454 -0.38931 -0.058037 -0.055826 0.22324 0.18331 -0.024247 -0.1512 -0.010921 -0.27556 0.31151 0.21918 -0.091469 0.055151 0.0064999 0.13427 -0.28369 -0.38306 0.073976 -0.061432 0.11585 -0.093184 -0.09172 -0.22746 -0.11907 0.21006 0.0097736 -0.23443 0.29533 -0.26389 -2.1549 0.391 0.60844 0.021372 -0.29117 -0.52578 -0.30445 -0.12788 0.39592 0.20246 -0.38065 -0.076001 0.046315 -0.24566 0.014438 -0.0095246 -0.029197 -0.11232 -0.029992 -0.52387 0.05365 0.032134 0.35621 0.040588 0.28366 -0.51086 0.20677 -0.3715 0.19042 -0.048069 0.0025944 -0.069552 0.20583 -0.40107 0.0066834 0.066419 -0.19584 0.19296 0.14749 -0.0423 -0.044897 -0.46937 -0.38399 0.019192 -0.24857 -0.14294 -0.085374 -0.088101 0.23245 -0.16668 -0.025019 -0.029291 -0.0046514 -0.12139 -0.20833 0.24371 0.060033 -0.18485 0.33876 0.058523 0.11933 0.066886 -0.20035 -0.054426 0.03731 0.22031 -0.22824 0.048875 0.060931 0.026946 -0.20081 -0.005543 0.043733 -0.60604 -0.20841 0.13012 0.18033 -0.086796 -0.13199 0.05757 -0.161 -0.07107 0.015812 0.40779 0.53949 0.13829 -0.20688 0.076653 0.097948 0.071683 -0.10647 0.054176 -0.2932 0.14681 0.16784 -0.20442 0.047034 -0.31862 -0.2226 0.12788 0.17326 -0.10272 -0.15957 0.25465 0.27582 0.011341 -0.21905 -0.50156 -0.15053 0.098795 0.31615 -0.087923 -0.48265 -0.1241 -0.11466 0.22522 0.28101 -0.38343 -0.19752 0.067079 -0.1339 0.1416 0.26925 0.42701 0.1372 -0.13302 0.13731 0.32494 0.55031 0.25321 0.077384 0.049114 -0.36115 -0.52553 -0.37361 0.36655 0.032056 -0.28452 0.14393 0.70665 -0.2256 -0.2962 -0.18957 -0.04505 -0.023948 0.078238 0.08545 -0.23747 0.17435 0.039811 -0.45907 -0.052783 -0.32051 -0.12172 0.31545 0.045489 0.22644 -0.4303 -0.068851 0.12875
so 0.030971 0.24589 -0.2484 -0.089766 0.12553 0.24561 -0.010123 -0.24428 -0.31302 2.6992 -0.031611 0.075352 0.079092 -0.14638 -0.18761 -0.14148 -0.15655 1.2611 -0.20526 -0.037177 -0.018536 0.015423 0.011733 -0.16712 -0.099645 0.10923 -0.12395 0.0085745 0.37661 -0.26708 -0.35829 0.11305 0.084926 -0.054704 -0.033572 -0.16562 0.013174 -0.081527 -0.15418 -0.28257 -0.21634 0.088116 0.16772 -0.074412 0.10181 0.18449 -0.28454 -0.19817 -0.30209 0.037427 -0.071605 0.10685 -0.21737 0.085879 0.13962 0.1515 0.029098 0.015138 0.069063 -0.062189 -0.070724 -0.22683 -0.10806 -0.092606 -0.17908 -0.081813 -0.19319 0.2359 0.28183 0.0059319 0.32165 0.079957 0.30637 -0.1957 0.16897 0.2766 0.25454 0.11375 -0.19833 0.46134 0.12658 0.17567 -0.09334 -0.053876 0.19886 -0.38165 0.41989 -0.56898 0.26344 0.034061 -0.20102 0.026623 -0.081417 0.27773 0.13629 0.20288 -0.072671 -0.25932 -0.14783 -0.032425 -0.025948 -0.089129 -0.28377 -0.1027 0.21609 -1.1397 -0.13371 -0.24465 -0.070717 -0.093603 -0.028877 -0.42939 0.40742 -0.14632 -0.0051394 -0.29391 -0.21074 -0.098209 -0.22103 0.13014 0.022109 0.0025609 0.1707 -0.065985 0.077432 0.15363 -0.039982 -0.38499 0.2455 0.080771 -0.020454 -0.087388 -0.17965 0.074269 0.25325 -0.099384 -0.019574 -0.099306 -0.084867 0.041372 -2.0484 0.41462 0.40625 0.096779 0.19054 -0.21146 -0.1772 0.089844 -0.16253 0.072324 -0.068409 0.31355 0.12959 0.024787 0.050127 -0.10658 -0.19117 -0.12508 -0.11683 -0.30773 -0.067666 -0.1686 0.053387 -0.107 -0.27907 0.056801 0.23241 0.016042 0.13165 -0.022279 -0.025007 -0.16646 0.013744 -0.05079 -0.10604 -0.062431 -0.20905 -0.2019 -0.032665 0.26452 0.032891 -0.28721 -0.25645 -0.23896 -0.094868 -0.12407 -0.23803 -0.34213 0.16538 0.33199 0.22348 0.041061 -0.099151 0.19296 0.0050557 0.027148 -0.0070474 -0.41732 0.095158 0.27678 -0.086248 0.12363 -0.13523 -0.0076602 0.12719 0.18925 -0.085245 0.097595 0.025829 -0.069077 0.19877 -0.32101 0.017336 -0.45777 0.32317 0.17868 0.31209 -0.13697 -0.15555 0.11821 0.066478 0.27641 0.058665 0.076086 0.10538 0.29252 -0.41649 0.072384 -0.092219 -0.27372 -0.10992 -0.26041 0.2618 0.11884 0.17206 -0.26538 0.17438 -0.31 -0.23272 0.0086715 0.055667 0.12975 -0.16126 0.52429 0.26792 -0.22152 -0.29224 -0.15783 0.14778 0.3527 -0.038178 -0.0030603 -0.36291 -0.19999 -0.064242 0.086369 0.20989 0.20346 -0.0094319 0.063802 0.065579 0.33237 -0.21678 0.096245 0.11698 0.15471 -0.0063138 0.093189 0.41666 0.43701 0.14234 -0.19137 -0.19794 -0.38565 -0.24131 0.26964 0.061517 -0.012009 -0.070976 0.51298 0.31314 0.0052119 -0.10572 0.0066934 -0.03528 -0.076799 0.11252 -0.21686 0.29322 -0.076327 -0.22958 0.13499 0.00023065 -0.15937 0.21815 -0.097673 0.075753 -0.23329 0.11165 0.088833
I 0.1941 0.22603 -0.43764 -0.11387 -0.072725 0.36003 -0.063595 0.056585 -0.094555 2.3561 -0.27436 0.2713 0.69901 -0.17141 -0.28441 0.079379 -0.0076581 0.80703 -0.29701 0.23268 0.10555 0.026901 -0.041876 0.42066 -0.41432 -0.035023 -0.15162 -0.30763 0.27783 -0.42092 -0.13631 0.46588 0.036089 0.025686 -0.24905 0.084332 0.20581 -0.031679 -0.36279 0.039448 -0.071993 0.19942 0.024882 0.0023524 0.3903 0.3625 -0.3792 -0.18546 0.30258 -0.20954 0.01513 -0.072947 0.094768 0.21254 0.21272 -0.10312 -0.099089 -0.53423 0.029063 -0.12531 -0.098028 -0.43503 0.0049565 0.42591 -0.13379 -0.3615 0.21092 -0.068105 0.017606 0.49779 0.075874 0.24429 0.2235 0.13629 0.35652 0.4428 0.18241 -0.093236 -0.40088 0.26121 -0.0063511 -0.08222 0.016147 -0.18581 0.26591 -0.20448 -0.074365 -0.87302 0.68109 0.24958 -0.039915 -0.27137 -0.24405 0.34407 0.19653 0.16447 0.36421 0.18319 0.063041 0.16639 -0.16222 -0.13024 0.064095 -0.20605 0.16473 -0.12235 -0.064946 -0.26915 -0.16601 0.10875 0.071209 -0.22957 0.60131 -0.27859 0.11156 -0.37373 -0.1504 -0.16 0.10028 -0.22438 0.2657 -0.33874 0.086788 -0.13 0.6869 0.19787 -0.12802 -0.13209 -0.20817 0.047213 0.16035 0.065965 -0.63071 0.37245 0.22415 -0.16013 -0.1841 0.1035 -0.040692 -0.1858 -2.0393 0.27769 0.067024 0.0088486 -0.1446 -0.16541 -0.66727 0.20438 -0.16 -0.37816 -0.12314 0.1032 -0.23701 0.19617 -0.14407 -0.17485 -0.041455 -0.2243 0.068727 -0.091408 -0.53259 0.21185 -0.023611 -0.1631 -0.38653 -0.013318 0.15667 -0.22568 0.073016 0.12123 -0.17104 -0.33741 0.18788 -0.61223 -0.10989 -0.012048 -0.21251 0.016883 0.13642 -0.22546 -0.12273 -0.34283 -0.35027 0.098409 0.08939 -0.2216 -0.24502 0.087705 -0.098716 0.086152 -0.055446 0.057648 -0.25635 -0.33443 0.17582 0.074198 -0.057964 -0.38954 -0.083356 0.038664 -0.12595 -0.10585 -0.25562 -0.084013 0.073367 0.22389 0.12266 -0.3118 0.22003 -0.059754 0.097594 -0.292 -0.31953 -0.11085 0.11601 0.15223 -0.30233 -0.32117 -0.28125 0.0073383 0.12077 -0.029077 0.16938 0.23347 0.057481 0.11003 0.54076 0.21958 -0.26702 0.014933 -0.12775 0.19244 0.042733 0.13369 0.086748 -0.21814 0.18677 -0.34724 -0.048128 0.4174 0.11124 -0.035115 0.16341 0.16368 -0.011075 -0.1504 0.027415 -0.083012 -0.26685 0.5866 -0.01813 -0.56529 -0.040783 0.14091 0.085893 -0.1501 -0.017739 -0.20643 0.1135 0.18529 0.24701 0.075324 -0.018801 0.0095814 0.20979 0.36328 0.021826 0.21683 0.1973 0.12102 0.044755 -0.24359 -0.36254 -0.45997 -0.20335 0.11032 -0.0243 -0.39688 0.028448 0.30827 0.22318 -0.14411 0.076406 -0.27333 -0.061209 -0.27783 0.26594 0.0040376 -0.084801 0.14847 -0.19408 0.18153 0.068346 0.13304 0.29181 -0.036109 0.11221 0.091957 0.38632 0.11736
was -0.044058 0.36611 0.18032 -0.24942 -0.098095 0.033261 0.119 -0.51164 -0.16415 3.136 0.20901 0.29082 0.25193 -0.020379 -0.24789 -0.47501 -0.038328 0.56434 -0.038566 -0.11559 0.024392 -0.45873 -0.10009 0.21731 0.16996 -0.12939 0.0063318 -0.017798 -0.18673 -0.1167 -0.14384 -0.0097187 0.45289 -0.036453 -0.40523 -0.31816 -0.23389 -0.012272 -0.21479 -0.17841 0.34474 0.31133 0.20543 -0.1896 0.38995 0.12103 -0.33685 -0.57051 0.20732 0.087872 0.071458 0.046355 -0.17425 0.27856 0.35989 -0.017122 0.12197 -0.35806 0.33181 -0.19827 -0.10386 -0.096699 0.094231 0.46722 -0.36612 -0.038628 0.063485 -0.25765 -0.20415 0.075931 0.085753 0.28176 -0.12443 -0.19756 0.17218 -0.20121 0.048154 0.1301 -0.51096 0.41643 0.16487 0.083688 0.025331 0.0014575 0.26935 -0.46159 0.18639 -0.6424 -0.2277 0.032521 0.050105 0.1683 -0.27886 -0.037346 0.50521 -0.39343 0.25004 -0.091487 0.044709 0.15579 -0.19423 0.29651 -0.27465 -0.33689 -0.11362 -0.43028 0.016673 -0.015717 0.15385 -0.30998 -0.17927 -0.002689 -0.029884 -0.18535 -0.079747 -0.31545 0.0024644 0.19685 -0.061948 -0.2724 0.0372 0.24951 0.15755 -0.084023 -0.24132 0.35744 -0.16309 -0.67866 -0.27942 -0.016828 0.017248 -0.060522 -0.26155 0.16951 0.50993 -0.46213 -0.019627 0.3955 0.0053794 -0.13616 -1.3947 0.24283 0.33351 0.18875 0.33386 -0.1979 -0.45546 -0.14531 0.32496 -0.24984 -0.38316 -0.047484 0.3163 -0.27841 -0.31328 -0.13258 -0.15671 0.050417 0.2073 -0.13118 -0.40559 -0.34316 0.14348 -0.45976 -0.48611 -0.32394 -0.19056 0.16412 0.22827 -0.054174 0.039441 0.079182 -0.034827 -0.043719 -0.56115 -0.18462 0.012758 -0.058201 -0.4096 -0.28184 -0.035173 -0.27668 -0.44195 -0.094452 -0.36051 -0.23688 -0.22469 0.22704 0.070153 0.079784 -0.050581 0.19954 -0.53252 0.38514 0.20942 0.3133 0.37957 -0.31456 -0.22611 -0.14732 0.12792 0.026238 -0.19538 0.2053 0.18387 0.070116 0.20402 -0.057152 0.16134 0.023932 0.04476 -0.0031943 0.0076469 -0.032653 0.39232 0.11799 -0.18832 -0.21732 -0.038809 -0.19023 -0.067095 0.021589 0.03139 0.27935 -0.25991 -0.010694 0.071357 0.20587 0.030717 0.14273 -0.012696 0.30787 0.1761 -0.23735 0.10864 -0.34518 0.051447 0.060717 -0.050337 -0.018071 -0.39068 -0.0020948 0.21507 0.30334 0.079873 -0.135 -0.0033115 -0.43378 0.14857 -0.028767 -0.091394 -0.11293 0.14341 -0.02577 0.3054 -0.56747 0.30705 -0.085973 -0.021836 0.14566 0.57363 0.27721 -0.25141 0.12354 0.0045573 0.10348 0.14283 0.086515 -0.11795 0.070627 0.455 0.14827 -0.33691 -0.26387 -0.40101 -0.034913 0.032671 -0.42077 0.058225 0.38307 0.59657 0.33333 0.025108 -0.10701 0.030241 -0.079168 -0.02454 0.24922 0.061272 0.012772 -0.019862 0.082316 0.49588 0.09668 0.43798 0.062743 -0.053951 0.18625 -0.097817 -6.7104e-05
to 0.31924 0.06316 -0.27858 0.2612 0.079248 -0.21462 -0.10495 0.15495 -0.03353 2.4834 -0.50904 0.08749 0.21426 0.22151 -0.25234 -0.097544 -0.1927 1.3606 -0.11592 -0.10383 0.21929 0.11997 -0.11063 0.14212 -0.16643 0.21815 0.0042086 -0.070012 -0.23532 -0.26518 0.031248 0.16669 -0.089777 0.20059 0.31614 -0.5583 0.075735 0.27635 0.12741 -0.18185 -0.12722 0.024686 -0.077233 -0.48998 0.020355 0.0039164 0.1215 0.089723 -0.078975 0.081443 -0.099087 -0.055621 0.10737 -0.0044042 0.48496 0.11717 -0.017329 0.109 -0.35558 0.051084 0.15714 0.17961 -0.29711 0.033645 -0.025792 -0.013931 -0.23 -0.040306 0.22282 -0.013544 0.011554 0.3911 0.26533 -0.31012 0.40539 -0.042975 0.020811 -0.33033 0.19573 -0.037958 0.10274 -0.0013581 -0.44505 0.077886 0.08511 -0.20285 -0.19481 0.056933 0.53105 0.034154 -0.56996 -0.18469 0.093403 0.28044 -0.23349 0.10938 -0.014288 -0.274 0.034196 -0.098479 0.13268 0.19437 0.13463 -0.099059 0.040324 -0.66272 0.3571 0.15429 0.18598 0.087542 0.080538 -0.25121 0.24155 0.1783 0.036011 -0.027677 0.21161 -0.29107 -0.0083456 0.11317 0.31064 -0.10693 -0.27367 -0.039785 0.039881 0.034462 -0.16518 0.16115 0.060826 0.3075 -0.22398 0.14619 -0.2661 0.49732 -0.13996 -0.24287 0.039469 -0.084495 -0.24315 0.070701 -1.0136 -0.21733 -0.36878 -0.24973 0.17472 -0.011592 0.068561 -0.090411 0.21878 -0.2639 0.11904 0.14285 -0.18707 -0.13474 -0.13232 -0.26553 0.22947 -0.018215 0.0067383 -0.1019 0.10053 -0.1127 -0.13295 0.15951 0.14906 -0.095578 0.26992 0.011057 0.056568 0.021386 0.20215 0.00048589 0.5336 -0.22947 0.29275 0.17378 0.25423 -0.10976 0.058816 0.014616 -0.04306 0.10732 -0.028149 -0.19181 0.1025 -0.063892 0.012737 -0.12913 0.015037 0.26562 -0.017049 -0.060716 -0.094919 0.017775 0.13221 0.1683 -0.19323 -0.17612 0.075506 0.18939 0.12508 -0.1988 -0.16017 -0.21092 0.46933 0.044747 0.098349 0.011637 0.22281 -0.010837 -0.04833 -0.47335 -0.36811 -0.13592 -0.15086 0.25416 0.069531 0.14211 -0.26703 -0.1259 0.12076 -0.26117 0.033024 -0.034398 -0.13968 0.13446 -0.16709 0.15002 -0.13724 0.091226 -0.27718 0.020098 0.26919 0.43016 0.094019 -0.085496 -0.25192 -0.11645 -0.039734 0.0046738 0.54178 -0.16636 0.34546 0.098501 0.47819 -0.38428 -0.3238 -0.14822 -0.47817 0.16704 -0.064505 0.11834 -0.3448 0.096891 0.32309 0.41471 0.19463 -0.20891 -0.12223 -0.058298 -0.20268 0.2948 0.043397 0.10112 0.27177 -0.52124 -0.073794 0.044808 0.41388 0.088782 0.62255 -0.072391 0.090129 0.15428 0.023163 -0.13028 0.061762 0.33803 -0.091581 0.21039 0.05108 0.19184 0.10444 0.2138 -0.35091 -0.23702 0.038399 -0.10031 0.18359 0.025178 -0.12977 0.3713 0.18888 -0.0042738 -0.10645 -0.2581 -0.044629 0.082745 0.097801 0.25045
buy -0.38646 -0.0093005 -0.18645 -0.40289 0.018726 0.011056 -0.53973 -0.33409 0.088768 1.5371 -0.61892 0.31233 -0.0083744 -0.098763 0.31802 -0.23705 -0.40133 1.5795 0.089543 0.24835 0.1124 -0.16184 -0.0078863 -0.33806 -0.75854 0.012611 0.018851 -0.63551 0.81988 0.5419 -0.13957 -0.13269 0.18699 0.68593 -0.12499 0.19015 0.29164 0.31262 0.097962 -0.19466 -0.20418 0.20598 0.62622 -0.30097 0.38508 -0.15391 -0.25249 -0.45515 0.043904 0.50723 -0.33681 0.2294 0.035617 0.3325 0.87624 -0.51213 -0.36681 -0.38784 -0.65197 0.003465 -0.081624 -0.39622 -0.22942 0.40481 0.36968 -0.33839 0.47208 0.10763 0.14997 -0.026492 0.48465 0.2485 0.083415 0.11716 0.37558 0.14674 -0.022723 -0.14297 -0.19658 0.349 0.15564 -0.19872 -0.42284 0.18389 -0.17288 -0.32757 0.41081 0.40303 0.75724 0.12526 -0.023118 0.059224 0.050701 -0.0024724 -0.29559 0.22107 0.22246 0.086746 -0.21601 -0.46396 -0.32547 0.31271 -0.08424 0.10818 0.118 -0.33096 0.55732 0.079981 0.083471 0.205 0.71326 -0.83711 0.14977 0.073872 0.36906 0.0093915 0.16861 -0.26319 0.23231 0.05775 0.26323 0.30768 0.065444 0.030655 -0.10776 0.0097487 0.0066807 0.097823 0.076771 0.22061 0.57483 -0.43321 -0.40412 -0.31534 0.2517 -0.13666 -0.30006 -0.019055 0.24868 -0.21583 -1.7294 -0.22136 0.18643 -0.406 -0.020149 -0.3017 0.39763 0.42857 0.22471 0.0368 0.050152 0.27866 -0.040099 -0.27359 -0.11403 -0.19431 -0.082714 0.007844 -0.44437 0.1486 -0.26663 0.14629 -0.061414 -0.26467 0.45501 -0.034706 0.54114 0.087115 0.31185 -0.24264 -0.58261 0.079896 -0.31999 0.61476 -0.053985 -0.15794 -0.22663 0.27763 0.26793 0.052266 0.75188 -0.19562 -0.13426 -0.36581 0.075786 -0.21698 -0.080763 -0.53054 0.28485 0.0029346 -0.2441 -0.084115 0.093165 -0.45943 0.18277 -0.26543 -0.15769 0.1072 0.4176 -0.1314 0.42703 -0.71767 -0.044081 -0.46818 -0.24238 0.58066 0.11864 -0.46738 0.35548 0.62277 -0.030706 -0.47411 -0.32632 -0.48018 0.35179 -0.54304 -0.28435 0.28119 -0.6607 0.22204 -0.43265 -0.35096 -0.47218 -0.90214 -0.056272 -0.23857 -0.052908 0.51138 -0.23315 -0.20031 0.016792 0.11917 0.16959 -0.39068 -0.199 -0.30493 0.63522 0.1397 0.21883 0.3035 0.30429 -0.10075 -0.15398 -0.10738 0.26299 -0.0084649 0.55173 -0.24435 -0.26811 0.023384 0.16215 -0.33234 0.15927 -0.42009 0.19243 0.35999 0.14076 0.043636 -0.17868 0.077474 0.31253 -0.12159 0.11225 0.32689 0.21792 -0.71833 -0.039231 0.099716 0.30942 0.062553 0.3314 0.25403 0.10688 0.54142 0.025794 0.095318 -0.42594 0.39992 -0.12387 -0.31025 -0.58545 -0.031448 0.14679 -0.020917 -0.11731 0.96141 0.26268 -0.4486 -0.17306 0.24541 -0.37045 -0.026144 0.028192 0.0035009 -0.085116 -0.23774 -0.20156 -0.56529 0.095978 0.87864
a 0.043798 0.024779 -0.20937 0.49745 0.36019 -0.37503 -0.052078 -0.60555 0.036744 2.2085 -0.23389 -0.06836 -0.22355 -0.053989 -0.15198 -0.17319 0.053355 1.6485 -0.047991 -0.085311 -0.15712 -0.64425 -0.39819 0.278 0.15364 0.031678 0.055414 0.015939 0.31851 -0.058979 0.038584 0.1077 0.1041 -0.077346 0.37396 -0.21482 0.3832 -0.27737 -0.18352 -0.83838 0.34124 0.58164 0.18543 -0.31028 0.17666 -0.069421 -0.34422 -0.13665 -0.10823 0.23637 -0.32923 0.61348 0.1972 0.087123 0.10785 0.3073 0.13757 0.30809 0.24331 -0.29422 -0.0098214 0.55675 -0.04888 0.099468 0.30543 -0.37597 -0.19525 0.046246 -0.036675 0.34023 0.14905 0.0978 -0.26664 0.056834 -0.043201 -0.23338 0.13111 -0.35742 -0.3607 0.30997 -0.19727 -0.1432 -0.16747 0.00042435 -0.1512 0.067562 -0.38644 0.025349 0.24918 -0.23955 -0.15615 0.49868 0.0082758 -0.1912 -0.14906 0.48757 -0.015281 0.010196 0.37642 -0.01946 -0.27835 0.16355 -0.24127 -0.21405 -0.21562 -0.79697 0.34321 0.093209 0.073977 -0.27147 0.20539 0.15061 0.020734 0.11267 0.028714 0.2967 -0.21267 0.43214 0.12788 0.29249 0.19056 -0.29113 -0.11382 -0.038242 -0.2029 0.18301 -0.16661 -0.27116 0.0012685 0.071704 -0.18583 0.08985 -0.039895 0.39479 0.0053211 -0.00061548 -0.27082 -0.089782 -0.2879 -0.14865 -1.3746 0.16515 0.20598 0.15252 0.034723 -0.38531 -0.094574 -0.19871 0.50239 -0.28702 -0.088727 0.056881 0.13634 0.19034 -0.19353 0.40506 -0.19317 0.22908 0.10055 -0.26895 -0.034727 -0.08401 0.057806 0.011076 -0.043349 -0.26917 -0.19333 0.22181 0.26123 -0.11761 0.10092 -0.15078 0.47153 0.11253 -0.26749 -0.038785 -0.03652 -0.089248 -0.24427 -0.041381 -0.021785 -0.35738 -0.063409 -0.53983 -0.010112 0.00041238 -0.097049 0.42628 -0.21349 -0.41055 -0.2494 -0.033571 -0.4954 0.15557 0.19882 0.10498 -0.24372 0.11429 -0.039279 -0.36258 0.10318 0.129 -0.41785 -0.041607 0.33522 0.073186 0.13362 0.010812 0.052645 0.18801 -0.30185 0.20333 -0.32258 -0.24673 0.21124 0.79132 -0.41539 0.3622 0.099852 -0.035378 -0.0419 -0.13851 -0.063255 0.13635 0.090863 -0.3994 0.099062 0.3221 -0.12256 -0.085906 -0.10218 0.2635 -0.18689 -0.1856 -0.43923 -0.325 -0.1991 0.17831 -0.27283 0.33473 0.082382 0.12825 0.39275 -0.034929 0.16148 -0.026713 0.40129 -0.39503 -0.064823 -0.08982 -0.066592 -0.34537 0.046283 0.36837 -0.024573 0.32213 0.30641 -0.28112 0.0066449 0.087743 -0.03417 0.60373 0.4212 -0.073349 0.26682 -0.1586 0.23765 -0.0062604 0.15236 -0.23409 0.31634 -0.08786 -0.15747 -0.24955 -0.18766 -0.096743 -0.27994 -0.24334 0.32643 0.29906 0.42763 0.22266 -0.17464 -0.019916 -0.31206 -0.34009 -0.14993 -0.28818 0.1475 -0.040503 -0.10347 0.0033634 0.2176 -0.20409 0.092415 0.080421 -0.061246 -0.30099 -0.14584 0.28188
refurbished 0.84099 0.26104 0.12132 -0.20976 0.19134 -0.44139 -0.41382 -0.36737 0.20334 0.47657 0.78501 -0.18796 -0.39528 -0.68786 -0.21254 0.37167 -0.49821 1.2896 -0.23892 0.10916 -0.050865 -0.51547 0.74025 0.40031 -0.3208 -0.10622 -0.9551 -0.21633 -0.58543 0.82981 0.057847 -0.13595 0.61649 0.56796 -0.39042 0.13973 -0.11821 -0.23044 -0.61256 -0.24189 -0.03116 0.4095 0.55533 0.59449 -0.10739 0.38215 -0.2846 -0.21876 -0.59969 0.85736 -0.36549 -0.30844 0.66701 -0.087576 0.36343 -1.1828 -0.32837 -0.35233 -0.27744 0.65614 -0.40744 -0.45716 0.47927 -0.1344 -0.27647 0.42572 -0.23019 0.20072 -0.34228 0.23361 0.82922 0.092849 -0.10264 0.57364 0.75183 -0.048668 0.63641 -0.06668 0.069672 0.18665 0.0087995 0.011422 0.13821 0.041315 -0.045118 -0.090219 -0.061427 1.237 0.50239 -0.41587 0.13331 0.18538 -0.1424 -0.066557 0.47649 -0.20914 0.32092 0.21187 -0.34762 0.067389 -0.34914 -0.14935 0.13858 -0.14328 -0.34574 -0.85921 -0.35086 0.32369 0.20992 -0.61511 0.074432 -0.17847 0.41777 -0.4577 0.224 -0.18592 -0.10336 0.60439 -0.34048 -0.19331 0.66118 0.64974 0.12409 -0.093403 0.42427 -0.46559 -0.14067 0.086179 0.43355 0.013805 -0.033078 -0.0042131 -0.1572 -0.14827 -0.15253 0.51825 0.45773 0.29023 0.12615 -0.66641 -0.10654 -0.32259 0.061455 -0.54195 0.74008 -0.2059 0.23867 0.37723 0.9249 -0.15489 -0.029748 0.24894 1.073 0.12596 0.93213 0.0019866 -0.13447 -0.44138 0.19109 -0.097784 -0.063151 0.65402 0.84963 0.055202 0.36547 -0.071786 -0.43873 0.23373 0.34297 -0.008332 -0.49455 0.45133 -0.83923 0.25356 -0.25102 0.082601 -0.23753 0.61656 -0.14387 0.79007 -0.18857 -0.48064 0.31448 -0.22998 -0.367 -0.442 0.58227 0.33224 0.34674 0.062506 -0.37589 -0.69298 -0.45765 0.012525 -0.755 -0.33766 -0.13187 -0.82014 -0.36001 -0.066815 -0.10248 -0.57031 -0.15623 -0.19762 -0.12856 0.14527 -0.099104 0.0096518 0.53769 0.20444 -0.16314 -0.47858 -0.45518 -0.52976 0.95636 -0.051455 0.33383 0.078714 -0.31875 0.52503 0.017158 -0.50953 -0.072686 0.22304 0.22093 -0.62018 0.051567 0.6962 -0.04478 0.20239 0.26659 -0.40407 0.3945 0.057018 0.61926 -0.10053 0.44131 -0.51281 -0.16218 -0.072658 0.60564 -0.33617 -0.17334 0.25515 0.13328 0.47907 0.31565 -0.3677 -0.45104 -0.16357 -0.16692 -0.16641 0.40419 -0.044331 0.27608 -0.025073 0.39442 0.0377 -0.52603 -0.15616 0.21099 -0.14701 0.22515 0.18878 -0.323 -0.89386 0.0073673 -0.24126 -0.74766 -0.39057 -0.29385 -0.44698 -0.29477 0.32801 -0.073179 -0.44369 -0.41552 0.4675 0.09769 -0.16091 -0.078908 0.44325 0.064064 0.45819 0.031981 0.21796 -0.24546 0.19309 -0.49226 0.57937 -0.64391 -0.73307 0.07613 0.62732 -0.13081 0.011019 0.021754 0.17898 -0.22278 0.66579
phone -0.1362 0.38727 -0.12856 0.27974 0.75971 -0.24243 0.35718 -0.96541 -0.28738 1.914 -0.33266 0.18974 0.21663 -0.9712 -0.39326 -0.15453 -0.54229 1.7685 0.28535 -0.075234 -0.36632 0.63784 -0.18193 0.1938 0.18403 -0.12817 -0.37799 -0.56423 0.35851 -0.059564 0.56519 -0.18486 -0.15408 -0.033699 0.50181 0.47512 -0.13689 -0.2887 0.084549 -0.013796 -0.33464 -0.10013 -0.1335 -0.36786 -0.71023 0.72849 -0.1339 -0.20285 0.26199 -0.075272 0.15221 -0.26894 -0.19495 -0.26635 0.094435 0.55778 0.042369 -0.61844 0.46474 -0.10606 -0.1594 0.2352 0.10432 0.62291 0.24465 0.1799 0.073008 0.62075 -0.18035 -0.014205 -0.29934 0.23973 0.11209 0.038899 0.087976 0.055507 0.31465 -0.69683 0.17499 1.0266 0.029438 -0.097376 -0.48979 0.032382 -0.089106 0.36988 0.4508 0.25235 0.68874 -0.38271 0.0077384 0.56292 -0.34981 -0.21533 0.17725 -0.62579 -0.11756 -0.39688 -0.41301 0.13711 0.4815 -0.26188 0.79643 0.10384 -0.21377 -0.33947 -0.1608 0.23628 0.09355 0.16772 0.24894 0.25091 0.34416 0.33368 0.61388 0.15614 0.55696 0.20096 0.070396 0.42744 -0.35557 0.16123 0.15444 -0.44269 -0.038418 -0.068453 0.47844 -0.21048 0.050742 0.070517 -0.097051 -0.32983 0.12711 0.40095 -0.27976 -0.18862 0.39339 0.22574 -0.13371 -0.057255 -1.4737 0.38019 -0.21603 -0.28518 0.22239 0.48861 -0.043251 0.137 -0.49783 0.15221 0.062092 0.25902 0.3422 0.10825 0.2154 0.46679 0.54166 -0.12055 -0.083565 -0.39899 0.28659 0.2889 0.83559 -0.554 -0.16206 -0.21452 0.18859 0.55534 -0.35346 -0.1434 -0.6305 0.39401 0.10443 0.16913 -0.2366 -0.025213 -0.084681 -0.053262 -0.99011 0.29704 0.28427 -0.3809 -0.038403 0.49098 0.48952 0.16482 0.045743 -0.14596 -0.014158 0.083539 0.33096 -0.2047 0.55477 0.54288 -1.0947 0.084148 -0.21232 -0.26077 -0.41665 -0.15318 0.14065 0.048011 -0.11436 0.51606 -0.093664 0.17319 0.01241 0.22304 0.12972 0.28372 -0.32594 -0.51607 -0.045604 -0.33182 0.78294 -0.071724 -0.78348 -0.36262 -0.91375 0.14912 0.1739 -0.62738 -0.34684 0.68601 -0.87348 -0.62038 -0.28828 -0.33228 0.37763 -0.19996 0.30345 -0.066727 0.079539 0.14721 -0.3981 0.33653 0.60968 -0.68795 0.79044 0.55453 0.096675 0.1638 0.18524 -0.22198 0.025082 -0.65638 0.27391 -0.13448 -0.083755 0.098819 -0.23699 -0.15949 -0.47897 0.081172 0.048817 0.3438 -0.37654 -0.46308 0.0026175 -0.46074 0.48099 0.44291 0.43523 -0.23318 -0.21554 0.14345 -0.17179 0.26502 0.64871 -0.24683 -0.51047 0.52303 0.6674 0.18323 -0.15823 -0.32702 -0.54619 0.10467 0.35071 -0.60871 -0.051431 0.8386 0.7779 0.51184 -0.19282 0.42832 0.33395 0.51483 -0.7102 0.33655 -0.76393 0.34445 -0.022536 0.41717 0.2524 0.32139 0.2452 0.29156 -0.56886 0.66246
on -0.070186 0.15274 -0.33086 0.11609 -0.17336 -0.1186 -0.26033 -0.25732 -0.25424 2.1744 -0.58533 0.1923 -0.21912 -0.14132 -0.30318 0.27442 0.053737 1.3326 -0.33961 0.13245 -0.011687 0.29352 0.15814 0.38337 0.33498 -0.094142 0.025341 0.037715 -0.0048971 0.36386 0.040932 -0.051188 -0.14557 -0.15078 -0.29911 0.10568 -0.43162 0.23783 -0.40836 0.067004 -0.32961 0.16481 -0.61208 0.10865 0.51402 0.093598 0.040137 -0.075552 -0.061653 0.24101 0.20612 0.35557 -0.26925 0.13492 -0.26603 -0.042859 -0.34983 -0.19393 -0.139 -0.24687 0.38211 0.15396 0.11271 0.39227 0.37262 -0.029871 -0.078348 0.13533 0.20053 -0.040988 0.51763 -0.1672 0.10849 -0.066263 0.33539 -0.20349 -0.0060679 -0.25021 -0.11447 0.092096 0.10335 0.18136 -0.082613 0.015608 0.13623 0.37399 0.085328 -0.059786 0.50908 0.44098 -0.1371 -0.20949 -0.19838 0.17075 0.017708 -0.060633 0.017311 -0.097675 0.14797 -0.32391 0.071086 0.23612 -0.262 -0.12026 -0.07813 -0.069083 -0.052542 0.026868 0.33614 -0.34025 -0.18974 -0.42294 0.23576 0.074527 0.39296 -0.36171 0.12294 -0.22299 0.39385 -0.08318 0.36118 0.36501 0.052356 -0.15403 0.15367 -0.13591 -0.5199 0.14502 0.19008 -0.57505 0.40054 -0.4856 -0.16852 -0.23749 -0.39897 -0.034135 0.3762 0.35281 -0.060511 -0.053663 -0.91063 -0.29587 0.13069 -0.022816 -0.031485 -0.018865 0.082726 -0.13078 0.095393 -0.088603 -0.32838 0.2328 0.2126 -0.47373 -0.69606 -0.025524 0.27181 0.4608 -0.25659 0.14652 -0.27128 -0.11555 -0.042916 -0.086319 0.17359 -0.093851 -0.19697 0.16909 0.47233 0.12367 0.15093 0.010047 0.017343 0.14631 0.030154 0.4627 0.14602 0.0047357 0.054487 0.12038 -0.0661 0.32342 0.20327 -0.096633 0.01186 -0.14425 0.33714 0.012951 -0.11801 -0.19729 -0.1369 0.11858 -0.21245 -0.08021 -0.30583 0.60707 -0.07167 0.51622 -0.37388 0.31573 -0.21255 -0.087917 -0.082767 0.96144 0.41898 -0.15271 -0.2572 -0.42049 -0.21564 0.049303 0.14532 -0.016763 -0.27325 -0.12089 -0.11887 0.49483 -0.49091 0.027468 -0.25469 0.020076 0.14192 0.0043306 -0.79448 -0.18651 0.28319 -0.72605 -0.076261 -0.091382 0.56002 0.3611 -0.095179 0.0076065 0.03334 0.366 -0.010639 -0.39696 0.030575 0.034592 0.14389 0.021152 0.23129 0.31393 -0.19558 -0.29173 -0.092003 -0.68977 -0.060591 -0.17502 -0.23999 -0.015641 -0.17448 -0.19483 -0.08446 -0.2684 0.0059415 0.2251 -0.064981 -0.027336 0.044675 -0.35042 0.25696 0.2968 0.22437 0.029845 0.17738 -0.088874 0.040426 0.10329 0.10673 -0.15837 0.015958 -0.21407 0.10097 0.046007 0.020979 -0.24182 -0.060037 0.16792 -0.0097223 0.62231 0.14792 -0.16206 -0.0093503 -0.21688 -0.092126 0.10743 0.18668 -0.051382 -0.37033 0.10152 -0.25956 -0.33837 0.33143 -0.34141 -0.069082 -0.074133 0.39836 -0.13735 0.1575 0.61553
Amazon -0.60474 0.039157 -0.21169 0.17425 -0.20301 0.43107 -0.2371 -0.34762 -0.27032 1.0362 0.32378 0.085033 0.078494 -0.69236 -0.23188 0.36024 -0.20514 0.55826 0.58143 -0.78081 -0.7988 0.4055 -0.51996 0.17217 -0.81759 0.089366 -0.28555 0.2747 0.03519 0.12596 0.20951 0.20105 0.36752 0.19034 0.067537 0.10349 0.27651 0.28056 0.42985 -1.0558 0.25977 -0.41727 0.5302 -0.28142 0.21232 -0.15428 -0.66468 0.2789 -0.10154 -0.054308 0.072472 0.22224 -0.25566 0.50085 0.46126 -0.93842 -0.08922 -0.39901 -0.26074 0.071785 0.5671 -0.25272 -0.37911 -0.071877 -0.0055373 -0.52493 -0.092617 -0.32373 -0.20973 0.21587 0.49611 0.12939 0.16433 0.37073 0.97982 -0.18596 0.23234 0.25484 -0.32862 0.57205 0.14578 0.042002 0.38539 -0.14905 0.41576 -0.62879 -0.65365 -0.096462 0.95701 -0.06964 0.32522 0.092222 -0.2603 0.48915 -0.24948 -0.26229 -0.52421 -0.090676 0.23339 -0.14822 0.23128 -0.94161 -0.24113 0.14187 -0.39128 0.95335 -0.054649 -0.20716 0.38874 -0.19078 0.96882 -0.53869 0.40082 -0.16114 0.1977 0.117 0.49414 -0.10366 -0.072333 0.3458 0.13239 -0.27589 0.55634 -0.38358 -0.52854 0.11108 -0.59515 0.22565 -0.30046 -0.32076 -0.24893 -0.81399 0.32158 -0.0032458 -0.41594 0.20724 -0.73201 -0.21968 -0.10635 0.36154 -0.74437 -0.055809 0.097595 -0.35726 -0.19858 -0.14337 0.4945 0.2323 -0.16529 0.38066 0.082378 0.027635 0.43569 0.094916 -0.1115 0.45441 -0.29342 0.62159 0.28515 0.49406 -0.49893 0.5824 -0.32275 -0.50125 -0.78284 0.096236 -0.067434 0.29286 0.64337 -0.31209 -0.5411 0.37161 -0.14357 0.038401 0.36974 0.58094 0.79004 -0.08074 0.069883 -0.40635 0.72062 -0.029665 -0.4269 -0.54629 0.67521 -0.086529 0.072516 -0.61771 0.058446 0.2118 -0.021022 -0.34603 0.025387 0.5115 -0.16142 -0.5791 -0.02418 0.20804 0.35182 0.047567 0.58144 -0.68707 0.02192 0.27757 -0.17411 0.13689 -0.28547 -0.014227 0.73466 -0.4181 0.099289 -0.35122 -0.53881 -0.07455 -0.1357 -0.46604 0.21506 0.62709 -0.77158 0.3684 -0.27197 0.025958 -0.039728 0.014732 0.37191 -0.47798 0.036462 -0.24168 -0.48407 0.69384 0.036313 -0.10528 0.46962 -0.11768 0.047207 -0.45125 -0.22312 0.038641 0.26399 -0.058346 0.29073 0.037315 -0.15352 0.19331 0.40194 -0.4844 -0.11302 0.23282 -0.36652 0.26363 -0.0877 -0.56378 -0.10704 0.22688 0.19018 0.11162 -0.16873 0.2017 -0.031848 -0.73055 0.23375 0.078482 -0.01557 0.40661 0.25544 -0.22795 0.37175 -0.14574 0.50016 -0.34394 -0.24067 -0.18486 -0.36614 0.11977 0.049574 -0.20204 -1.0354 0.28343 0.10201 0.19849 -0.92641 -0.12077 0.89787 0.069097 -0.42781 -0.5267 -0.07547 -0.056448 -0.039524 -0.68167 -0.84842 -0.26028 -0.15036 0.10968 -0.41124 0.021813 0.22717 -0.60305 -0.076366 -0.013687
after 0.2069 0.44321 -0.12522 -0.017724 -0.064277 -0.44308 0.014019 -0.10119 0.22699 3.1689 -0.049675 0.13649 -0.12854 -0.089205 -0.184 -0.26894 -0.10977 0.58782 0.055505 -0.10928 -0.10306 -0.22621 -0.40278 -0.007018 -0.081239 0.091405 -0.20647 -0.088109 0.018322 0.13885 -0.14916 -0.34279 0.34073 -0.020525 0.12772 0.19344 -0.042443 -0.081455 0.24402 -0.10637 0.26051 -0.042693 0.27589 0.036389 -0.45583 0.33536 -0.63138 0.010534 -0.098558 -0.26224 -0.034218 0.022529 0.28491 -0.00080994 -0.36953 0.078209 -0.23637 -0.45496 -0.033702 0.0261 -0.039399 -0.20181 0.047144 0.22483 -0.14378 -0.071365 0.31908 0.027904 0.1744 0.36734 0.35536 0.023437 -0.14152 -0.030012 0.4528 -0.14967 0.14836 -0.21396 -0.28855 -0.11611 0.33391 0.39679 -0.2669 -0.22283 -0.30192 -0.19494 0.23492 -0.49715 -0.066155 0.68665 0.0065619 0.29484 0.018385 -0.075539 -0.18914 -0.2761 0.15084 -0.25149 0.16125 0.0016244 -0.16377 0.25879 0.11359 -0.39705 -0.019344 -0.71588 0.12282 0.36507 0.44233 -0.31046 -0.13544 -0.23646 0.34184 0.20649 -0.20393 -0.14587 0.22722 0.59971 -0.20669 0.24617 0.089081 0.32465 0.21086 0.1405 -0.17531 -0.10278 -0.18603 -0.035858 -0.14165 0.14762 0.02119 0.067099 -0.097888 -0.098828 0.32625 -0.1774 0.39988 0.48666 -0.094265 0.044997 -1.3909 -0.08634 0.053854 -0.39244 0.25035 0.15902 -0.41652 0.15327 -0.096427 0.017509 -0.12342 0.28438 0.070551 0.023855 -0.21167 -0.27015 0.086677 0.22287 0.18088 -0.18958 -0.42575 -0.12019 -0.10008 -0.11138 -0.43538 -0.24167 -0.36939 0.55094 0.33855 -0.067462 0.1405 -0.12792 -0.62334 -0.089842 -0.25586 -0.089838 -0.054543 -0.23579 -0.072542 -0.21422 -0.16534 -0.29973 -0.17224 -0.032081 -0.029215 -0.064936 -0.07067 0.10933 0.026229 -0.3948 0.046228 0.1084 -0.14476 0.29974 0.34018 0.49379 -0.0024577 0.05713 -0.18387 0.014756 0.0044647 0.065187 -0.11569 -0.078964 0.34428 0.12262 -0.073555 -0.1551 0.013114 0.42743 0.28604 0.26252 -0.0021381 -0.10524 0.097695 -0.37247 0.17817 -0.13989 0.0044084 0.15055 0.17244 -0.11123 -0.55334 0.21538 -0.35066 -0.067947 0.028149 0.22922 0.20612 0.34103 0.19253 0.24177 0.11874 0.14274 -0.28865 -0.27468 -0.018102 0.307 -0.20144 -0.11336 0.28796 -0.307 0.0063906 0.16857 0.011553 -0.20628 0.2853 0.26673 0.0038522 -0.044708 -0.34961 0.12911 0.22665 -0.08984 0.49885 0.23046 -0.022714 -0.16601 0.096821 0.090996 0.50417 0.43095 0.097698 0.0902 0.22884 -0.035083 0.032326 -0.02933 -0.0070984 -0.41873 0.92548 -0.25566 -0.092382 0.014936 0.051361 0.44873 -0.28134 0.031306 0.3691 0.58316 0.23887 0.0099756 -0.050121 0.074253 0.13857 -0.15677 0.058333 0.030003 0.081199 0.15358 0.12698 0.22123 0.22766 -0.09769 -0.03809 -0.1639 -0.39842 0.19433 -0.093593 -0.089783
reading 0.20305 0.26363 -0.21473 0.22013 0.23134 0.34146 0.043714 -0.19601 0.21708 1.9109 -0.39616 0.15446 0.019018 -0.19341 -0.36935 -0.19667 -0.065394 1.0821 -0.61385 -0.23348 0.31321 -0.33173 0.29712 -0.32694 0.33648 -0.10337 0.12662 0.032726 -0.05797 -0.099062 -0.2046 0.027501 0.3552 -0.031302 0.20792 0.02452 0.074214 0.2809 -0.14655 -0.52228 -0.015276 -0.1552 -0.37906 0.11613 0.12747 0.10437 -0.27362 0.62997 0.13652 -0.14329 -0.26396 -0.37338 -0.050121 0.13348 -0.44769 -0.40319 -0.037092 -0.40167 -0.28534 0.079639 0.31844 -0.15115 -0.073701 -0.011811 0.23713 -0.43417 -0.12981 -0.14991 0.19347 0.79935 0.3025 -0.74459 0.45576 -0.55212 0.057471 0.04312 0.42807 0.22816 -0.31637 1.0929 0.24021 0.11647 0.54262 -0.19345 0.1867 -0.53078 -0.25771 -0.33227 0.16928 0.58096 -0.33437 -0.1205 -0.59647 0.27103 -0.21954 0.0065079 0.43016 -0.01586 0.54164 -0.74096 0.29945 -0.61277 -0.061713 -0.072157 0.51313 -0.14586 0.17478 -0.054347 -0.069465 -0.067247 0.2338 0.31243 0.54076 -0.17312 0.020737 -0.32791 -0.73066 -0.095165 0.28767 -0.066249 0.31455 -0.35926 0.34926 0.58454 0.69093 0.18563 -0.65312 -0.082319 0.1577 -0.35966 -0.40269 -0.39536 -0.28817 0.28507 -0.17172 -0.26617 0.18076 0.022837 -0.030751 0.14653 -1.2832 -0.36066 -0.088276 -0.59614 -0.4266 0.086074 0.022922 -0.25055 -0.19859 -0.12396 0.12973 -0.018077 -0.034939 -0.023854 -0.036996 -0.16044 0.36509 0.063705 0.24439 -0.58931 -0.295 0.30505 -0.038919 -0.20419 -0.48741 0.1152 -0.18919 0.046972 0.021121 -0.11938 -0.096409 -0.039535 0.59818 -0.33493 0.031747 -0.039993 0.24239 -0.59665 0.18093 -0.10597 -0.34595 -0.22114 -0.17234 -0.033847 0.31576 0.29281 0.14997 0.23277 0.0085145 -0.36111 -0.47578 -0.16717 -0.55265 -0.3256 -0.23279 0.21238 -0.082844 -0.30813 -0.0083427 -0.4291 0.22715 -0.27306 0.13465 0.12534 0.21273 -0.19816 0.22562 -0.26304 -0.0077345 -0.12902 -0.024795 -0.25344 0.041826 -0.77249 -0.023928 -0.24348 0.071343 0.13678 0.096543 0.17423 0.059143 -0.28677 0.24234 0.45341 -0.265 -0.015755 -0.2421 -0.23322 0.38842 -0.28387 -0.24448 0.16974 -0.3104 0.16907 -0.36931 -0.16183 0.42669 -0.28525 0.061637 0.31358 -0.19531 -0.57643 0.14864 -0.074756 -0.2245 0.052023 0.15341 0.20485 -0.13339 -0.10202 -0.087559 -0.46927 -0.1142 -0.0073066 0.56847 0.71998 -0.024389 0.056898 -0.13754 0.13667 0.46753 0.21787 -0.17521 0.66397 0.92336 -0.035519 -0.3831 0.34848 0.8414 -0.086979 -0.49804 -0.33265 -0.53216 0.022995 -0.022909 0.028413 -0.16519 -0.14225 -0.20541 0.14497 -0.088909 -0.21176 0.21047 -0.25085 -0.097012 -0.033081 0.17629 0.049878 -0.091935 0.08805 -0.50499 -0.17625 -0.1396 -0.046312 0.19793 0.061773 0.12294 -0.54872 -0.14515 -0.13434
many 0.091336 -0.026953 -0.38925 -0.30443 0.26957 0.20024 0.024926 0.085175 0.039955 2.8787 -0.0020609 -0.20684 0.11762 -0.21285 -0.26108 -0.10058 -0.19296 1.0013 -0.20157 -0.046232 -0.2631 -0.132 -0.12714 -0.22615 -0.11188 -0.10493 -0.018142 0.042673 0.22085 0.15248 0.24588 0.21762 -0.16788 -0.38134 0.22637 0.090143 0.15146 0.078851 -0.050912 0.23474 -0.22762 -0.14304 -0.057011 -0.049822 0.05812 0.2849 0.0030141 0.11934 0.29365 -0.04562 -0.66796 0.19006 -0.014372 -0.10936 -0.21879 -0.086895 -0.15162 0.035916 -0.019932 0.08525 0.30722 -0.23362 -0.30525 0.34261 -0.0246 0.17742 0.31519 0.17742 0.13942 0.11986 0.38824 -0.12235 0.31082 0.043221 0.39968 0.097556 0.19855 0.020597 -0.0076866 0.099036 0.18783 -0.080569 -0.43876 -0.26864 -0.16291 -0.28779 -0.94128 -0.0080503 -0.050877 -0.17684 -0.25852 -0.14762 -0.10436 0.21679 0.33319 0.25627 0.13854 0.061818 -0.33124 -0.32662 -0.39214 0.081625 0.0070826 -0.069055 0.19675 -1.3589 -0.072808 -0.098437 -0.1271 0.11544 0.19602 -0.27036 0.022657 -0.24923 -0.13775 -0.23112 -0.34306 0.34208 -0.19459 0.031589 0.21547 -0.084767 -0.039228 -0.24376 0.30606 -0.043572 0.16478 -0.026117 0.36822 0.20817 0.0027998 -0.0041353 0.11906 -0.32516 -0.15104 0.082001 0.022578 -0.15362 0.11683 0.095363 -1.3521 0.13647 0.40522 0.32762 -0.032655 -0.09424 -0.17319 -0.16436 -0.25647 0.21912 0.049365 0.36923 0.079846 -0.0088569 -0.37374 -0.18024 0.040512 0.30074 -0.06837 -0.41189 -0.12655 0.0049112 -0.10753 0.029444 0.27935 0.01645 0.0023127 0.01557 0.0094685 -0.1733 -0.22671 0.31553 -0.0050549 0.2075 -0.34795 0.15586 -0.17239 0.163 0.39563 0.15575 0.29345 0.14834 -0.091449 0.067791 -0.31452 -0.48194 0.091693 -0.48735 0.30596 0.32674 0.28618 -0.098909 0.12927 0.0006227 -0.16261 -0.090114 -0.15181 0.1989 -0.07539 0.088825 -0.15633 -0.48976 -0.11131 0.034216 0.038286 0.0074293 0.18229 -0.27426 -0.12028 0.032861 0.0332 0.16714 -0.21567 -0.40389 -0.085826 -0.2905 0.096503 -0.069477 -0.17831 -0.29853 0.021277 0.1964 0.19821 0.22117 0.10356 0.43428 -0.092857 -0.055053 -0.16639 0.12815 -0.10107 -0.10733 0.11686 0.1008 0.23615 -0.25039 0.33504 -0.071652 -0.27003 0.17819 -0.080996 0.19656 -0.21319 0.43845 0.47115 0.087435 -0.044614 -0.018593 -0.24426 0.34177 0.23027 0.010539 -0.11781 -0.029722 0.16977 0.30321 -0.030288 0.29469 0.25215 0.35145 0.17255 0.17838 -0.32727 0.42443 -0.34823 -0.11812 0.28154 -0.055421 0.57186 0.30333 -0.2651 -0.14282 0.07874 -0.6619 -0.029357 0.14186 0.041443 0.26611 -0.15895 0.29003 -0.14181 0.20824 -0.11915 0.13817 0.31999 -0.018972 0.46554 -0.17734 0.099078 0.092864 -0.9107 -0.20835 -0.10693 0.052731 -0.075135 0.02443 0.17458 -0.20362 0.31233 -0.017447
negative -0.68121 0.70783 -0.18977 0.15693 -0.17184 0.40114 -0.34862 -0.32748 0.19074 1.9468 -0.25494 0.16352 -0.01556 -0.025446 0.067312 0.21122 0.028859 1.7064 -0.89224 0.22552 0.13115 -0.010153 -0.071769 0.38296 0.42172 0.10637 0.033342 -0.13752 -0.33434 -0.033393 0.085347 0.26351 -0.097687 -0.56534 0.51747 0.73412 0.18495 -0.18766 -0.014419 -0.71385 -0.096724 -0.23288 -0.063784 -0.070845 0.52139 -0.54092 0.10179 0.28271 -0.14904 -0.47904 -0.44751 -0.034146 -0.082716 -0.18836 0.38124 0.049808 -0.10339 0.66511 -0.30301 -0.12169 0.10082 0.097095 0.11037 0.089333 -0.65836 -0.16783 0.34656 -0.2383 0.11566 -0.029397 0.046758 0.20418 0.23008 0.28037 0.19169 0.18912 -0.2797 -0.65129 0.033329 0.47458 0.14675 -0.44123 -0.11053 -0.02139 0.29162 -0.58193 0.18674 -0.35059 0.020365 -0.23176 -0.0029176 -0.25971 -0.052068 0.13157 -0.47159 -0.12349 -0.12408 0.27283 -0.18238 -0.070557 0.0051389 0.29863 -0.088849 -0.35681 1.3553 -2.0754 0.15676 0.068615 -0.84073 0.3658 0.01249 -0.18503 0.050424 -0.24651 -0.095944 -0.15571 -0.35331 -0.44065 0.39949 -0.16986 -0.36017 0.20829 -0.051779 0.087283 -0.20471 -0.18653 0.017241 0.078891 -0.62682 -0.46887 -0.12105 0.25644 -0.10651 -0.24714 -0.041081 -0.26163 -0.33617 0.40599 -9.2258e-05 -0.15061 -0.72016 0.13017 0.101 0.030144 -0.55006 -0.18219 -0.31581 0.3584 -0.099357 -0.28487 0.3429 0.20223 0.3718 0.012379 -0.46853 -0.21574 -0.3088 -0.11146 -0.42765 -0.64089 0.13151 -0.038313 -0.12397 -0.21122 -0.60738 -0.34324 -0.46851 0.69475 -0.29642 -0.3264 0.12863 -0.20996 -0.23845 0.21819 0.34643 0.37164 0.032207 0.14831 0.34564 -0.36845 0.10418 0.10444 -0.014897 0.16422 -0.26082 -0.041286 -0.080156 0.44035 -0.089252 -0.3564 0.46763 -0.32779 -0.1912 0.17032 0.059667 0.053366 0.13126 -0.28635 -0.24314 -0.1271 -0.092266 0.11439 -0.25473 0.24246 -0.0063257 -0.43579 0.43996 -0.092334 -0.14153 0.38769 0.16459 0.15557 0.10313 -0.034141 0.076301 -0.13493 0.034754 0.52629 -0.29778 -0.2555 -0.11133 0.15615 -0.32397 -0.092029 -0.40752 -0.48433 -0.51361 -0.58471 -0.045382 -0.33616 -0.11558 0.12722 0.77717 0.57367 0.37372 -0.023637 -0.13343 0.061959 -0.18946 -0.29805 0.34769 -0.22903 0.1151 0.42165 -0.19531 0.3277 0.50917 -0.23508 0.015085 0.019605 -0.22839 -0.23464 0.12743 -1.1412 -0.25668 0.26412 0.11865 -0.060546 0.18889 -0.063287 -0.63355 0.065436 -0.050302 0.50923 0.01409 0.11122 0.22903 0.29815 1.0298 -0.0047473 0.30636 -0.42068 0.024567 -0.33468 0.5236 -0.37462 -0.38737 -0.25774 -0.57843 0.27761 -0.31128 0.039966 -0.3317 0.43746 0.2686 0.29256 0.17558 -0.14335 0.27002 0.60155 -0.17181 0.51641 0.096704 0.056659 0.27874 0.52897 -0.50693 0.10213 -0.039555 -0.24828
reviews -0.38644 0.47811 -0.020443 -0.42885 0.2641 0.49848 -0.1672 -0.28218 0.44407 1.1424 -0.31931 -0.18948 -0.16926 -0.44108 -0.16716 -0.36908 0.16511 1.1342 -0.62768 -0.53509 0.69726 -0.48345 0.28261 -0.37165 -0.13757 0.8999 -0.12104 -0.065621 0.68312 0.47678 0.49884 0.051871 -0.092331 0.025805 -0.21286 -0.066625 -0.13498 0.088101 -0.67788 -0.51376 -0.30097 0.0092919 -0.015139 -0.12866 0.27239 0.47899 -0.040624 0.35896 -0.53595 -0.56854 -0.31992 -0.27511 0.0027821 0.23211 -0.28371 -0.29491 0.17727 -0.4522 -0.20899 -0.21461 0.37897 -0.50396 0.28086 0.3462 0.30915 0.018926 0.0014767 0.27826 -0.3526 -0.10709 0.54545 -0.068752 0.25537 0.26261 0.98591 0.25272 -0.21067 -0.27002 0.30014 0.81849 0.035416 0.19441 0.2968 -0.44117 0.040459 -0.14981 -0.24201 0.37763 0.30737 -0.00061027 0.10118 -0.35855 -0.64328 -0.09775 0.33325 -0.12288 -0.099751 -0.026833 -0.25839 -0.60956 0.57645 -0.18934 0.28923 0.16528 0.17682 0.6148 0.18258 0.17665 0.03659 -0.3186 0.67466 -0.8138 0.32103 0.15418 0.12602 -0.42986 -0.37408 0.044987 0.21864 -0.33696 0.15745 0.42115 -0.01092 -0.11987 0.074565 0.3473 -0.27724 0.21618 0.033182 -0.10852 0.25135 -0.52459 -0.31333 -0.32042 -0.32439 -0.013794 -0.17457 0.39283 0.60697 -0.21745 -0.66859 -0.082679 0.67898 -0.37847 -0.13413 -0.47177 -0.49491 -0.15834 0.20681 0.29309 0.79472 -0.17531 0.17216 0.12468 -0.12337 -0.094967 0.096073 -0.27895 -0.10046 -0.33164 0.62522 -0.12366 0.12706 -1.1685 0.033459 -0.3643 -0.042378 -0.48631 -0.2456 -0.84476 -0.21171 0.074943 -0.24399 -0.19477 -0.043574 -0.1277 0.54959 0.3636 0.47423 -0.13881 0.39541 0.27481 0.011467 0.45195 0.50324 -0.18966 0.2836 0.10924 -0.11547 0.34015 -0.76439 -0.26773 -0.017359 0.53898 -1.012 -0.4571 -0.08084 -0.37961 0.38073 0.15728 0.46971 -0.24707 -0.36987 0.32908 -0.066834 0.23392 0.12549 0.30073 -0.25741 -0.10138 0.026127 0.13926 -0.40757 -0.18269 -0.022338 0.1694 0.31302 0.038667 -0.18484 -0.12449 -0.43077 -0.41487 -0.43047 0.23148 -0.37806 -0.20971 -0.29217 -0.25604 -0.15967 0.13034 -0.39125 0.35305 0.48738 -0.42396 -0.077938 -0.64402 0.12622 -0.32724 -0.071992 0.24799 0.32468 -0.49096 0.34242 -0.31232 0.15893 0.053936 0.11658 0.20951 -0.3165 -0.22024 0.34947 -0.47531 0.028658 -0.0065574 0.082097 0.61569 0.082615 -0.41231 -0.10902 -0.2788 -0.18493 -0.6822 -0.086095 -0.061147 0.47585 -0.49811 0.48875 0.070686 -0.31715 -0.22103 -0.57635 -0.62665 0.31763 0.37672 0.91113 0.44266 0.21305 -0.18064 -0.56256 -0.16782 -0.41103 0.25671 0.78394 0.096873 -0.10539 0.17951 -0.2088 0.30857 0.095053 -0.058162 -0.80686 0.53768 -0.24099 0.34638 0.55086 -0.50396 0.18379 -0.3166 0.45092 0.073285
various -0.059439 -0.51483 -0.10285 -0.049464 0.024436 0.22505 -0.096538 0.10872 0.059527 2.191 -0.13107 -0.13113 0.12975 -0.36929 0.18957 0.03581 -0.05497 1.6661 -0.3514 -0.17993 -0.22095 0.096936 -0.64649 0.043234 0.33806 0.19289 0.1168 -0.072996 -0.13966 0.021492 0.34472 0.10195 -0.079522 -0.12619 -0.012596 -0.073419 -0.029027 0.29702 -0.16404 0.24473 -0.17609 -0.029475 -0.42398 0.00079969 -0.29814 0.43388 0.41626 0.060655 0.099899 -0.28634 -0.07127 -0.17164 -0.045653 0.18978 -0.6191 -0.18985 -0.026655 -0.058531 -0.1807 -0.00365 0.64756 -0.01429 -0.11802 0.36628 -0.06649 0.13572 0.21562 0.20147 -0.01805 -0.19178 0.13564 -0.065615 0.29807 0.053621 0.26995 0.025836 -0.099481 -0.093499 -0.0063477 -0.38216 0.08338 -0.23376 -0.53608 -0.4862 -0.23629 -0.026863 -1.2246 0.82396 -0.0012988 0.080125 0.072038 -0.14354 -0.049166 0.092043 0.65178 -0.0080076 0.11652 -0.098976 -0.38236 -0.40787 -0.2071 0.09045 0.28549 -0.11418 0.036813 -1.8207 -0.18908 -0.034916 0.15794 0.24453 -0.086298 -0.32729 0.16162 0.029426 -0.23832 -0.33889 -0.018472 0.38651 -0.026454 0.36309 0.20451 -0.028209 0.027109 0.023909 0.15184 -0.050709 0.066755 0.41561 0.47529 0.13684 0.15964 -0.099907 -0.13013 -0.12591 -0.087696 0.47389 -0.18547 0.018877 0.2604 0.30374 -0.45868 -0.22713 0.09402 -0.080276 -0.036933 -0.055722 0.11606 -0.48064 -0.29346 0.020248 -0.14736 0.063748 -0.24808 -0.2103 -0.24779 -0.29596 -0.059839 0.51424 0.070016 -0.091632 0.023594 -0.033814 0.015304 0.086289 -0.1535 -0.16154 -0.21779 0.19847 0.14521 -0.18142 -0.048842 0.48298 0.17393 0.25124 -0.33297 0.20069 -0.20414 0.31903 0.66353 -0.055668 0.38508 0.27876 -0.043032 0.042019 -0.25457 -0.15413 -0.038235 -0.0047135 0.23438 0.21794 0.016227 -0.059223 0.18539 -0.21115 -0.46216 0.065349 -0.18886 0.36778 -0.55995 0.14434 0.051589 -0.41934 0.044215 0.40385 0.17891 -0.13087 0.23558 -0.0048606 -0.074732 -0.061285 0.15251 0.30766 -0.073678 -0.24503 -0.42664 -0.10646 -0.03741 0.017562 -0.24031 0.027151 -0.10022 0.022341 0.11895 0.28002 -0.097105 0.38616 -0.033229 0.025674 -0.064371 0.053469 -0.050509 -0.22119 -0.2291 0.1804 0.19467 -0.18047 -0.075203 0.11868 -0.011498 0.5015 -0.2531 0.42609 -0.16742 -0.17013 0.22562 0.30037 0.030502 0.11345 -0.26093 -0.16572 0.17233 -0.0034347 -0.26918 -0.011787 0.51794 0.20189 0.21125 0.46804 0.13637 0.16823 0.07439 0.23515 -0.34223 0.21449 -0.34717 0.19053 -0.15076 -0.061155 0.9973 -0.2037 -0.29342 0.13414 0.15165 -0.34949 0.025471 0.25209 0.34586 0.24876 -0.16282 0.11758 0.070535 0.35338 -0.098895 -0.18778 0.086646 0.10704 0.26783 -0.014785 0.03461 -0.10653 -0.72376 -0.11959 0.12165 0.091991 -0.58696 0.060802 0.2848 -0.45262 0.4823 0.21465
spent 0.23493 0.24594 0.17565 -0.20314 -0.30838 0.2176 -0.2002 -0.33662 0.054515 3.2238 0.26555 0.58694 -0.035994 -0.51217 -0.21023 -0.17623 -0.17142 0.16231 -0.033516 0.15304 0.35523 0.18201 -0.20338 0.36996 -0.04809 -0.22772 0.2339 -0.41706 0.23231 0.32344 -0.22478 -0.37287 0.24463 0.011381 0.030812 -0.13797 -0.16151 0.04299 -0.006693 0.16806 0.376 0.41835 0.053111 0.017683 -0.13925 0.33637 0.035634 -0.12899 0.35758 -0.22429 -0.1332 -0.50287 0.338 -0.14795 0.30268 -0.31676 -0.089136 -0.27442 0.57964 0.17679 0.26687 -0.39927 -0.5454 0.087419 0.13326 -0.38601 0.23249 0.55954 -0.14024 -0.25482 0.067943 0.1085 -0.09058 -0.057588 0.010775 0.27463 0.36382 0.28419 -0.32407 0.14874 0.46388 0.1742 0.20237 -0.15895 -0.19053 -0.11668 -0.49082 -0.12605 0.20162 0.42393 0.32311 -0.0098633 -0.48289 0.027828 0.043423 0.13577 -0.31229 0.004363 0.013892 -0.19605 -0.057496 0.022736 -0.21745 -0.060291 0.028066 -0.67111 0.46219 -0.10897 0.25765 -0.35159 0.17089 -0.50423 0.090504 0.33664 -0.30537 -0.51215 0.087544 0.30085 0.29439 0.095842 0.62873 0.092965 -0.11307 -0.19842 0.16056 -0.011737 -0.50033 0.24047 0.1444 -0.14503 0.11097 0.46836 0.080866 -0.29859 0.47016 -0.28653 -0.12001 0.19926 -0.20584 0.31772 -1.0488 0.10843 0.24511 0.14785 -0.069218 -0.29997 -0.51618 0.20969 0.3077 -0.49416 0.10856 0.10753 -0.19227 -0.159 -0.22498 -0.11878 0.44554 0.48459 0.03492 -0.52106 -0.32733 -0.16782 -0.20219 -0.22649 -0.16157 0.37071 -0.15463 -0.16902 0.42994 0.25351 -0.10675 0.0052631 0.11732 -0.15934 -0.36045 0.059498 -0.1789 -0.096521 0.047768 -0.34989 -0.018084 -0.35243 -0.42865 0.33665 -0.1479 0.20444 -0.18828 0.09695 0.060626 0.18421 0.11803 0.4678 -0.52403 0.11237 0.040953 -0.024336 0.35685 0.16156 -0.50217 -0.46833 0.36088 -0.30152 -0.014621 0.0081357 0.015455 -0.21852 0.31478 -0.53834 0.484 -0.39965 0.5833 0.1142 -0.07649 -0.11562 0.70753 -0.085298 0.034259 -0.14942 -0.15755 0.32009 -0.17259 -0.17068 -0.23149 0.21472 -0.43522 -0.20609 0.069808 0.14749 -0.0015835 0.035553 0.15844 -0.34049 -0.17851 -0.1578 0.10742 0.0059028 0.12569 0.20623 -0.063276 0.070917 -0.53151 -0.0010363 -0.13392 0.80103 -0.26795 0.22536 -0.45802 0.26909 -0.19464 0.024916 0.059048 -0.16783 0.24177 0.17591 0.4868 0.10809 -0.37167 -0.16278 -0.25288 0.46905 0.33033 0.81483 -0.1001 0.088193 0.13911 -0.24686 -0.06056 -0.38621 -0.34085 -0.11364 0.24287 -0.18383 -0.1551 -0.46308 -0.13049 -0.10013 -0.04288 -0.32033 -0.28248 0.073327 0.16763 0.17824 -0.3559 0.077862 0.16314 -0.35745 0.069973 -0.339 -0.40099 0.83946 0.15259 -0.25719 0.036902 0.18116 -0.015631 -0.072468 -0.19918 0.19222 -0.56657 -0.422
lot -0.33355 0.49611 -0.27858 -0.20506 0.060868 0.36219 0.055708 -0.26858 0.19418 2.4102 -0.1374 -0.0039335 -0.062856 -0.030419 -0.48369 -0.10061 -0.15753 1.008 -0.28801 0.022219 -0.16155 0.088345 0.024689 -0.21105 -0.010158 -0.23615 0.3337 0.10458 0.18377 -0.029969 -0.020267 0.044483 -0.095139 -0.49444 0.12493 -0.13943 0.29818 0.2931 -0.13534 -0.091974 -0.24596 0.17668 -0.02134 0.082578 0.069658 0.3083 0.10623 -0.1924 -0.11606 -0.049011 -0.42348 0.24769 0.28189 0.10741 0.086726 -0.30133 -0.15233 -0.1768 0.24868 -0.065243 -0.16543 -0.32022 -0.62517 0.51593 0.035365 -0.18812 0.15681 0.22917 -0.065665 0.036914 0.18434 -0.068198 0.34766 -0.026381 0.36707 0.064139 0.3906 0.16122 0.12151 0.21346 0.18902 -0.1534 0.16616 -0.23152 -0.29595 0.024987 -0.0801 -0.022188 0.51489 -0.020867 0.08594 -0.26578 -0.45969 0.25233 0.26321 0.28895 -0.12653 0.16708 -0.1794 -0.015907 -0.56346 -0.078087 -0.14067 -0.19848 0.7929 -0.90816 0.30528 0.095038 -0.17883 0.021488 0.35597 -0.4785 0.12447 -0.26675 -0.11365 0.13627 -0.28853 -0.023255 0.061261 -0.32156 0.42849 -0.44117 -0.29358 -0.10712 0.55027 -0.11268 -0.0033883 0.20357 -0.14977 -0.17515 -0.34922 0.084914 -0.0098243 -0.36033 -0.077617 -0.028615 -0.0099705 -0.11325 0.099165 0.032609 -1.8852 0.43394 0.24373 0.3342 -0.066911 -0.22639 -0.38126 -0.050618 -0.032589 -0.16153 -0.11164 0.18455 0.35149 -0.14208 -0.28523 -0.26175 0.30964 0.014867 0.16756 -0.58644 -0.078788 -0.087538 -0.024387 -0.10941 -0.16767 -0.16368 -0.23762 0.14273 0.4707 -0.22918 -0.12802 0.047004 -0.014506 0.11203 -0.036718 -0.011387 -0.41809 0.46348 0.1465 0.044775 0.29911 -0.041217 -0.21557 0.094903 -0.20486 -0.29424 -0.053723 -0.31775 0.12587 0.47755 0.28757 0.013551 0.056441 -0.069067 0.070738 -0.058923 0.011318 0.021257 -0.19262 0.16365 0.11888 -0.13006 0.010228 -0.18261 -0.74733 0.31832 -0.013441 -0.46336 0.13703 0.1644 -0.1671 -0.19244 0.42014 -0.69965 -0.15621 0.14011 -0.016616 -0.38627 -0.07575 0.25553 0.055594 0.0037242 0.21203 -0.044181 -0.063948 0.092114 -0.22168 0.037043 -0.035804 -0.037763 0.090152 0.089827 -0.072716 -0.12656 0.37679 0.069484 0.63979 0.034585 0.18984 0.26821 0.17729 0.3976 -0.13643 0.39367 0.43105 0.028093 -0.41677 -0.23789 -0.011742 0.19135 -0.067687 -0.090378 0.29572 0.39146 0.13509 0.18621 0.12315 -0.056707 0.001884 0.43136 0.047096 0.1898 -0.24463 0.37556 0.19216 -0.055826 0.069369 0.013434 0.21119 0.094043 -0.080007 0.40379 -0.19006 -0.97488 -0.10038 -0.13342 0.024097 -0.17107 -0.1231 0.21573 -0.083656 0.088146 0.03193 -0.012684 0.033343 -0.068103 0.033957 -0.42476 -0.18707 -0.26205 -0.60215 -0.135 0.12724 0.17424 0.23042 0.40913 -0.2178 -0.48043 0.063816 0.2062
of 0.060216 0.21799 -0.04249 -0.38618 -0.15388 0.034635 0.22243 0.21718 0.0068483 2.4375 -0.27418 0.13572 0.31086 -0.063206 0.00038225 -0.18597 -0.19333 1.4447 -0.38541 -0.28549 0.075627 -0.036799 -0.46068 -0.016835 0.19821 -0.092746 0.18954 -0.00032648 -0.17081 0.50359 0.46256 0.26901 -0.12256 0.24713 0.069305 -0.20777 -0.4456 0.30223 -0.0098344 0.32772 0.11038 0.41271 -0.15854 -0.056983 0.38918 -0.21158 -0.13307 0.40406 0.1749 0.053949 0.10984 -0.18476 -0.054014 0.040112 -0.10175 0.12662 0.069709 -0.24071 -0.20995 -0.051381 0.28219 0.18598 -0.5018 0.27572 -0.18497 -0.18399 0.15696 -0.038444 -0.52238 0.22753 0.048672 -0.078837 0.065448 0.18399 0.40211 -0.12745 -0.12302 0.31072 0.099588 0.036047 -0.25946 0.36128 0.12748 -0.18667 0.16502 -0.3912 -0.67549 0.11291 0.040743 0.034973 -0.04091 -0.039791 -0.40544 -0.015867 0.10239 0.046868 -0.082776 0.015132 -0.14899 -0.25125 0.25244 -0.11851 -0.34127 0.016516 0.30405 -0.541 0.305 0.39065 0.42362 -0.41721 -0.054247 -0.26014 -0.14048 -0.14166 -0.02105 0.050822 -0.078053 0.45922 0.17598 -0.0157 0.09118 0.034263 -0.49995 0.028574 0.12068 0.19781 -0.013025 -0.22418 0.12503 0.14653 -0.23085 0.21987 -0.059321 -0.088169 -0.1252 0.0075112 -0.22421 0.6214 0.2009 -0.02899 -0.65073 0.0053506 -0.12073 0.20988 -0.1684 0.041826 0.054582 0.35247 0.2006 0.031903 -0.053307 -0.44009 0.22495 -0.30616 -0.32855 -0.015779 -0.13913 0.34309 -0.13569 -0.22276 0.14295 0.05501 -0.10616 0.23597 -0.20701 -0.30963 0.13528 -0.16144 0.29108 0.12301 0.2365 -0.26153 0.31022 0.20612 -0.19885 0.10971 -0.0018054 0.14621 0.15177 -0.4468 0.0067433 -0.028784 0.13821 -0.16566 -0.45517 0.016623 0.10703 -0.48399 0.040033 0.049625 -0.26454 -0.1468 0.13651 0.15261 0.067522 0.50405 -0.18848 0.15256 -0.26997 0.055578 0.047077 -0.17848 -0.33567 -0.03148 0.19107 0.18818 0.18778 0.18313 -0.364 -0.0054127 -0.15763 0.16386 -0.084828 -0.19838 -0.40454 0.41031 -0.41393 0.029771 0.10544 -0.11295 -0.068076 -0.22372 -0.19084 -0.080269 -0.38345 0.064712 0.23111 0.21408 0.28038 0.14221 -0.20696 0.015874 -0.14112 0.089859 -0.21533 -0.020105 0.22703 0.083425 -0.2958 0.018036 0.19885 0.17794 0.13688 -0.10302 0.029651 0.051271 -0.14787 -0.41824 0.019828 -0.26385 -0.074654 -0.015718 0.48094 0.12492 -0.11409 0.58127 0.095836 -0.095912 -0.057435 0.13883 0.10307 0.081362 -0.4669 0.50705 0.021685 -0.071623 -0.063827 -0.11154 0.61792 -0.56329 0.023565 0.18041 -0.2578 -0.50956 0.14737 -0.033317 -0.037053 0.24062 0.12641 -0.027091 0.4039 -0.02836 -0.022235 -0.11493 -0.2285 -0.05746 0.2952 -0.21914 -0.13307 -0.23647 -0.42484 0.11606 0.0048131 -0.39629 -0.26823 0.3292 -0.17597 0.11709 -0.16692 -0.094085
time 0.17243 0.27502 0.050863 -0.19605 -0.23852 0.040335 -0.1264 -0.20701 0.087383 2.735 -0.086626 0.27032 -0.099712 0.010985 -0.203 -0.15581 -0.12487 1.1986 -0.15754 0.18867 0.22225 -0.29338 -0.39269 -0.16084 -0.12356 0.38701 0.10182 -0.15882 0.11238 0.028225 0.062686 -0.17368 0.16705 -0.10994 0.15207 -0.029572 0.20072 0.012001 -0.12187 -0.014075 -0.10747 0.17191 -0.2516 0.099234 -0.27534 0.10117 -0.14644 0.032097 0.10249 -0.10523 0.24879 -0.090796 0.004263 0.056408 -0.042069 0.23974 0.30933 -0.37577 0.52012 -0.30038 -0.041821 -0.062173 -0.27368 0.1507 0.0098212 -0.0527 0.052737 0.50247 -0.080025 0.034139 0.38043 -0.0030548 -0.18367 -0.089084 0.29219 0.31499 0.43654 0.057022 -0.32637 0.21159 0.27853 0.22466 -0.10949 0.016663 -0.044003 -0.23162 0.061281 -0.1442 0.41897 0.29507 -0.13216 0.11501 -0.28397 0.32256 -0.093512 -0.26951 0.038164 -0.18583 0.053712 0.08693 0.11702 -0.1306 0.067582 0.081633 -0.029165 -0.91449 0.3578 -0.24133 0.18646 0.19978 0.057813 -0.15077 0.12826 0.44684 0.2059 -0.47529 0.14129 0.036948 0.014422 0.054413 0.11503 -0.2977 -0.097857 0.24522 0.13807 -0.035571 -0.25579 -0.028805 -0.016129 0.18361 0.1501 0.057538 0.11683 -0.0054178 0.0078231 -0.22456 0.096165 0.39262 0.13669 0.17535 -1.537 -0.018544 0.36525 -0.079218 0.1705 0.044704 -0.22706 -0.0084958 -0.13773 0.083529 -0.075714 -0.094672 -0.011104 -0.13624 -0.38476 -0.060479 0.30963 0.21506 0.23706 -0.064785 -0.57017 0.060539 0.27412 -0.27012 -0.015598 -0.13907 0.3321 0.1898 0.11929 0.067145 0.16212 -0.22464 -0.054885 -0.17898 -0.22342 0.3935 0.02173 -0.28557 -0.23229 -0.02955 0.21592 -0.1843 -0.35346 0.30243 -0.17431 0.18362 -0.39799 -0.14565 0.21533 0.018933 -0.23514 0.024382 -0.052972 0.024911 0.088501 0.31608 0.19865 -0.12622 0.0063264 0.37251 0.063211 -0.093083 -0.069431 -0.074062 0.24129 -0.065526 0.19241 -0.061064 0.26052 0.46701 0.14327 -0.23389 0.026402 -0.28058 -0.030587 0.13656 0.24871 0.16708 -0.14069 0.28234 0.29547 -0.26179 -0.16703 0.098697 -0.31812 0.27388 0.079398 0.42284 0.20793 0.0090456 0.33145 0.24364 0.30464 0.21653 -0.23547 -0.079317 -0.35938 -0.35989 -0.49436 -0.24101 0.23108 -0.014531 0.025133 0.28397 -0.023949 -0.25134 -0.44468 0.28519 0.065565 0.1458 -0.25828 -0.080246 -0.19291 0.018211 0.16356 0.54072 0.011569 -0.18567 -0.21032 0.30484 0.24349 0.51112 -0.15039 0.17612 -0.099418 -0.12266 -0.0035601 0.23827 0.59037 0.091921 0.11069 -0.17388 -0.15578 -0.49335 -0.34958 0.13827 -0.15696 0.062946 0.21436 0.48415 0.20513 -0.16474 -0.24305 0.13807 0.095766 -0.2275 0.42653 -0.43899 0.031659 0.30576 -0.10329 0.024095 -0.21721 -0.082729 0.21785 -0.067727 -0.31506 0.12288 -0.28577 0.0093706
my 0.08649 0.14503 -0.4902 0.34224 0.36343 0.10046 -0.14904 -0.28116 -0.055426 2.2254 -0.52802 0.17555 0.44629 -0.25423 -0.23005 0.28273 -0.32839 1.1809 -0.20102 0.4055 0.077948 -0.030626 -0.25645 0.20382 0.14024 -0.090318 -0.18409 -0.083644 0.025134 0.2383 0.13716 0.79497 -0.25215 0.19113 -0.34871 0.083896 0.092502 -0.12733 0.032554 -0.19932 -0.1367 0.023516 -0.28336 0.088996 0.18914 0.41926 -0.014874 -0.062269 0.40566 -0.14701 -0.15678 -0.096457 -0.31084 -0.067936 -0.12819 0.14578 -0.34727 -0.25544 0.22988 -0.14723 -0.1626 -0.29338 0.1139 0.39083 0.3509 -0.44009 0.084594 -0.083368 0.0027849 0.16447 0.064108 -0.031757 0.1357 0.3427 0.50767 0.77693 0.35623 0.072142 -0.61138 0.37191 -0.2798 0.22835 -0.035723 -0.23143 0.49318 -0.044043 -0.011046 -0.21924 0.71074 0.050794 -0.36026 -0.0091583 -0.11536 0.092753 0.031429 0.27683 0.50595 0.36222 -0.033055 0.24026 -0.069162 -0.47922 0.35508 -0.33765 -0.053376 -0.65572 0.39915 0.21376 0.18487 -0.027262 0.0091414 -0.23223 0.47445 -0.13179 -0.060741 -0.23167 -0.017494 -0.03885 0.35665 0.046188 0.38138 -0.0036873 0.16731 0.27127 0.2593 0.12048 -0.48027 0.0077689 -0.2606 0.012633 -0.046985 -0.18704 -0.47608 0.17892 0.20222 -0.060604 0.088039 0.53526 -0.29017 -0.060916 -2.5379 -0.057191 0.14339 0.27595 -0.24508 0.080092 -0.44492 0.28164 -0.33106 0.071944 0.043065 0.37418 0.14159 0.16011 -0.12499 -0.14465 -0.29438 0.051042 -0.1355 -0.51608 -0.31395 0.12282 0.19997 -0.1533 -0.46413 -0.25383 0.23725 -0.021874 0.51442 -0.047907 -0.37151 -0.40656 0.38027 -0.17518 -0.15489 0.091234 -0.1343 -0.16683 0.030004 0.33897 0.062509 -0.60273 -0.19033 0.13567 0.34305 0.029398 -0.45813 0.0041065 -0.12293 -0.12666 -0.20712 -0.23175 -0.47678 -0.42805 -0.054709 0.41625 0.10676 -0.36688 0.034666 -0.27485 -0.42733 0.12676 -0.51287 0.1972 0.19663 0.27434 0.25009 -0.074376 -0.10448 -0.14711 -0.095771 -0.35318 0.057833 -0.2138 -0.45816 0.24816 -0.10105 -0.5087 -0.10283 0.16835 -0.25036 -0.38801 -0.35996 0.16515 -0.19304 -0.16706 0.36214 0.25747 -0.061679 -0.12361 -0.29841 0.049856 -0.096679 0.38874 0.037161 -0.40996 -0.074966 0.052772 0.124 0.016428 -0.12314 0.13512 -0.041549 0.35705 0.28947 -0.46466 0.26842 -0.31215 -0.13293 0.32366 -0.027691 -0.4778 -0.1642 0.27262 0.31678 0.3146 -0.1857 -0.080949 0.021375 0.14424 -0.35131 0.11003 0.20629 -0.10193 0.053866 -0.085467 -0.16267 0.26481 -0.33423 -0.27493 0.5915 0.039267 -0.47258 -0.3782 -0.027735 0.073521 -0.26992 -0.2797 -0.023378 0.17129 0.0083092 -0.084584 -0.058957 -0.27106 -0.01944 -0.24969 0.3339 -0.064696 -0.091844 -0.069012 -0.28522 0.0050941 0.40863 0.26674 0.18675 -0.14811 0.47236 0.25909 -0.18599 0.0085633
options 0.31185 0.097378 -0.022329 -0.21917 0.33083 -0.24277 -0.1968 -0.43379 -0.15199 1.5295 -0.45783 0.32292 0.30672 0.021591 0.020634 -0.3559 -0.24759 2.4037 -0.33401 -0.10619 -1.0729 -0.0087732 -0.24339 -0.25925 -0.068178 0.36772 0.34195 -0.0024606 0.1452 -0.30143 0.225 -0.36844 0.45918 -0.24565 0.09439 -0.25165 0.057051 -0.20483 -0.15793 0.24678 -0.20452 -0.17527 0.067219 -0.081441 -0.56784 0.56645 -0.17662 0.3228 0.073036 -0.10421 -0.34067 -0.22256 -0.056336 0.05727 0.094554 0.1763 -0.39211 -0.47035 -0.21155 -0.19728 0.37684 -0.61154 -0.13997 0.099912 0.37087 -0.058166 -0.26864 0.0031825 0.10329 -0.037331 0.4885 0.040433 0.34214 -0.069267 0.14057 -0.042706 0.26489 -0.0075916 0.083251 -0.05272 -0.63329 -0.17911 0.1912 0.23512 -0.1165 0.60102 -0.32064 0.89072 0.63521 -0.3435 0.24933 0.14626 0.15449 0.083688 0.10684 0.080375 -0.071277 0.29787 0.12203 0.21305 -0.13921 -0.12364 0.080942 0.22342 0.40061 -1.0744 0.11655 0.26725 -0.095956 0.24393 -0.44884 -0.4234 0.40642 -0.014966 0.026039 -0.081146 0.27473 0.041869 -0.17935 0.14702 0.11128 -0.19466 0.11403 0.17783 0.055224 -0.55965 0.26182 0.018818 0.30381 -0.11964 0.17122 0.21306 -0.046635 -0.24334 -0.14107 0.023578 -0.32303 -0.058311 -0.020256 0.0047198 -0.32322 0.23986 -0.11176 -0.12828 -0.081784 -0.29822 0.44469 0.03968 -0.21511 -0.076548 -0.11549 -0.22287 -0.034717 -0.32557 0.072474 -0.14973 0.12482 0.2675 0.22729 0.071719 -0.32531 0.032418 -0.57626 -0.83769 -0.058507 -0.54564 0.47378 0.010022 0.31607 -0.54645 -0.26045 0.26699 -0.043396 -0.13939 0.31563 -0.088931 0.31152 -0.32776 0.39995 0.40303 0.0066881 -0.49857 -0.14694 0.11153 -0.6002 -0.20656 0.15271 -0.38273 -0.64534 0.25742 -0.019122 0.40011 0.0097388 -0.17748 -0.21933 -0.020364 -0.22197 0.48433 0.13906 0.79052 0.076872 -0.47275 -0.1301 -0.41431 -0.075996 0.14178 0.14663 0.040534 -0.45328 0.46562 -0.11819 0.2012 0.053205 -0.38315 0.21204 -0.47107 0.050901 0.68286 -0.38792 -0.10558 -0.42438 0.10425 -0.36921 0.0599 0.27035 -0.28756 -0.23425 0.048229 -0.12088 -0.0020745 -0.30691 -0.32297 0.86012 0.15721 -0.20416 0.043362 0.13748 -0.071381 -0.11673 0.5326 0.28182 0.14258 -0.21056 -0.14711 0.61199 0.11537 -0.32103 -0.032236 -0.22485 0.12801 0.11688 -0.34886 -0.15334 0.26127 -0.060979 0.66268 -0.29283 -0.063961 -0.22679 0.0030201 -0.16411 -0.22997 0.23171 -0.14427 0.048057 -0.17997 -0.23877 -0.10611 0.70278 -0.010693 -0.40474 0.25669 0.44779 -0.18461 -0.032674 0.17128 0.90984 0.5276 0.53797 0.04666 0.16044 -0.20245 -0.021708 0.062818 0.49759 -0.31483 0.039353 0.35859 0.1382 0.18468 -0.26308 0.24801 -0.35582 -0.15999 0.09548 -0.45989 -0.41678 -0.41831 0.41805 0.076162
and -0.18567 0.066008 -0.25209 -0.11725 0.26513 0.064908 0.12291 -0.093979 0.024321 2.4926 -0.017916 -0.071218 -0.24782 -0.26237 -0.2246 -0.21961 -0.12927 1.0867 -0.66072 -0.031617 -0.057328 0.056903 -0.27939 -0.39825 0.14251 -0.085146 -0.14779 0.055067 -0.0028687 -0.20917 -0.070735 0.22577 -0.15881 -0.10395 0.09711 -0.56251 -0.32929 -0.20853 0.0098711 0.049777 0.0014883 0.15884 0.042771 -0.0026956 -0.02462 -0.19213 -0.22556 0.10838 0.090086 -0.13291 0.32559 -0.17038 -0.1099 -0.23986 -0.024289 0.014656 -0.237 0.084828 -0.35982 -0.076746 0.048909 0.11431 -0.21013 0.24765 -0.017531 -0.14028 0.046191 0.22972 0.1175 0.12724 0.012992 0.4587 0.41085 0.039106 0.15713 -0.18376 0.26834 0.056662 0.16844 -0.053788 -0.091892 0.11193 -0.08681 -0.13324 0.15062 -0.31733 -0.22078 0.25038 0.34131 0.36419 -0.089514 -0.22193 0.24471 0.040091 0.47798 -0.029996 0.0019212 0.063511 -0.20417 -0.26478 0.20649 0.015573 -0.27722 -0.18861 -0.10289 -0.49773 0.14986 -0.010877 0.25085 -0.28117 0.18966 -0.065879 0.094753 -0.15338 -0.055071 -0.36747 0.24993 0.096527 0.23538 0.18405 0.052859 0.22967 0.12582 0.15536 -0.17275 0.33946 -0.10049 0.074948 -0.093575 -0.04049 -0.016922 -0.0058039 -0.18108 0.19537 0.45178 0.10965 0.2337 -0.09905 -0.078633 0.21678 -0.71231 -0.099759 0.33333 -0.1646 -0.091688 0.21056 0.023669 0.028922 0.1199 -0.12512 -0.026037 -0.062217 0.55816 0.0050273 -0.30888 0.038611 0.17568 -0.11163 -0.10815 -0.19444 0.29433 0.14519 -0.042878 0.18534 0.018891 -0.61883 0.13352 0.036007 0.33995 0.22109 -0.079328 0.071319 0.17678 0.16378 -0.23142 -0.1434 -0.098122 -0.019286 0.2356 -0.34013 -0.061007 -0.23208 -0.31152 0.10063 -0.15957 0.20183 -0.016345 -0.12303 0.022667 -0.20986 -0.20127 -0.087883 0.064731 0.10195 -0.1786 0.33056 0.21407 -0.32165 -0.17106 0.19407 -0.38618 -0.2148 -0.052254 0.023175 0.47389 0.18612 0.12711 0.20855 -0.10256 -0.12016 -0.40488 0.029695 -0.027419 -0.0085227 -0.11415 0.081134 -0.17228 0.19142 0.026514 0.043789 -0.12399 0.13354 0.10112 0.081682 -0.15085 0.0075806 -0.18971 0.24669 0.22491 0.35553 -0.3277 -0.21821 0.1402 0.28604 0.055226 -0.086544 0.02111 -0.19236 0.074245 0.076782 0.00081666 0.034097 -0.57719 0.10657 0.28134 -0.11964 -0.68281 -0.32893 -0.24442 -0.025847 0.0091273 0.2025 -0.050959 -0.11042 0.010962 0.076773 0.40048 -0.40739 -0.44773 0.31954 -0.036326 -0.012789 -0.17282 0.1476 0.2356 0.080642 -0.36528 -0.0083443 0.6239 -0.24379 0.019917 -0.28803 -0.010494 0.038412 -0.11718 -0.072462 0.16381 0.38488 -0.029783 0.23444 0.4532 0.14815 -0.027021 -0.073181 -0.1147 -0.0054545 0.47796 0.090912 0.094489 -0.36882 -0.59396 -0.097729 0.20072 0.17055 -0.0047356 -0.039709 0.32498 -0.023452 0.12302 0.3312
figured -0.14548 0.24687 -0.47623 -0.064741 -0.5447 0.46803 -0.053154 -0.19681 0.068972 2.1743 0.076989 0.11594 0.51206 -0.081371 -0.15303 -0.18112 0.10812 0.37452 0.084916 -0.077837 -0.022149 0.19831 -0.094547 0.11984 -0.4117 -0.046285 0.0468 -0.39699 0.18539 -0.47634 -0.29723 0.22133 0.30048 -0.035629 0.047794 0.095966 0.21618 0.37598 -0.22515 -0.22818 -0.34142 0.18797 0.033464 -0.067762 0.23237 -0.0061049 -0.088794 -0.19888 0.22157 -0.16129 -0.20748 0.0088618 0.044683 0.061201 -0.029228 -0.29351 0.091586 -0.21751 0.27706 0.098932 -0.22523 -0.43907 -0.17035 0.11015 -0.064874 -0.35641 -0.089936 -0.14466 0.25601 0.25299 0.3724 0.40825 0.38563 -0.082516 0.28594 0.26754 0.30589 -0.21935 -0.49323 0.40951 -0.13746 -0.1986 -0.036099 -0.03661 0.099648 -0.0014081 0.46482 -0.13531 0.48992 0.13567 0.15457 -0.078704 -0.43443 0.32939 0.32125 0.046215 0.13771 -0.21859 0.11912 0.56075 -0.20945 -0.13809 0.21156 0.008604 0.14545 -0.87502 0.11576 -0.35338 -0.15681 0.22815 -0.032452 -0.19947 0.16528 -0.15018 -0.18683 0.17104 -0.13427 -0.35372 -0.10423 -0.020245 0.38091 -0.52066 0.29195 0.077597 0.38659 0.094648 -0.084434 -0.11147 0.004867 -0.18851 -0.18518 0.37116 -0.2376 0.56541 0.086481 -0.095096 -0.11753 -0.15666 -0.49548 -0.068331 -2.133 0.18773 -0.067646 0.064063 -0.018168 -0.17865 -0.52086 0.1093 -0.023 0.16125 -0.030131 -0.32251 -0.24681 -0.26335 -0.044362 -0.056498 0.36858 -0.13885 0.13938 0.3011 -0.27607 0.19852 -0.22448 -0.032527 -0.22762 -0.16928 -0.08896 0.10103 -0.072263 0.065426 -0.29931 -0.096439 -0.11039 -0.19753 -0.45041 -0.10205 -0.22068 -0.30613 0.07541 -0.48486 -0.055122 -0.097759 -0.5342 0.038723 0.16447 -0.015405 -0.0075984 -0.18349 -0.1302 0.39887 0.44423 0.2151 -0.39212 0.13939 0.21194 -0.26166 0.013761 0.20601 0.076173 0.19501 -0.14521 -0.24423 -0.23169 0.048439 -0.17743 0.0069538 -0.087162 -0.024658 0.37693 0.093814 -0.078835 -0.052895 -0.23001 0.16609 0.041432 0.08753 -0.17781 -0.10659 -0.15651 -0.13532 0.35715 -0.10137 0.018048 -0.14877 0.10121 -0.050239 0.0080288 0.22734 -0.081834 0.17917 0.0075107 -0.046534 0.029634 0.14397 0.12833 -0.099627 0.15449 -0.007228 0.11175 0.38494 -0.13012 -0.15763 0.025851 0.44321 -0.051009 0.0020884 -0.03851 0.21035 0.063278 0.60228 -0.12078 -0.32698 -0.22061 0.15024 -0.071982 -0.45242 -0.22605 0.060697 -0.13148 -0.018187 0.40105 0.12559 -0.17345 -0.083853 0.096836 0.27392 -0.29404 -0.092419 0.055541 0.39681 0.13401 0.20328 0.080639 -0.26658 -0.51219 -0.22154 -0.036564 -0.048203 -0.11612 0.018842 0.17379 -0.10642 0.017723 -0.18512 0.033155 -0.11989 -0.12691 -0.12087 -0.25147 0.37639 -0.10992 -0.21783 0.060615 0.34777 0.31213 -0.28317 -0.34081 0.15859 0.13399 0.02015
this -0.087595 0.35502 0.063868 0.29292 -0.23635 -0.062773 -0.16105 -0.22842 0.041587 2.4844 -0.38217 0.032806 0.12348 -0.0018422 -0.13848 -0.0010005 -0.043081 1.1659 -0.047327 -0.056004 0.15617 -0.13394 0.23229 0.087602 -0.32329 0.16721 -0.16221 -0.091919 -0.38004 0.12686 0.067819 0.32509 -0.057245 -0.3263 -0.11903 -0.00063964 -0.0059275 -0.29934 -0.085043 -0.26683 -0.15815 0.25963 0.22571 0.062582 -0.19394 0.21922 -0.31186 0.37084 -0.36577 -0.052483 -0.43101 0.12379 0.015529 -0.12505 0.22327 0.29365 -0.0085104 -0.083909 0.24078 -0.34913 -0.28355 -0.076594 -0.1713 0.32869 0.29024 -0.062741 -0.055278 -0.28706 0.079608 0.13234 0.47857 0.19623 0.27314 -0.13089 0.2763 -0.088846 -0.12379 0.073987 -0.51962 0.35227 -0.029182 0.16203 -0.036908 0.28035 0.31739 -0.27597 -0.43637 -0.32842 0.3676 -0.16278 -0.16278 0.37066 -0.1134 0.3092 0.26133 0.39483 -0.074612 -0.22158 0.25172 0.2999 0.10566 -0.11406 -0.35395 0.066704 0.050216 -0.71479 0.098646 -0.058832 -0.004779 -0.2392 0.10179 -0.27205 0.16836 0.2342 -0.37496 0.31125 -0.3112 0.21778 0.30323 -0.11729 -0.054639 -0.15356 0.051771 -0.11426 0.022473 0.044405 -0.32101 -0.27799 0.24675 -0.1176 -0.015964 -0.40969 -0.26082 0.16021 0.061166 -0.0031131 -0.30573 -0.041686 0.23524 -0.058415 -1.6003 0.10126 0.12116 0.015319 -0.11945 -0.39095 -0.19919 0.04393 0.22886 -0.053961 -0.02657 0.11952 0.18446 -0.069963 0.36429 -0.023679 -0.45081 -0.037263 -0.13243 -0.11009 -0.15201 0.12182 -0.093379 0.10215 -0.34126 -0.07815 0.027685 -0.0048772 0.27281 -0.11304 0.01247 0.27008 0.38885 -0.23909 -0.16375 0.019977 -0.10628 0.055798 0.14127 0.46536 -0.33169 0.18308 0.29646 0.023906 0.32799 -0.53632 -0.46895 -0.017593 0.0046805 -0.096152 -0.12695 0.064099 -0.29787 0.37799 0.44469 0.12248 0.076388 -0.18102 -0.011795 0.4009 -0.36967 -0.24106 -0.42252 0.21378 0.40977 0.13013 -0.033478 0.0093179 0.29553 0.068702 -0.14949 0.10473 0.3886 -0.37063 -0.068934 0.42111 0.10861 0.18585 -0.11387 0.2037 0.094214 -0.21426 -0.19376 0.12261 0.13971 -0.54205 -0.24502 0.47454 -0.05938 -0.12865 -0.17345 0.37465 -0.072616 0.31124 -0.00033315 -0.0031445 0.0011435 -0.080773 -0.052824 0.26108 0.24586 -0.058762 -0.021999 0.1406 0.36004 -0.081521 -0.028828 0.23878 -0.12243 0.18758 0.069072 -0.068685 0.12377 0.031713 -0.1153 0.38205 0.48575 -0.16466 0.11033 0.13873 0.32145 0.028014 -0.05476 -0.19438 -0.015438 -0.056435 0.023037 0.42915 0.5908 0.096298 0.12788 0.15916 -0.072056 -0.21036 0.057346 0.045768 0.1573 0.31019 -0.042692 0.017531 0.029585 -0.042749 -0.10006 -0.31611 -0.0045054 -0.13689 0.40798 -0.065866 0.20162 -0.07966 -0.039495 0.093723 0.093557 -0.097551 0.30639 -0.27325 -0.33112 0.03446 -0.15027 0.40673
one 0.054071 0.1111 -0.14557 -0.024294 0.3811 -0.14389 -0.17998 -0.31079 -0.007969 2.6538 -0.12772 0.023885 0.071284 -0.14264 0.10939 -0.10667 -0.038178 1.1853 0.052559 -0.17181 -0.18629 -0.016533 -0.084008 0.14542 0.16059 -0.069163 -0.076812 -0.20658 0.16025 0.21405 0.059209 0.47891 0.083374 0.19994 0.096225 -0.10033 0.042577 -0.093587 -0.13389 -0.32704 0.02365 0.34064 -0.075976 -0.1015 0.12431 -0.055954 -0.25284 -0.01852 0.046912 -0.084774 -0.15884 0.23751 0.076109 0.071753 0.031405 0.032656 0.11271 0.27839 0.35233 -0.10844 0.070183 -0.046891 -0.18825 0.40518 0.2118 -0.14376 -0.0048075 0.13877 -0.091521 0.25194 0.17998 -0.159 0.14753 0.11866 -0.15447 0.10969 0.057966 -0.25862 -0.023764 0.19064 -0.034365 0.09088 -0.29016 -0.13003 0.028666 -0.20623 -0.28586 -0.22934 0.15382 -0.20373 -0.2535 0.20703 -0.086 -0.084409 -0.12904 0.059437 0.085175 -0.041774 0.08607 0.078259 -0.06694 -0.022128 -0.0097204 -0.024601 0.0077635 -0.9597 0.04445 0.061008 -0.12404 0.075514 0.37011 -0.17903 -0.073509 0.17854 -0.10738 0.05576 -0.3565 0.41038 -0.1773 0.10413 0.070496 -0.40687 0.26068 -0.023406 -0.041537 0.090448 -0.33967 -0.36952 -0.019355 0.11835 -0.15966 0.011182 0.023317 0.023929 0.074658 -0.0066614 0.13711 0.031078 0.18448 -0.083872 -1.6817 0.225 0.17538 0.31784 -0.052595 -0.084312 -0.13629 -0.074823 0.039641 -0.13645 -0.14008 0.095744 0.0046472 0.086625 0.052288 -0.0057616 -0.20944 0.074924 -0.18494 -0.12465 -0.060265 0.031429 0.058216 -0.10552 0.017755 -0.24728 -0.037765 -0.00016246 0.11723 0.099054 -0.0062556 -0.28509 0.17956 -0.13748 -0.42976 0.044895 -0.17917 -0.083175 -0.07214 -0.11763 0.17213 0.026727 -0.13591 -0.20115 -0.23381 0.022689 -0.084114 -0.21102 -0.11765 -0.023708 -0.16021 0.061171 -0.068588 0.22241 0.31944 -0.067243 -0.24478 -0.050601 -0.068996 -0.095617 -0.17759 -0.16193 -0.19167 -0.052516 0.27398 0.012593 -0.014691 -0.15302 0.025296 0.24122 -0.1528 0.087798 -0.37799 -0.37299 -0.1134 0.11766 -0.16729 0.056089 -0.16158 -0.046461 -0.19236 -0.10562 0.13405 0.2504 0.16388 -0.29802 0.19515 0.31131 -0.26026 -0.027901 -0.14921 -0.0031797 0.097112 0.27519 -0.29357 -0.2901 0.23958 -0.020233 -0.22009 0.35379 -0.013837 0.34645 0.15853 0.43607 0.23632 -0.33509 0.092342 -0.030143 -0.21415 0.10454 0.164 -0.10189 0.024665 0.0094526 0.0051336 0.17175 0.22745 0.034427 0.062545 0.107 0.28015 -0.099735 -0.32008 -0.094804 -0.098628 0.0091675 0.28218 0.19045 0.39676 -0.099515 0.14647 -0.121 -0.06949 -0.44131 -0.0036843 0.26867 -0.011051 0.13741 0.34037 0.1222 0.25341 0.046069 -0.17136 -0.15243 -0.0065814 -0.055056 0.22568 -0.15371 0.12683 0.11332 -0.22479 -0.034352 -0.082647 -0.13485 -0.11371 -0.072454 -0.073029 -0.27098 0.044033 0.003769
probably -0.25752 0.2749 -0.249 -0.032213 0.018733 0.15519 -0.051438 -0.33186 -0.10167 2.7819 0.069115 0.093137 0.54959 0.30839 -0.17979 -0.059873 -0.16912 0.50689 0.0698 -0.19544 -0.025177 -0.010164 -0.093217 -0.11795 -0.14136 -0.065296 -0.26471 -0.3391 0.18907 -0.30437 -0.20682 0.17893 0.17994 0.0057823 -0.17513 0.14439 0.19642 0.2616 0.018558 -0.14962 -0.095306 0.36195 -0.025761 0.10683 0.31308 -0.046234 -0.16866 -0.35384 0.078037 0.1542 -0.12303 -0.015879 0.13823 -0.050171 0.17764 -0.27957 0.050456 -0.40262 0.37666 0.14813 -0.10522 -0.39452 -0.0012751 0.78825 0.062359 -0.21956 -0.20616 -0.040592 0.017019 0.23991 0.090671 0.16441 0.056015 -0.17538 0.16746 0.13294 0.057094 0.096001 -0.40516 0.35348 -0.038716 -0.17019 -0.16653 -0.084723 0.057582 -0.38072 0.33381 -0.51852 0.38391 -0.11853 -0.041842 -0.14975 -0.18096 0.052745 0.362 -0.10383 0.24302 -0.076617 0.156 0.50852 -0.31985 -0.02647 0.06597 0.11849 0.43444 -1.0628 0.011505 -0.23942 -0.058063 0.10221 0.13822 -0.36696 0.010878 0.13227 -0.1728 0.11271 0.031418 -0.26304 -0.38375 -0.087666 0.24075 -0.11137 0.046848 -0.37187 0.013495 0.22513 0.0085672 -0.45545 -0.042083 -0.15642 0.022885 0.21909 -0.0058583 0.23905 0.19632 -0.38339 -0.11936 -0.22491 -0.30643 -0.020345 -1.8267 0.36371 0.18133 0.12144 0.022137 -0.35856 -0.33005 -0.13581 0.27156 0.046026 0.017545 0.037689 0.028825 0.13223 -0.18198 -0.19668 0.20687 -0.19205 -0.048168 -0.0039622 -0.088947 0.00064659 -0.48861 -0.25432 -0.33492 -0.21759 -0.05994 0.023975 0.23942 -0.17273 -0.076822 0.19681 0.051138 -0.14226 -0.48025 0.13523 -0.093583 -0.073008 0.15018 -0.25106 0.082789 0.049875 -0.50909 -0.1658 -0.078007 -0.2187 -0.070934 -0.097025 0.039619 0.21669 0.31139 0.21035 -0.32823 0.19808 0.5021 -0.16415 -0.19146 -0.15598 0.066933 0.003901 0.23097 -0.25497 -0.003614 -0.24062 -0.04474 -0.10489 -0.0013489 -0.34282 0.15323 0.093654 0.10305 -0.067938 -0.18271 -0.52878 0.033974 -0.05561 -0.0058208 0.13688 -0.33461 -0.38002 0.42673 -0.056095 0.16446 -0.19536 0.17826 -0.15451 0.2353 0.0062981 -0.078756 0.058336 -0.22843 -0.095664 0.3509 0.14074 0.11724 -0.21443 0.43186 -0.26217 -0.1885 0.16599 -0.053518 0.054636 -0.018972 0.40033 -0.05315 -0.18301 0.075917 -0.10152 -0.23362 0.24569 0.074911 -0.4826 0.18277 0.089952 -0.071537 -0.22067 -0.18084 0.0091137 0.19205 0.1049 0.554 0.27796 0.15112 0.21297 0.18364 0.28946 -0.019878 0.15473 0.34729 0.33289 0.4069 0.028748 -0.098836 -0.53418 -0.24038 -0.22496 0.031347 -0.052125 0.023313 0.3527 0.36017 -0.0063707 0.2181 -0.16687 0.20468 -0.03527 0.1622 -0.10355 0.12853 0.15431 -0.4171 0.058024 -0.25783 0.20824 0.15883 0.37057 -0.30019 -0.20977 0.11186 -0.24453
Phone -0.1362 0.38727 -0.12856 0.27974 0.75971 -0.24243 0.35718 -0.96541 -0.28738 1.914 -0.33266 0.18974 0.21663 -0.9712 -0.39326 -0.15453 -0.54229 1.7685 0.28535 -0.075234 -0.36632 0.63784 -0.18193 0.1938 0.18403 -0.12817 -0.37799 -0.56423 0.35851 -0.059564 0.56519 -0.18486 -0.15408 -0.033699 0.50181 0.47512 -0.13689 -0.2887 0.084549 -0.013796 -0.33464 -0.10013 -0.1335 -0.36786 -0.71023 0.72849 -0.1339 -0.20285 0.26199 -0.075272 0.15221 -0.26894 -0.19495 -0.26635 0.094435 0.55778 0.042369 -0.61844 0.46474 -0.10606 -0.1594 0.2352 0.10432 0.62291 0.24465 0.1799 0.073008 0.62075 -0.18035 -0.014205 -0.29934 0.23973 0.11209 0.038899 0.087976 0.055507 0.31465 -0.69683 0.17499 1.0266 0.029438 -0.097376 -0.48979 0.032382 -0.089106 0.36988 0.4508 0.25235 0.68874 -0.38271 0.0077384 0.56292 -0.34981 -0.21533 0.17725 -0.62579 -0.11756 -0.39688 -0.41301 0.13711 0.4815 -0.26188 0.79643 0.10384 -0.21377 -0.33947 -0.1608 0.23628 0.09355 0.16772 0.24894 0.25091 0.34416 0.33368 0.61388 0.15614 0.55696 0.20096 0.070396 0.42744 -0.35557 0.16123 0.15444 -0.44269 -0.038418 -0.068453 0.47844 -0.21048 0.050742 0.070517 -0.097051 -0.32983 0.12711 0.40095 -0.27976 -0.18862 0.39339 0.22574 -0.13371 -0.057255 -1.4737 0.38019 -0.21603 -0.28518 0.22239 0.48861 -0.043251 0.137 -0.49783 0.15221 0.062092 0.25902 0.3422 0.10825 0.2154 0.46679 0.54166 -0.12055 -0.083565 -0.39899 0.28659 0.2889 0.83559 -0.554 -0.16206 -0.21452 0.18859 0.55534 -0.35346 -0.1434 -0.6305 0.39401 0.10443 0.16913 -0.2366 -0.025213 -0.084681 -0.053262 -0.99011 0.29704 0.28427 -0.3809 -0.038403 0.49098 0.48952 0.16482 0.045743 -0.14596 -0.014158 0.083539 0.33096 -0.2047 0.55477 0.54288 -1.0947 0.084148 -0.21232 -0.26077 -0.41665 -0.15318 0.14065 0.048011 -0.11436 0.51606 -0.093664 0.17319 0.01241 0.22304 0.12972 0.28372 -0.32594 -0.51607 -0.045604 -0.33182 0.78294 -0.071724 -0.78348 -0.36262 -0.91375 0.14912 0.1739 -0.62738 -0.34684 0.68601 -0.87348 -0.62038 -0.28828 -0.33228 0.37763 -0.19996 0.30345 -0.066727 0.079539 0.14721 -0.3981 0.33653 0.60968 -0.68795 0.79044 0.55453 0.096675 0.1638 0.18524 -0.22198 0.025082 -0.65638 0.27391 -0.13448 -0.083755 0.098819 -0.23699 -0.15949 -0.47897 0.081172 0.048817 0.3438 -0.37654 -0.46308 0.0026175 -0.46074 0.48099 0.44291 0.43523 -0.23318 -0.21554 0.14345 -0.17179 0.26502 0.64871 -0.24683 -0.51047 0.52303 0.6674 0.18323 -0.15823 -0.32702 -0.54619 0.10467 0.35071 -0.60871 -0.051431 0.8386 0.7779 0.51184 -0.19282 0.42832 0.33395 0.51483 -0.7102 0.33655 -0.76393 0.34445 -0.022536 0.41717 0.2524 0.32139 0.2452 0.29156 -0.56886 0.66246
came 0.13463 0.12654 0.10842 -0.069649 0.1863 -0.042208 0.094278 -0.12112 0.077798 3.0757 0.11172 0.1683 0.40474 -0.26198 -0.25836 -0.11897 -0.091826 0.015887 -0.1872 -0.062529 0.24474 -0.14792 0.16806 0.35896 -0.066047 0.022521 -0.0098054 -0.087469 -0.42818 -0.21165 -0.12227 0.07923 -0.10157 -0.051102 -0.052156 -0.0098492 -0.18072 -0.20583 -0.23173 -0.25944 -3.1884e-05 0.12318 -0.16152 -0.31388 0.41662 0.20105 -0.24324 -0.44871 0.22956 -0.039622 -0.13769 0.26519 -0.059756 0.27835 0.051992 -0.19041 0.020738 -0.10373 -0.10169 -0.061078 -0.069679 -0.15919 0.081929 0.24286 -0.21506 0.10177 0.23651 0.11058 0.30046 0.38434 -0.042734 0.31298 0.1498 0.052627 0.043405 -0.19159 0.0080529 -0.031867 -0.16194 0.17092 -0.01339 0.34249 0.073068 -0.20366 0.16082 -0.16341 -0.062805 -0.61677 -0.094404 0.40398 -0.013147 -0.12423 -0.20994 -0.010466 0.47848 -0.15519 0.43649 -0.27713 -0.076367 0.15453 -0.18835 0.027763 -0.013153 -0.20102 -0.12247 -0.3254 0.06799 0.19108 0.10719 0.035899 -0.086213 -0.30881 0.20929 -0.18867 0.1894 -0.04938 0.19234 0.22518 0.20149 0.10302 0.085296 -0.0091289 -0.035657 -0.096463 -0.14116 0.16059 0.23644 -0.066171 0.027363 -0.00081629 0.16299 0.095619 -0.19468 0.18753 0.34638 -0.2089 0.09952 0.24728 -0.12278 0.10197 -1.873 0.071961 0.42925 -0.19673 0.32951 -0.018678 -0.66643 0.12748 -0.31953 0.045522 -0.35618 -0.2993 0.30204 -0.14275 -0.18994 -0.39363 -0.14391 0.13226 0.19564 -0.075171 -0.16498 0.11502 -0.012605 -0.48327 -0.36604 -0.11715 -0.058972 -0.00045082 0.19799 -0.034859 -0.16974 0.11672 -0.24656 -0.22448 -0.65082 -0.10359 0.075021 0.030652 -0.21761 -0.61369 -0.075242 -0.41884 -0.023942 -0.066628 0.049826 -0.27827 -0.37794 -0.021807 0.16523 0.0589 0.23111 0.13563 -0.042266 0.19409 -0.019586 0.15865 -0.035655 -0.25706 -0.183 -0.053482 -0.17177 0.024373 -0.17217 0.044774 0.42126 -0.10364 0.17212 -0.2936 0.10654 0.25426 -0.022318 -0.19776 -0.098432 0.16255 0.021279 -0.14743 -0.066987 -0.15144 -0.17324 -0.064406 -0.075671 -0.29332 -0.063197 0.23602 -0.21362 0.041105 0.029937 0.10122 -0.15273 0.34689 0.07054 0.052436 -0.008836 -0.079375 0.1408 -0.29522 -0.26965 0.17654 -0.14558 0.096038 -0.43617 0.11967 0.048662 0.21891 -0.072941 -0.068693 -0.14984 -0.12845 -0.11043 0.1704 0.060721 -0.24133 -0.13602 -0.050184 0.69573 -0.22251 0.21163 0.1782 -0.36727 0.27322 0.43112 0.081204 -0.29552 -0.06155 0.29299 0.10089 0.085013 -0.047379 -0.41185 0.2301 0.56847 0.34053 -0.060718 -0.15661 -0.24184 -0.15374 -0.17442 0.059025 0.22828 0.1258 0.27098 0.072984 -0.035589 0.011024 -0.12638 -0.19537 0.21533 0.26228 -0.24603 -0.12047 -0.50636 0.095776 0.44141 0.19047 0.21675 -0.092055 0.082953 0.31643 -0.01561 -0.076428
in 0.089187 0.25792 0.26282 -0.029365 0.47187 -0.10389 -0.10013 0.08123 0.20883 2.5726 -0.67854 0.036121 0.13085 0.0012462 0.14769 0.26926 0.37144 1.3501 -0.11326 -0.23036 -0.26575 -0.18077 0.092455 -0.16215 0.15003 -0.34547 0.072295 0.40659 0.010021 -0.0079257 -0.11435 0.017008 -0.29789 0.19079 0.37112 -0.26588 0.16212 0.065469 -0.31781 -0.03226 0.081969 0.3445 -0.17362 -0.35745 0.054487 0.39941 0.13699 -0.022066 0.11025 -0.41898 0.1276 -0.095869 -0.17944 -0.17443 0.27302 -0.19464 0.26747 -0.28241 0.1638 -0.11518 0.013196 -0.10616 -0.36093 0.023634 0.13464 0.021652 -0.27094 -0.018737 0.10017 0.36071 -0.093951 0.47634 0.12874 0.0011868 0.1377 -0.14034 -0.1887 -0.16405 -0.15349 0.32347 -0.17616 0.3523 -0.023531 -0.19121 -0.054809 -0.099521 -0.30056 0.36632 -0.21509 0.074123 -0.20267 0.1286 -0.38111 -0.025482 0.45103 0.088633 0.36288 -0.23406 -0.086024 -0.50604 0.034242 0.43998 -0.083023 -0.11969 0.68686 -0.34115 0.21228 0.40039 0.26367 -0.37144 0.16206 -0.42854 0.078658 -0.2905 0.21727 -0.27484 0.35887 0.27055 -0.11326 -0.14848 -0.0050659 -0.076862 0.078621 -0.24922 0.42026 -0.069698 0.071595 0.0071665 0.27473 -0.15664 0.25713 -0.058461 -0.29733 -0.090996 0.5246 0.14889 -0.20883 -0.13004 -0.20022 0.4503 -0.34654 -0.26007 0.35247 -0.34757 0.033738 0.19907 -0.32912 -0.084689 0.65319 0.20954 0.079274 0.1086 0.0026466 -0.12843 -0.22811 0.051501 -0.27429 0.14505 -0.1843 -0.34825 -0.11701 0.34034 0.075848 0.08239 -0.39188 -0.022312 -0.080373 0.14477 0.29701 -0.10523 0.092893 0.029813 -0.11761 0.16308 0.098382 0.46152 -0.162 -0.2456 0.20293 -0.11344 0.057902 -0.19528 -0.20141 -0.22874 -0.014101 0.2637 -0.10028 -0.051896 0.18859 -0.17767 -0.11556 0.121 0.17303 0.11773 0.034837 0.28485 -0.30447 0.061024 -0.26442 -0.081135 -0.044524 -0.036931 -0.15217 0.29175 0.44926 -0.28875 0.33193 -0.01242 -0.18805 -0.19832 -0.19736 0.26893 0.11106 -0.67383 -0.1518 -0.16615 -0.16563 0.0093671 -0.15945 -0.33468 0.22038 -0.16724 -0.1535 -0.61782 -0.17258 0.088928 0.019411 0.18296 0.32967 -0.0024906 -0.09208 0.514 0.0042484 -0.084377 -0.71448 -0.22148 -0.04835 0.043761 -0.29376 -0.22287 0.18001 0.072197 0.46499 0.056466 0.40844 -0.23641 -0.038946 0.087363 -0.21901 -0.3231 -0.19989 -0.3128 -0.067656 -0.22596 0.090926 0.28365 0.31462 0.46082 -0.024871 -0.14605 0.30454 0.17704 -0.011311 0.26807 -0.032461 -0.16644 -0.15313 -0.20426 -0.3082 -0.2459 0.085848 -0.11767 -0.063056 -0.18133 -0.18629 -0.17694 0.29618 0.35987 0.0020102 0.38616 0.36712 -0.055112 -0.34733 -0.072678 -0.051119 -0.29069 0.053598 0.019587 0.16808 -0.27456 -0.097179 -0.054541 0.19229 -0.48128 -0.20304 0.19368 -0.32546 0.14421 -0.169 0.26501
perfect -0.053411 0.47633 -0.079411 -0.015845 0.3156 -0.46605 0.22593 0.21176 0.097203 1.6875 0.090748 0.15769 -0.35721 0.3484 -0.072848 -0.29117 -0.29385 1.7689 0.066135 0.14921 -0.34343 -0.31264 0.17126 -0.077368 -0.13154 -0.0039882 0.1035 -0.20866 -0.12137 0.064111 -0.074925 0.2041 -0.12388 0.32052 0.36403 -0.13576 0.24336 -0.34604 -0.15865 -0.24709 0.16571 0.39425 -0.2415 -0.184 0.15158 0.35722 -0.38358 0.42208 -0.10082 -0.11025 -0.077926 0.10336 0.071816 -0.077014 0.075387 0.17295 -0.13721 0.17828 0.13319 0.14431 0.49064 -0.43122 -0.26411 0.26778 -0.13911 -0.02426 -0.27274 0.32591 0.028101 -0.24083 -0.058808 0.33465 -0.089864 0.15182 -0.242 -0.19294 -0.12184 -0.33691 -0.40469 -0.011683 -0.13777 0.45327 0.48609 0.073397 -0.17823 0.14355 -0.29172 1.1094 0.2429 -0.19041 -0.091212 0.50421 -0.093181 0.35369 0.078672 0.082096 -0.18023 -0.40549 0.26397 -0.11814 0.30916 0.12874 -0.22769 -0.077813 0.2469 -0.58215 0.37759 -0.021358 0.14104 0.025672 0.18838 -0.32556 -0.31228 0.10267 0.25575 -0.12402 -0.099883 0.41479 -0.30115 -0.17653 0.072667 -0.013237 -0.30267 0.44932 0.048167 0.057624 -0.52657 -0.48989 0.15791 -0.19307 0.01287 -0.28822 -0.0082296 -0.26015 -0.051949 0.18754 -0.085873 -0.36684 -0.084984 0.046845 -2.3296 0.34566 0.47406 0.23721 -0.10107 -0.47716 -0.03562 -0.32616 0.54266 0.38077 -0.17458 -0.32044 -0.10009 0.026525 0.061793 0.16057 -0.087137 -0.5279 -0.0037243 -0.33216 -0.045854 0.17387 0.3979 -0.089794 0.4168 -0.68806 0.042107 -0.32064 0.20986 0.12123 -0.17796 -0.21047 0.41397 -0.068587 -0.2185 0.034555 -0.27268 -0.57107 -0.17596 0.25274 0.06543 -0.43652 -0.19361 -0.10094 0.14838 -0.33509 -0.2895 0.18038 -0.028694 0.13719 -0.42798 0.079556 0.011507 -0.048078 0.15724 -0.052648 -0.40427 0.038592 0.33327 0.68308 -0.40251 0.19624 0.049908 -0.21561 0.31104 0.1454 -0.26771 0.16254 0.071511 0.094168 -0.18548 -0.24814 0.011683 -0.51242 0.28796 0.36131 0.17873 -0.078538 -0.22611 -0.16682 -0.12547 -0.086391 -0.16723 0.32156 0.35609 0.094619 -0.047679 0.24111 -0.13848 0.059928 -0.022738 0.07147 -0.15573 0.11302 0.099729 0.079148 -0.0017079 -0.64669 -0.63399 0.1935 0.026009 0.025745 -0.08191 0.38011 0.17697 0.22198 -0.48462 -0.29761 0.12987 0.085216 -0.25153 0.0002039 -0.43269 -0.082822 -0.22775 0.36789 0.65408 0.33288 -0.11565 -0.0052103 0.10626 0.38921 0.27789 -0.15394 0.23472 -0.018515 -0.17986 0.47623 -0.29717 0.42504 -0.5508 0.054412 -0.35778 0.089501 -0.52412 0.069204 -0.035985 0.25555 0.03742 0.016779 0.28016 -0.00043129 0.024844 -0.1033 0.022686 -0.16385 0.07362 0.016761 0.2128 -0.12836 0.16578 0.2438 0.19234 -0.23201 0.33005 -0.075105 0.03353 -0.080545 -0.14165 0.036585
condition 0.1617 0.60145 -0.37286 -0.071924 -0.44463 -0.99049 -0.025125 -0.40271 -0.15716 1.8671 0.18086 0.3876 -0.2269 0.025471 -0.23608 0.17054 -0.12297 2.1685 0.22385 0.081777 -0.45942 -0.25551 -0.39451 0.30704 0.0552 -0.1313 0.23132 -0.07324 -0.4069 -0.23522 0.17403 -0.41642 -0.2296 0.072978 -0.3386 0.41755 0.37513 -0.43622 -0.055945 -0.0077759 0.78572 0.0069383 -0.0027184 -0.082635 -0.3182 0.13727 -0.32044 -0.022368 -0.18487 0.24791 -0.63467 0.068554 0.36132 -0.066478 0.34152 -0.030489 -0.32723 -0.10748 0.087386 0.27431 -0.43998 0.31153 0.078564 -0.062183 -0.12734 -0.27332 0.070941 -0.15049 -0.082426 0.65223 -0.12534 0.16128 0.067477 -0.099758 0.60481 -0.038557 -0.16757 -0.36914 -0.31936 -0.61417 -0.32557 0.46965 0.22554 0.0093099 0.45984 -0.34907 0.66351 -0.064742 -0.037844 -0.017651 -0.31408 0.014413 -0.36787 0.0040161 0.20455 -0.75072 0.18004 -0.091991 0.25054 -0.11481 -0.073903 -0.014875 -0.18278 0.042126 0.19369 -1.4569 -0.073114 0.47996 -0.27998 0.20498 -0.11143 0.15561 0.37261 -0.27302 -0.22875 -0.04844 -0.076232 -0.32113 0.40896 -0.81267 -0.25532 0.06784 0.093727 -0.05466 0.001024 -0.0056596 -0.12243 0.044938 0.23669 -0.23384 0.42207 -0.32423 -0.45421 -0.30243 0.35573 0.80043 -0.02 -0.22548 0.42382 0.27209 -0.41538 -0.22004 0.3623 0.089819 0.4489 -0.098206 0.048187 -0.010373 -0.053646 0.21889 -0.621 0.1774 -0.039612 0.31754 0.13613 -0.25267 -0.11973 0.065189 -0.25734 -0.31765 -0.30054 0.20039 0.92654 0.24289 0.065468 -0.56794 -0.071905 0.1834 0.46353 -0.3982 -0.73676 -0.27076 -0.22536 0.19615 -0.028732 0.48202 0.22819 0.35972 0.18777 0.32677 -0.2301 0.23591 -0.072037 -0.22028 -0.63356 -0.26926 -0.21533 0.05406 -0.21037 0.18904 -0.034324 -0.42338 -0.43991 -0.16945 -0.41267 0.16687 -0.14432 -0.43306 -0.034199 -0.057758 -0.70757 0.47921 -0.65471 -0.15869 -0.60172 0.23976 -0.3554 -0.025906 0.10886 0.57327 0.2519 -0.37742 -0.17386 -0.58711 -0.033712 -0.19673 0.0020339 0.30344 -0.30834 -0.042108 -0.018893 -0.28226 -0.15976 -0.24171 -0.04719 -0.083987 -0.1135 0.30198 -0.05269 0.089483 0.054265 -0.030707 0.26587 -0.0083908 0.43679 0.33427 -0.32364 -0.49274 -0.42473 0.074162 0.12631 0.22189 0.35038 0.46964 0.41317 0.27683 0.22526 0.08249 -0.32004 -0.44683 -0.21605 0.031652 0.43371 -0.033868 -0.57769 0.60969 0.22822 -0.47983 0.33669 -0.033611 -0.41513 -0.025912 -0.36182 0.22373 -0.21236 0.33251 0.071167 0.29601 0.35762 -0.2954 0.89288 -0.14652 -0.21735 -0.0844 -0.55182 -0.033686 -0.18584 0.16994 -0.18097 0.31529 -0.28068 0.044122 0.22974 -0.2809 0.060313 0.15998 -0.26696 0.2176 0.21518 0.035066 -0.42553 0.083917 -0.038357 -0.5924 0.20455 -0.25826 -0.31313 -0.18381 -0.070453 -0.44947
it 0.0013629 0.35653 -0.055497 -0.16607 0.0031402 -0.061926 -0.24759 -0.22897 -0.09105 2.6751 -0.15062 0.072403 0.0061949 -0.0065698 -0.26418 -0.19543 -0.15048 1.2156 -0.12551 -0.12572 0.023065 0.024727 0.14311 0.10148 -0.10566 0.07864 -0.10306 -0.11968 0.04202 -0.36815 -0.087136 0.38589 0.0044597 -0.18259 -0.1226 -0.10454 0.16039 0.27415 0.042427 -0.049497 0.041286 0.12223 0.10821 -0.056199 0.21754 0.10983 -0.38878 -0.10935 -0.36647 0.1342 -0.076634 0.38148 -0.19979 0.09391 0.35189 -0.11133 0.095313 -0.29593 0.29022 -0.1966 -0.10331 -0.21995 -0.041991 0.16631 0.01523 -0.29185 -0.05472 -0.040665 0.084861 -0.009206 0.24625 0.081873 0.34256 -0.16768 -0.079394 0.13206 0.2156 -0.11199 -0.39589 0.32299 0.089602 -0.026041 -0.23981 0.049861 0.055241 -0.50554 0.23002 -0.54613 0.58194 0.096957 -0.015559 0.069833 -0.009668 0.19936 0.19006 0.32913 -0.064844 -0.22404 -0.031196 0.1818 -0.071896 -0.072126 -0.082155 0.064145 0.11215 -1.0712 0.29581 0.081019 -0.24954 -0.087734 0.015893 -0.15779 0.055281 -0.080948 -0.11288 0.099631 -0.17395 0.1223 -0.099904 -0.20707 -0.014483 -0.10597 -0.0031063 0.04332 -0.20624 0.25975 -0.12992 -0.32278 0.17298 -0.15952 -0.19577 -0.22784 0.022428 0.19393 -0.059827 -0.011456 0.17045 -0.041847 -0.1288 -0.067707 -1.9181 0.29674 0.27561 0.29993 0.17498 -0.25321 -0.2017 0.13409 -0.049065 0.13186 -0.10889 0.23631 0.17895 0.024289 0.0092826 -0.29032 -0.27692 -0.22906 -0.13153 0.10656 -0.25672 0.12929 0.10399 -0.098408 -0.42153 -0.1332 0.091175 0.040061 0.2084 -0.17849 -0.057709 -0.10256 -0.095817 -0.43439 -0.064794 0.12916 0.085435 -0.3746 -0.069798 0.020042 0.041425 -0.021527 -0.086333 -0.0095633 0.025466 -0.16101 -0.089574 -0.21178 0.088594 0.087381 0.052047 -0.20386 -0.29424 0.10097 0.076137 0.10431 -0.19752 -0.34268 0.058982 0.26035 -0.16364 0.03294 -0.30368 0.0734 0.071074 0.17129 -0.14442 -0.041817 0.20912 0.032747 -0.10649 -0.33475 0.0088305 -0.32619 0.21179 0.29881 -0.013775 -0.090821 -0.33841 -0.1129 0.12137 0.059202 -0.12133 -0.093398 0.15426 -0.032649 -0.11216 0.28842 -0.036565 -0.041662 -0.22413 0.060877 0.21641 0.30208 0.16084 -0.027118 0.26084 -0.090324 -0.1036 -0.01901 0.34244 0.025017 0.025958 0.21387 0.43512 -0.67789 -0.0039166 -0.30027 -0.058978 0.17072 0.14497 -0.19255 0.13603 -0.16038 -0.075959 0.2282 0.20681 -0.011637 0.086048 -0.034803 0.23821 0.21667 0.10353 -0.012959 0.36174 -0.12104 -0.033488 -0.030755 0.43549 0.1896 0.45975 -0.34826 -0.16406 -0.12197 -0.064298 0.19573 0.017949 -0.12379 -0.0081198 0.4002 0.17065 -0.10712 0.088398 -0.11473 -0.069708 -0.09321 0.25621 -0.035815 0.15968 -0.37266 -0.24035 -0.089325 0.10603 -0.16025 -0.054419 -0.30824 -0.26249 -0.11237 0.078259 0.22398
looks 0.065428 0.075564 -0.079023 -0.052555 -0.005559 -0.12711 0.18528 -0.44662 -0.18441 1.9997 -0.059862 -0.35106 -0.12732 -0.19984 -0.05075 0.1542 -0.36341 0.83607 -0.14197 -0.25503 -0.28925 -0.17936 0.14632 -0.31513 0.089565 0.26123 0.094492 -0.19495 0.083579 -0.24163 -0.55012 -0.0061962 0.14989 -0.1495 0.027092 -0.11207 0.14275 0.18155 -0.341 -0.32384 0.27572 0.090745 0.38185 0.033767 0.23646 0.02921 -0.6353 -0.14328 -0.39298 0.18986 0.1167 0.16263 -0.22452 -0.26982 -0.014966 0.1924 -0.12376 0.084413 0.3914 -0.02776 0.11783 -0.26496 -0.12762 0.20538 0.04547 -0.49041 -0.28092 0.27486 0.21888 -0.0015073 0.094322 -0.18829 0.19407 0.26841 -0.53945 0.3065 -0.15725 -0.31275 -0.44453 0.089861 0.12188 0.30943 0.60084 0.31857 0.38906 -0.33083 0.63083 -0.21039 0.02668 0.028907 0.28372 0.61674 -0.32687 -0.10487 0.5883 -0.20263 -0.03557 -0.051431 0.21361 0.21678 0.13983 0.08796 0.012986 -0.11256 0.11252 -0.23747 -0.22157 -0.049148 -0.019027 -0.24786 -0.19301 -0.60013 -0.12857 -0.026102 0.15078 0.28788 -0.15142 -0.14427 -0.041898 -0.33312 -0.31066 0.12466 -0.27679 0.080478 -0.13784 0.13392 -0.0087649 -0.7879 -0.018808 -0.057819 -0.55324 0.021863 0.084389 0.29307 0.057102 -0.10088 -0.3998 -0.14844 -0.22722 -0.010172 -2.3451 0.37081 0.33451 0.15848 -0.18902 -0.47802 -0.12613 0.048963 0.20824 0.15021 -0.10715 -0.10311 0.14514 -0.027748 0.18341 -0.12214 -0.16003 -0.10487 0.065821 -0.41708 -0.1077 0.018415 -0.42683 -0.11309 -0.060155 -0.32024 -0.06852 0.061815 0.37913 -0.31567 -0.21905 0.0010657 -0.21879 -0.2205 -0.27265 -0.069404 -0.008822 0.12255 -0.30088 0.38293 -0.23303 -0.078647 -0.34481 -0.45159 -0.218 0.062592 0.042301 -0.1692 -0.31388 0.2001 0.17682 0.14653 -0.19728 0.02845 0.13853 0.097359 -0.18214 -0.21812 0.010891 0.22008 -0.42867 0.32519 -0.24067 -0.018509 -0.21696 0.13352 -0.29634 0.19386 -0.032466 0.15311 -0.26476 -0.34921 0.090704 -0.77415 0.23527 0.47376 -0.20925 -0.23413 0.067065 -0.45821 -0.14512 0.079478 -0.086392 0.3328 0.43248 0.060243 0.032228 0.42809 0.3103 -0.13832 -0.48666 -0.054084 -0.19493 0.24876 0.3757 -0.40202 0.17246 -0.35534 0.26532 0.56318 -0.37589 0.17921 -0.33085 0.10982 0.23833 -0.09768 0.16283 -0.37457 0.38678 0.4444 -0.061238 -0.47466 0.29497 -0.14654 -0.086973 -0.29163 0.47794 0.48079 -0.12263 -0.067413 0.054981 0.38218 0.26908 0.013266 0.20711 -0.025692 -0.15066 -0.10325 0.40424 0.63943 -0.40526 0.0063252 0.17575 -0.4798 -0.26465 0.028688 0.34018 -0.26693 -0.11923 0.34332 0.33723 0.26973 -0.31177 0.036526 0.089301 -0.1192 -0.16398 0.51955 0.13349 -0.48855 -0.16978 0.15308 0.24794 -0.1331 -0.14143 0.11548 -0.15966 -0.15581 0.19722 0.43777
brand 0.47604 0.50554 0.054503 -0.51965 0.54137 -0.050011 -0.22085 -0.25825 0.14091 1.3832 -0.17297 0.085902 -0.64787 -0.21175 1.1325 -0.014471 -0.22681 1.3659 0.19953 0.45459 0.029965 0.44209 -0.038041 -0.0041024 0.20895 -0.1309 -0.19092 -0.23923 0.035741 0.63161 0.33832 0.20851 -0.064524 0.45876 -0.47005 -0.011207 0.097978 -0.41325 0.090971 -0.15366 -0.2493 0.0432 -0.11157 0.010392 0.035882 -0.3882 -0.39065 -0.28562 0.13068 0.22799 -0.02995 0.44411 0.20496 0.28243 0.28222 -0.51572 -0.27327 -0.13305 0.25056 -0.18604 0.093947 -0.36581 0.30474 0.20259 0.28845 -0.35893 0.13191 -0.20529 0.12754 -0.10441 -0.0051803 -0.20938 0.52152 0.39409 -0.30031 0.015919 0.28464 -0.045606 0.28123 0.066033 0.13741 -0.56707 -0.38179 0.2753 0.17953 -0.29535 -0.94003 0.93617 0.40258 0.16518 -0.18873 0.33495 -0.036363 0.026235 -0.086639 -0.38087 0.10168 -0.056567 0.19278 -0.26115 -0.29874 -0.083234 -0.16311 0.1149 -0.076813 -0.69292 0.21772 0.15119 -0.20684 -0.22227 -0.052366 -0.59107 0.07239 -0.0793 -0.11678 -0.05019 0.56114 -0.14505 0.20367 0.050168 0.1376 0.12261 -0.22349 0.045736 0.35094 0.29484 0.21216 -0.13584 -0.28855 0.061813 -0.028927 -0.3132 -0.10616 -0.10293 0.025984 -0.057829 -0.15076 -0.13015 0.17949 0.07659 -1.3765 -0.37225 0.6639 -0.34664 -0.20999 -0.48995 -0.063009 0.5683 0.55027 -0.13658 -0.022122 0.1744 0.51195 -0.13089 -0.00019852 -0.33795 -0.54407 -0.24775 -0.14495 0.18571 -0.75251 0.3333 0.3524 -0.0081291 0.33733 -0.26644 0.030785 0.1607 0.21257 -0.63857 0.052346 0.22155 -0.47747 0.15539 -0.27157 -0.50183 0.13957 0.4519 0.19431 0.30476 0.67706 -0.17483 0.34061 -0.92343 -0.18932 0.11525 0.086892 0.29757 -0.068349 -0.13638 -0.40562 -0.37877 0.29445 0.22252 0.41844 -0.10601 0.20932 0.056251 0.43326 0.2275 0.1571 -0.56593 0.064628 -0.26944 -0.25785 0.62255 -0.082503 0.068351 -0.13956 0.091821 -1.0291 -0.19483 -0.14501 -0.32317 0.29694 0.22612 0.31131 -0.63829 -0.75005 -0.075342 -0.34881 -0.17246 -0.21286 -0.071215 -0.032621 -0.37022 0.14468 0.22826 0.042546 0.084531 -0.2763 -0.39588 -0.3734 -0.3784 0.39506 -0.55294 -0.062743 0.068782 -0.19082 0.35318 -0.31218 0.049872 0.052037 -0.14234 -0.19857 0.058586 0.39928 -0.30864 -0.63427 0.071867 -0.12431 -0.16385 -0.031419 -0.095303 -0.35353 -0.13588 0.12844 0.66029 -0.03286 -0.0265 0.22417 -0.14019 0.11442 0.22861 0.1537 -0.0087463 0.27598 0.35635 0.49076 0.093345 0.13483 0.38542 -0.50222 0.032419 0.1399 -0.6802 0.22198 0.11204 0.45784 0.029017 -0.74228 0.2659 0.67831 0.091465 -0.59817 0.47768 0.023081 0.15934 -0.14421 0.079987 -0.68798 0.2649 -0.0084947 0.46301 -0.3343 -0.34056 -0.15288 -0.28039 0.033686 0.45551
far -0.12405 0.061105 -0.15319 -0.17896 0.15272 0.074836 -0.10406 0.097694 -0.067452 2.9247 -0.075812 0.010465 0.16625 0.11465 -0.11425 -0.050525 -0.0099338 0.6821 -0.1555 -0.26682 -0.084188 0.35138 0.31317 -0.15449 -0.18365 -0.017688 0.042678 0.048629 0.11284 0.029891 -0.038771 0.24555 -0.056744 -0.12596 0.20925 0.11744 -0.14502 0.011597 -0.099943 -0.017666 -0.16046 0.0088042 0.10398 0.15195 0.25831 0.11378 -0.024322 -0.036561 -0.15259 -0.10214 0.038572 0.20684 -0.12068 0.07921 0.24969 -0.086781 0.0050077 -0.2013 0.20705 0.071063 -0.012779 -0.21761 -0.21472 0.12295 -0.046649 -0.12836 -0.12941 -0.083973 0.22404 -0.087654 0.04304 0.12194 0.27301 0.11382 0.17842 0.19082 -0.044579 0.040171 -0.070256 0.61501 0.11714 -0.040008 0.16459 0.18861 0.056702 -0.30371 -0.13226 -0.45369 0.22784 -0.18774 0.03017 -0.10197 -0.34575 0.42094 0.053909 0.1012 0.44518 -0.19246 0.14093 0.26305 0.00094669 0.060724 -0.11096 0.2768 0.47118 -1.182 -0.23544 0.032619 -0.35251 0.034814 0.037301 -0.45317 0.19361 -0.131 0.01861 0.26227 -0.211 -0.046841 -0.13854 -0.014417 0.12668 0.067462 0.017372 -0.19384 0.030022 -0.017206 -0.027869 -0.20125 -0.053134 0.010055 0.073483 -0.1278 -0.11817 -0.072608 0.31279 -0.22345 -0.14971 -0.20509 -0.050766 -0.091097 -1.4194 0.42653 0.33656 0.0749 -0.064383 -0.41342 -0.31901 0.067646 0.3307 0.32552 -0.044172 -0.15115 0.22014 -0.0040023 0.067715 -0.34265 -0.056212 0.37793 0.033718 -0.35962 0.08577 0.15176 -0.091685 -0.18731 -0.35119 0.051574 0.032996 -0.22576 0.24396 0.13754 0.23303 0.053619 -0.02947 -0.49661 -0.23719 -0.038146 -0.1513 -0.061717 -0.087874 0.018141 0.20537 -0.20872 -0.079346 -0.10066 0.21737 -0.2172 0.070661 -0.37713 0.29887 0.25713 0.22401 0.14179 0.08071 0.11246 0.0607 -0.24802 -0.16476 0.041043 -0.12772 0.15355 0.078978 -0.060636 -0.2236 0.3093 0.0035744 0.062837 0.020414 -0.44285 -0.29032 -0.10008 -0.051888 -0.42951 -0.074151 -0.45881 0.070567 0.0041044 0.4386 0.22145 -0.0385 0.016318 0.18692 0.033149 -0.017532 -0.16685 0.041011 0.039916 -0.12156 -0.14146 -0.14222 0.15145 -0.16434 0.028759 0.42989 0.18384 0.12462 -0.15119 0.26015 -0.062854 -0.19897 0.16882 0.041215 0.11258 0.098489 0.51962 0.044388 0.15827 -0.040793 -0.18934 -0.14912 0.4197 0.1122 -0.11005 0.21306 0.014378 0.2176 0.42718 0.12573 0.20671 -0.065472 0.096272 0.17152 0.21531 0.058988 0.10905 0.07061 -0.27758 0.38608 -0.29468 -0.06899 0.091708 0.0018735 0.15823 -0.13497 -0.68607 0.04349 0.33155 0.30057 -0.17418 -0.26686 0.2477 0.15063 0.045159 -0.068825 -0.075305 -0.024531 -0.14885 -0.13181 -0.31613 0.18051 -0.29703 -0.51257 0.18409 0.018681 -0.015008 0.35739 0.030281 -0.026066 -0.1295 -0.14652 -0.10304
