80 300
All -0.2265625 0.15332031 0.08886719 0.072265625 -0.075683594 -0.01361084 0.060791016 0.1953125 0.31054688 0.25585938 -0.03491211 0.09716797 -0.024047852 0.13769531 -0.03149414 0.23242188 0.1484375 0.032470703 -0.078125 -0.02734375 -0.059326172 -0.15039062 -0.104003906 -0.110839844 -0.04663086 0.11230469 -0.008911133 0.12158203 0.099121094 -0.15332031 -0.071777344 -0.055419922 0.018676758 -0.08886719 0.13769531 -0.08105469 -0.09814453 -0.110839844 -0.3359375 0.21777344 0.34179688 0.015075684 0.099121094 0.072265625 0.20507812 -0.11425781 0.03540039 -0.030395508 0.103027344 0.103515625 -0.18652344 0.36132812 0.001914978 -0.12207031 0.046142578 0.0703125 0.08496094 -0.22070312 0.08544922 -0.16113281 -0.37304688 0.056884766 -0.21289062 -0.13867188 0.060546875 -0.18066406 0.06689453 0.25195312 0.018920898 -0.16992188 0.040771484 -0.031982422 0.037353516 0.08496094 -0.12060547 0.088378906 0.13867188 -0.09814453 0.09716797 0.14648438 0.13867188 -0.053710938 -0.040039062 -0.19335938 -0.18652344 -0.27734375 -0.103515625 0.0010604858 -0.091796875 -0.04638672 -0.080078125 0.29492188 0.09423828 0.07861328 -0.03100586 0.19433594 0.14648438 0.25195312 -0.09033203 0.037109375 0.050048828 0.036621094 0.19335938 -0.038330078 -0.18359375 0.08935547 -0.35546875 -0.083984375 0.0703125 0.25585938 -0.14941406 0.08544922 0.060791016 0.18261719 0.083984375 0.14550781 0.19335938 0.19042969 -0.09716797 0.017456055 -0.0703125 0.14648438 -0.07861328 -0.11230469 -0.047607422 -0.10644531 -0.17578125 -0.12792969 0.064453125 0.03540039 -0.012573242 -0.17285156 -0.026611328 -0.083496094 0.080566406 -0.2109375 -0.18261719 -0.055664062 0.096191406 -0.033935547 -0.045654297 -0.00022125244 -0.045654297 0.123046875 0.019897461 0.091796875 0.2421875 -0.22949219 -0.07714844 0.003479004 -0.09716797 0.044433594 0.0625 0.01940918 -0.053222656 -0.23046875 -0.027832031 -0.013427734 -0.015563965 0.040771484 -0.10595703 -0.07714844 0.18359375 0.1484375 0.06591797 -0.109375 -0.15234375 0.057128906 -0.041992188 -0.029541016 -0.34960938 -0.030151367 0.32617188 -0.265625 0.10205078 0.15527344 -0.10449219 -0.31835938 -0.091308594 -0.29296875 -0.03857422 -0.09277344 0.23242188 0.22851562 0.2734375 0.032226562 -0.104003906 0.0029449463 0.083984375 0.002456665 0.15527344 -0.203125 0.024902344 -0.15136719 -0.10839844 -0.17578125 -0.071777344 0.14355469 -0.22949219 -0.16210938 0.16894531 -0.06640625 0.2578125 0.061279297 -0.15234375 -0.04296875 -0.033447266 -0.091796875 0.28125 0.14648438 0.087402344 -0.09033203 -0.03125 0.15625 0.20898438 0.10107422 0.029541016 0.10058594 -0.019165039 -0.49804688 -0.08544922 -0.068847656 0.03564453 -0.010192871 0.02368164 0.064453125 0.023803711 -0.0022277832 -0.15917969 -0.13574219 0.15820312 0.107421875 -0.0115356445 0.10253906 0.053466797 -0.0703125 0.13378906 0.17578125 -0.140625 -0.027954102 -0.0010681152 0.18359375 -0.107910156 -0.16601562 -0.041992188 0.16210938 -0.22851562 0.08642578 -0.18457031 0.10986328 0.20800781 0.15625 -0.040039062 0.08203125 0.26171875 -0.013916016 -0.00793457 -0.08300781 0.02758789 -0.027954102 0.087402344 -0.15234375 -0.24609375 0.09765625 0.125 0.10546875 -0.17578125 0.26367188 -0.014099121 0.020141602 0.052246094 0.28710938 0.14355469 0.072753906 0.21875 0.11279297 0.015075684 -0.18945312 -0.1875 -0.015258789 0.18554688 -0.040039062 0.13183594 0.20117188 -0.037841797 0.15039062 -0.012634277 -0.027709961 0.107910156 0.24707031 -0.10839844 -0.059814453 -0.060302734 -0.234375 0.087890625 0.052734375 0.09814453 -0.018188477 -0.052246094 -0.10888672
good 0.040527344 0.0625 -0.017456055 0.07861328 0.032714844 -0.012634277 0.009643555 0.123535156 -0.021484375 0.15234375 -0.05834961 -0.10644531 0.021240234 0.13574219 -0.13183594 0.17675781 0.27148438 0.13769531 -0.17382812 -0.14160156 -0.030761719 0.19628906 -0.032958984 0.125 0.25390625 0.12695312 -0.15234375 0.031982422 0.011352539 -0.01361084 -0.12890625 0.010192871 0.23925781 -0.084472656 0.140625 0.13085938 -0.045166016 0.064941406 0.025390625 0.056152344 0.24609375 -0.20507812 0.23632812 -0.008605957 -0.022949219 0.05078125 0.10644531 -0.03564453 0.087402344 -0.057128906 0.08496094 0.23535156 -0.10107422 -0.03564453 -0.04736328 0.04736328 -0.14550781 -0.10986328 0.14746094 -0.23242188 -0.072753906 0.19628906 -0.37890625 -0.072265625 0.048339844 0.119140625 0.061035156 -0.12109375 -0.27929688 0.052001953 0.049072266 -0.02709961 0.1328125 0.033691406 -0.32226562 0.042236328 -0.087890625 0.15429688 0.09472656 0.103515625 -0.028564453 0.0012817383 -0.004272461 0.24609375 -0.059570312 -0.16894531 -0.096191406 0.16796875 0.013366699 0.048828125 0.083496094 0.06347656 -0.008728027 -0.08642578 -0.03857422 -0.08251953 0.15722656 0.22753906 -0.0076293945 -0.19921875 -0.06347656 0.12792969 -0.06347656 -0.030273438 0.045654297 0.06298828 -0.025268555 -0.067871094 -0.011413574 -0.13574219 0.029785156 0.104003906 -0.15917969 -0.084472656 0.29882812 -0.12597656 0.11425781 -0.08105469 -0.09082031 -0.07910156 -0.111816406 -0.096191406 0.027709961 0.14257812 -0.26757812 -0.09375 0.039794922 -0.17871094 -0.028198242 0.0146484375 -0.31640625 -0.24511719 -0.08935547 0.09716797 -0.009643555 -0.14746094 0.15234375 0.21582031 0.059814453 0.23828125 -0.051513672 0.14941406 0.13574219 -0.032226562 -0.265625 -0.111816406 -0.23046875 -0.140625 0.25585938 -0.15429688 0.1796875 0.15527344 -0.21582031 0.36328125 -0.1015625 0.049804688 0.071777344 -0.14550781 -0.031982422 0.009521484 -0.12109375 0.12109375 0.09765625 0.07763672 0.3203125 -0.22265625 -0.084472656 -0.107421875 0.11279297 -0.13867188 -0.21875 0.014587402 0.13378906 -0.009216309 0.009216309 0.16894531 0.16894531 -0.078125 -0.006652832 0.037353516 -0.10888672 -0.25390625 0.014526367 -0.09716797 -0.19628906 -0.017822266 -0.28125 -0.020507812 -0.029052734 -0.09375 -0.17675781 0.21484375 -0.052246094 -0.115722656 -0.01977539 -0.10839844 -0.013427734 -0.15332031 -0.140625 -0.11816406 0.092285156 0.109375 0.057617188 -0.03466797 0.03564453 -0.12011719 -0.14257812 -0.0007247925 -0.06689453 0.119140625 -0.10449219 0.07861328 -0.12792969 0.095703125 -0.008178711 0.07128906 0.20703125 -0.03149414 0.095703125 0.17285156 -0.079589844 -0.024291992 -0.07519531 -0.075683594 0.095214844 -0.064941406 -0.0068969727 -0.09033203 0.03100586 0.19921875 -0.10644531 -0.114746094 0.18652344 -0.05078125 0.0859375 0.0012893677 -0.18847656 -0.20019531 -0.028320312 0.11328125 0.25976562 0.22070312 0.041015625 0.0017166138 0.075683594 -0.011962891 0.017700195 -0.05883789 -0.25976562 -0.234375 -0.049560547 0.25976562 0.15332031 0.15136719 0.08300781 -0.15527344 0.049316406 0.07519531 -0.05078125 -0.1328125 -0.13574219 0.041992188 -0.14257812 0.020996094 0.07861328 0.016113281 0.016235352 -0.21582031 0.015991211 -0.048828125 -0.024047852 0.13476562 0.08496094 -0.011962891 0.100097656 -0.13867188 0.080566406 -0.22070312 -0.12011719 0.18945312 0.05444336 -0.05053711 0.0014724731 0.14160156 -0.064941406 -0.055664062 -0.09033203 -0.026733398 -0.10498047 0.024169922 0.014221191 0.1875 -0.16503906 0.015380859 -0.041748047 0.05444336 -0.01184082 -0.15625 0.0019302368 -0.06982422
so -0.057128906 -0.030517578 -0.0055236816 0.078125 -0.09326172 0.072753906 0.091308594 -0.050048828 0.10595703 0.061035156 0.036132812 -0.14550781 -0.00970459 -0.13183594 -0.1875 0.14746094 0.14160156 0.14257812 -0.020996094 -0.041992188 0.018310547 0.017211914 0.20898438 -0.06689453 0.10888672 -0.03466797 -0.072753906 -0.064941406 0.10644531 -0.033935547 0.004272461 0.13964844 0.009460449 -0.045654297 0.08935547 0.0072631836 0.068359375 -0.12402344 0.021240234 0.10449219 0.17089844 0.043701172 0.15917969 -0.03540039 -0.02758789 0.025024414 -0.037841797 -0.00015544891 0.040527344 -0.0234375 0.16992188 -0.061035156 0.009521484 -0.08984375 0.021118164 0.051757812 -0.04248047 0.003692627 0.09423828 0.06689453 -0.040039062 -0.013793945 -0.08251953 -0.15332031 -0.00680542 -0.041015625 -0.115234375 0.12792969 -0.119140625 -0.03125 0.15039062 0.12207031 0.07128906 -0.016357422 -0.084472656 -0.08154297 0.09423828 0.08984375 -0.012451172 0.06542969 0.042236328 0.053710938 0.110839844 -0.06738281 -0.20996094 -0.10644531 -0.16113281 0.1640625 -0.010986328 0.055664062 -0.048095703 0.1015625 -0.08544922 -0.103515625 -0.056152344 -0.13476562 0.04638672 0.041503906 -0.041259766 -0.056396484 -0.061523438 -0.09716797 0.06201172 0.095703125 -0.09814453 -0.002319336 -0.091308594 -0.122558594 0.087402344 0.030517578 -0.063964844 0.014770508 0.021606445 -0.052246094 0.20117188 -0.010375977 -0.008361816 -0.076171875 0.030517578 0.060546875 -0.15527344 0.12890625 0.0056152344 0.140625 -0.014892578 0.103515625 -0.076171875 -0.03515625 -0.041259766 -0.037109375 0.042236328 -0.15234375 0.030151367 -0.14746094 -0.06738281 -0.1328125 0.042236328 -0.041992188 0.025756836 -0.05053711 0.10888672 -0.06689453 0.05834961 -0.037109375 0.125 0.103515625 -0.09863281 -0.11767578 -0.18359375 0.11425781 0.026367188 0.09375 -0.10986328 0.061767578 0.036132812 -0.042236328 -0.045410156 -0.012756348 -0.20996094 0.055419922 0.056396484 0.13085938 -0.05883789 0.12109375 0.04663086 -0.2578125 0.0019378662 -0.018066406 0.0019378662 0.0022583008 -0.18164062 0.080078125 -0.071777344 0.00013637543 -0.033935547 -0.041503906 0.08496094 -0.15917969 0.10839844 -0.115234375 -0.021972656 -0.026123047 0.118652344 0.13378906 0.08203125 -0.038330078 -0.09716797 0.044677734 0.050048828 0.03955078 0.004638672 -0.071777344 0.11425781 -0.080078125 -0.037109375 -0.044433594 -0.061035156 0.076660156 -0.008850098 -0.17675781 0.06347656 0.040039062 -0.07324219 0.04345703 0.008728027 -0.07714844 -0.11669922 -0.013671875 -0.071777344 0.029052734 -0.027709961 0.12695312 0.017944336 0.096191406 -0.17089844 0.05810547 0.1875 0.068359375 -0.111816406 0.030639648 -0.0703125 0.038085938 -0.045166016 0.0036621094 0.1875 -0.053710938 0.07373047 -0.020141602 0.06982422 -0.123046875 0.04248047 -0.06542969 0.064453125 -0.048583984 -0.045410156 0.020385742 -0.09326172 -0.079589844 0.13574219 -0.04345703 0.019897461 0.051757812 0.046875 -0.09375 -0.044433594 0.03564453 -0.009033203 0.10595703 -0.068359375 0.12597656 0.05883789 -0.059814453 0.19433594 0.12207031 0.04736328 -0.08642578 -0.012390137 0.040039062 -0.059814453 -0.018676758 -0.053222656 0.09863281 -0.15332031 0.04711914 -0.04736328 0.12451172 0.052246094 -0.049316406 -0.052246094 0.057373047 0.026000977 0.10839844 0.15722656 0.09375 -0.08984375 -0.18164062 -0.009887695 -0.140625 -0.017333984 0.005706787 0.10449219 0.0055236816 0.053466797 0.059326172 0.049316406 0.0041503906 -0.13378906 -0.19335938 -0.026977539 0.19921875 -0.07470703 0.10839844 -0.12011719 0.06591797 -0.06225586 0.0078125 0.021606445 -0.019897461 0.14257812 -0.00048065186
I 0.07910156 -0.0050354004 0.111816406 0.21289062 0.13085938 -0.014709473 -0.03540039 -0.07763672 0.040771484 0.114746094 0.0014724731 -0.29101562 0.0045776367 -0.20019531 -0.19238281 0.080078125 0.10107422 0.048583984 0.15722656 -0.095214844 -0.050048828 0.25 0.33007812 -0.09716797 -0.055664062 -0.0071105957 -0.16796875 -0.13574219 0.05102539 -0.0059814453 0.107910156 0.16503906 -0.03955078 -0.03955078 0.04321289 0.12060547 0.13476562 0.09375 0.009094238 0.1640625 0.21289062 -0.053222656 0.33398438 0.01586914 0.10449219 0.24121094 -0.018920898 -0.041992188 0.05834961 0.032714844 0.09863281 0.18945312 0.041259766 0.015014648 -0.05883789 0.10253906 0.015380859 0.031982422 0.02722168 -0.13769531 0.12695312 0.063964844 -0.13574219 -0.012145996 0.076171875 -0.02319336 -0.21191406 0.20996094 -0.01953125 0.020385742 0.16113281 -0.008972168 0.04663086 0.03881836 -0.4609375 -0.1796875 0.12792969 -0.005645752 0.24121094 0.21777344 -0.026000977 -0.1171875 0.19140625 -0.040527344 -0.18261719 -0.096191406 -0.05053711 0.27734375 0.000869751 0.06298828 -0.13085938 0.1328125 -0.06640625 0.03491211 -0.26953125 0.026733398 0.11816406 0.1328125 -0.024902344 -0.17480469 -0.234375 -0.0703125 0.091796875 0.031982422 -0.107910156 0.13671875 -0.115234375 0.0073242188 0.042236328 -0.25585938 -0.27734375 -0.10644531 0.026123047 0.09082031 0.14355469 -0.19335938 -0.07421875 -0.20898438 0.21289062 -0.17382812 -0.049804688 -0.10839844 -0.020385742 0.22949219 -0.095703125 -0.061035156 -0.106933594 0.033691406 0.018798828 0.05029297 -0.36132812 -0.24511719 -0.34765625 -0.043945312 -0.18261719 -0.14453125 -0.061523438 0.21386719 0.09667969 0.1796875 -0.021606445 0.03100586 0.0703125 -0.072753906 0.072265625 0.10644531 -0.25 -0.20800781 -0.037841797 -0.014465332 0.171875 0.17578125 -0.33789062 0.05517578 -0.01965332 0.13378906 -0.016479492 -0.045410156 -0.16796875 0.08544922 0.099609375 -0.020019531 -0.06347656 0.32421875 -0.024047852 -0.22949219 0.099609375 0.08886719 0.13769531 -0.05517578 -0.2109375 0.1875 -0.038330078 -0.16796875 -0.111328125 0.052490234 0.1875 -0.15136719 0.072753906 -0.01953125 -0.06933594 0.16894531 0.1171875 0.103515625 0.029052734 0.0546875 -0.2578125 0.1171875 0.0703125 -0.04711914 -0.037109375 0.16503906 -0.01159668 -0.04638672 0.11621094 0.095214844 -0.091308594 0.019165039 -0.08886719 -0.20507812 -0.13183594 0.12060547 0.049804688 0.09863281 0.028198242 0.046875 -0.18554688 -0.06347656 0.07519531 0.11767578 0.08154297 0.014404297 -0.111328125 0.009399414 -0.23828125 -0.1796875 0.265625 0.041748047 -0.0859375 -0.06298828 -0.1953125 0.035888672 -0.032958984 0.041748047 0.23339844 -0.3515625 0.16503906 -0.0625 -0.15136719 -0.100097656 0.039794922 -0.013427734 0.012329102 -0.009399414 0.12109375 0.06738281 -0.18457031 0.15917969 0.12109375 -0.1171875 0.0030212402 0.11425781 0.11767578 -0.076660156 -0.16503906 -0.095703125 -0.09277344 0.12792969 -0.09375 0.042236328 0.21679688 -0.0859375 -0.05883789 0.16015625 0.037109375 0.017089844 0.0032653809 -0.13183594 -0.17480469 -0.27539062 -0.034179688 -0.10546875 0.072265625 -0.055419922 0.092285156 0.18164062 0.040039062 0.072753906 -0.14355469 0.13378906 -0.053710938 0.15234375 0.265625 0.24609375 -0.05419922 -0.071777344 -0.08496094 -0.25585938 -0.08300781 -0.032714844 0.08203125 0.00077056885 0.048095703 0.17089844 0.13964844 0.035888672 -0.06542969 -0.2734375 -0.22753906 0.095703125 -0.12597656 0.15332031 -0.30664062 -0.07861328 -0.08642578 -0.114746094 -0.029296875 -0.0067749023 0.04272461 -0.103515625
was 0.026000977 -0.0018920898 0.18554688 -0.051757812 0.005126953 -0.10986328 -0.008178711 -0.088378906 0.09667969 0.048339844 0.011047363 -0.36328125 0.08203125 -0.021240234 0.15820312 0.044189453 -0.011779785 0.21289062 -0.057373047 0.056640625 -0.107421875 0.18554688 0.07714844 0.0001449585 0.15234375 -0.06542969 -0.15234375 0.22558594 0.08105469 0.08886719 0.07324219 -0.103515625 -0.06689453 0.17675781 0.21289062 0.140625 -0.034179688 0.017822266 0.059570312 0.0002861023 0.05883789 0.009277344 0.16699219 -0.0027008057 0.115722656 0.10449219 0.053710938 0.018554688 0.10644531 0.05053711 -0.016479492 -0.12792969 0.21679688 0.051513672 0.047851562 0.15234375 0.171875 0.07861328 -0.05883789 -0.04296875 -0.072753906 0.18164062 -0.080566406 -0.15429688 -0.11669922 0.084472656 -0.061767578 -0.045166016 0.009216309 0.13378906 0.01928711 0.064453125 0.10888672 0.15820312 -0.02355957 0.123535156 0.16992188 0.03491211 0.12988281 0.265625 0.19335938 -0.088378906 0.08496094 -0.029663086 0.057617188 0.025146484 -0.1015625 0.19921875 0.10449219 -0.024291992 0.020141602 -0.03515625 0.06640625 -0.06201172 0.029052734 -0.09814453 -0.18164062 0.21484375 -0.057617188 -0.045166016 0.044921875 -0.01953125 -0.20898438 0.119628906 -0.09033203 0.05078125 0.009033203 -0.09765625 -0.07861328 -0.13671875 -0.11376953 -0.005645752 -0.040771484 -0.0020599365 -0.056640625 0.0036468506 0.08300781 -0.07080078 0.26367188 0.12451172 -0.016113281 0.091308594 -0.23925781 -0.010498047 -0.067871094 0.140625 0.234375 -0.063964844 0.1953125 0.05029297 -0.125 0.020629883 -0.119140625 -0.1171875 -9.012222e-05 0.036865234 0.14648438 0.024780273 -0.14941406 0.003036499 -0.03100586 0.106933594 0.25585938 -0.060058594 -0.20703125 0.15820312 -0.21582031 -0.18457031 -0.17285156 0.0079956055 -0.030395508 0.09814453 0.0046691895 0.2578125 0.106933594 0.12695312 0.06347656 -0.13085938 0.06542969 -0.099121094 0.05908203 -0.037109375 0.10107422 0.15332031 -0.15332031 -0.075683594 0.05859375 -0.05053711 0.20800781 0.048583984 -0.09423828 -0.09716797 -0.123046875 -0.19726562 -0.17675781 -0.111328125 0.111328125 -0.05883789 0.22753906 0.040039062 0.12451172 0.14746094 0.018188477 0.040527344 0.16992188 0.11376953 -0.022460938 0.06738281 0.0859375 0.06738281 0.020629883 0.047851562 0.018432617 0.20507812 -0.046875 0.20019531 -0.015625 -0.140625 0.010986328 -0.17382812 0.048583984 -0.15820312 -0.10449219 0.036376953 0.030151367 0.12792969 -0.11425781 0.14160156 0.234375 -0.08984375 -0.0010299683 -0.15039062 0.1796875 0.13574219 -0.20800781 -0.012756348 0.17578125 -0.13964844 -0.203125 -0.030029297 -0.027832031 -0.006500244 0.12695312 -0.14941406 0.14648438 -0.008422852 0.11230469 0.16601562 -0.01574707 0.123046875 0.072265625 -0.043701172 -0.075683594 -0.09033203 0.1015625 -0.14453125 -0.040039062 -0.0126953125 0.026611328 -0.078125 0.03564453 0.03491211 0.1796875 -0.13867188 0.028076172 -0.028686523 0.067871094 0.0703125 0.095703125 0.050048828 -0.022094727 -0.30078125 0.11425781 0.07519531 0.012634277 0.1328125 0.025268555 0.036376953 -0.028198242 -0.13671875 0.1796875 -0.09277344 0.08496094 0.1328125 0.039794922 0.4296875 -0.018798828 -0.14746094 0.061035156 0.09033203 0.08691406 -0.068847656 0.110839844 0.09814453 0.15039062 0.16113281 -0.080566406 -0.17480469 -0.033203125 -0.12890625 0.122558594 -0.014465332 -0.16308594 -0.035888672 0.027832031 -0.06347656 -0.07910156 -0.114746094 0.018432617 0.029174805 -0.30078125 -0.045898438 -0.17480469 0.23339844 0.022583008 0.11035156 -0.103515625 -0.12158203 0.22167969 -0.021972656
buy 0.060302734 -0.17871094 -0.09716797 0.27539062 -0.12451172 -0.028686523 0.21386719 -0.033203125 0.16308594 0.23632812 -0.1484375 -0.002456665 -0.19824219 0.11328125 -0.34765625 0.25976562 0.041259766 0.13183594 -0.045898438 0.06542969 0.08300781 0.1640625 0.12207031 0.11230469 0.17089844 0.06738281 0.040771484 0.17382812 -0.16503906 -0.13867188 0.03491211 0.34570312 -0.390625 -0.07128906 0.07128906 -0.042236328 0.0014801025 -0.080078125 -0.118652344 -0.018676758 0.04638672 0.1796875 0.07714844 -0.19433594 -0.20410156 -0.095214844 0.035888672 0.0703125 -0.171875 0.057861328 0.21777344 -0.013061523 0.07421875 -0.20507812 -0.10839844 -0.21875 -0.07910156 -0.09667969 -0.024780273 -0.09033203 0.07910156 0.06689453 -0.013977051 0.2890625 0.064453125 -0.13183594 -0.20117188 -0.103027344 -0.021850586 0.20898438 0.17285156 0.031982422 0.14648438 0.13183594 -0.03564453 0.004333496 -0.06347656 0.12402344 -0.16992188 0.041748047 0.08105469 -0.053222656 0.20898438 0.17675781 0.013671875 0.12597656 -0.032958984 0.38867188 0.0055236816 0.14160156 -0.01965332 0.30664062 -0.06225586 -0.125 0.1015625 -0.12695312 0.07714844 0.064941406 0.020874023 0.16601562 0.08935547 -0.16894531 -0.10595703 0.049804688 0.17675781 -0.16796875 -0.035888672 -0.02368164 -0.15722656 -0.099121094 0.076171875 0.14355469 -0.17382812 -0.16503906 0.3046875 0.104003906 -0.011962891 0.09472656 0.13867188 -0.17578125 0.26171875 -0.01586914 -0.25195312 0.10449219 -0.0037078857 -0.17382812 0.071777344 -0.115234375 0.28515625 -0.09667969 -0.052246094 0.091796875 0.09277344 0.19140625 0.10546875 0.11767578 -0.12695312 0.057861328 -0.23632812 0.17480469 0.19921875 -0.22265625 -0.036621094 -0.032958984 0.12597656 -0.010131836 -0.053955078 -0.38085938 0.0034942627 -0.30273438 0.103515625 -0.19628906 0.049560547 -0.078125 -0.16308594 -0.0031585693 -0.03491211 -0.009338379 -0.33398438 0.03466797 -0.072265625 -0.09667969 -0.03149414 -0.06689453 0.08886719 0.064453125 0.110839844 -0.23339844 0.09326172 -0.064941406 -0.41601562 0.00491333 0.060791016 -0.18261719 0.040527344 0.030151367 0.265625 0.01928711 -0.04736328 0.036621094 -0.20996094 -0.19140625 -0.095703125 0.0014419556 0.19140625 -0.5234375 -0.018798828 -0.017822266 -0.17382812 -0.18066406 -0.009521484 -0.07470703 -0.14941406 -0.10205078 0.115722656 0.048095703 0.12597656 0.07714844 -0.08984375 -0.21484375 -0.15527344 0.13964844 -0.0859375 0.06640625 -0.17480469 -0.016601562 0.14355469 -0.011169434 0.01586914 -0.13867188 0.109375 0.11425781 0.032470703 0.41601562 -0.029174805 0.39453125 0.3359375 -0.01361084 -0.063964844 -0.05834961 -0.1484375 0.16308594 -0.0079956055 0.033935547 0.09326172 0.103027344 -0.16601562 -0.12109375 0.053955078 -0.18164062 0.103515625 -0.07861328 0.119628906 0.024414062 0.3125 0.06982422 0.11035156 -0.06201172 0.06542969 -0.0016403198 -0.07861328 -0.017456055 -0.25195312 0.123535156 0.18164062 0.203125 0.14746094 -0.122558594 0.080078125 -0.16992188 0.15234375 0.111816406 0.076660156 0.107910156 -0.11425781 0.18554688 -0.010498047 0.23339844 0.11767578 0.28320312 -0.036132812 -0.24121094 0.037353516 -0.16113281 -0.046142578 -0.06225586 -0.25585938 -0.140625 0.030151367 -0.0034332275 -0.0011978149 0.16699219 0.32226562 0.123046875 0.13671875 0.041259766 -0.07080078 -0.21582031 -0.14941406 -0.13183594 -0.07470703 0.02331543 0.111816406 -0.06933594 -0.044189453 0.03149414 0.014038086 0.3046875 -0.052490234 -0.12792969 0.091796875 0.265625 -0.17871094 0.12011719 0.13769531 0.14257812 -0.011657715 -0.026123047 0.12988281 -0.14746094
refurbished -0.19824219 0.18261719 0.25 0.21386719 -0.29101562 -0.0625 -0.07861328 -0.16308594 0.22167969 0.18457031 -0.052734375 0.16601562 -0.07080078 0.047607422 0.20703125 -0.11669922 -0.09423828 0.041503906 0.080078125 0.109375 0.29296875 0.021118164 0.010375977 -0.072753906 -0.05859375 0.076171875 -0.16308594 0.18652344 0.008361816 -0.30664062 -0.072753906 -0.012084961 -0.3203125 0.17578125 0.32617188 -0.37109375 -0.26171875 -0.31835938 -0.103515625 -0.22363281 -0.15917969 0.037109375 0.00012302399 0.07763672 0.40820312 -0.14746094 -0.18164062 0.24707031 -0.37109375 0.045654297 0.25390625 0.13964844 -0.13183594 -0.39453125 -0.14355469 -0.044677734 0.0011749268 -0.18847656 0.026245117 0.07421875 -0.16503906 -0.07373047 -0.14453125 -0.17382812 0.16113281 0.009277344 -0.23242188 -0.03857422 -0.14550781 0.0046081543 0.48828125 -0.010009766 0.13671875 0.10205078 -0.18164062 -0.061767578 0.24121094 0.21679688 -0.14550781 -0.067871094 0.08935547 -0.12792969 0.021728516 0.053466797 -0.072265625 0.076660156 0.28320312 0.1953125 -0.17675781 0.07128906 -0.17089844 -0.043701172 0.046142578 0.24316406 -0.021362305 0.00982666 -0.19433594 -0.044677734 -0.019897461 -0.125 0.25 0.26953125 0.171875 0.056640625 -0.23144531 -0.055664062 0.12988281 0.0028686523 -0.08642578 0.008972168 -0.13671875 0.328125 -0.045654297 0.13671875 0.09667969 -0.0625 0.23046875 -0.068847656 0.22363281 0.028442383 -0.0009994507 -0.25195312 0.1796875 -0.15039062 -0.09863281 -0.05419922 -0.12695312 -0.110839844 0.079589844 0.003692627 0.07714844 0.017456055 -0.07421875 -0.072265625 -0.25585938 0.12207031 -0.16015625 -0.034423828 -0.41601562 0.04663086 -0.15039062 0.095703125 0.18652344 -0.125 0.13378906 -0.07470703 0.03491211 -0.11328125 -0.20605469 -0.15136719 0.009338379 -0.17480469 -0.099121094 0.096191406 0.006500244 0.103515625 -0.23925781 -0.021728516 -0.17480469 -0.26367188 0.15820312 0.111816406 0.107910156 0.099609375 -0.0024871826 -0.19238281 0.106933594 0.008422852 -0.079589844 -0.14746094 -0.13574219 -0.14941406 -0.10253906 -0.19921875 0.100097656 0.114746094 0.21875 -0.22949219 -0.06738281 0.23730469 -0.35546875 0.044921875 -0.07519531 -0.072265625 0.047851562 -0.32226562 0.31835938 0.16699219 -0.16210938 -0.004547119 -0.3515625 0.03466797 -0.09472656 0.24023438 -0.061035156 0.040283203 0.26757812 0.20019531 0.11621094 0.27148438 0.10595703 -0.011108398 -0.12011719 -0.27148438 0.08886719 0.007507324 -0.034423828 -0.16601562 0.109375 0.028564453 0.018432617 -0.036621094 -0.12890625 0.16894531 0.29882812 0.328125 -0.04345703 0.007171631 -0.118652344 0.025878906 -0.00982666 0.11669922 -0.16992188 0.23242188 0.10449219 -0.08984375 -0.4375 0.20800781 -0.45117188 -0.47070312 -0.2421875 -0.23730469 0.026977539 -0.14941406 -0.08886719 0.16503906 -0.032958984 0.08300781 0.13183594 0.23632812 0.057128906 -0.115234375 0.0546875 -0.27734375 -0.03857422 -0.07714844 0.004211426 -0.06542969 -0.0007171631 -0.14355469 -0.027954102 0.35742188 0.06738281 0.045654297 0.046142578 0.06298828 0.071777344 -0.07080078 -0.22265625 0.0064697266 -0.088378906 0.15136719 -0.048828125 0.14550781 0.34179688 -0.14160156 0.022338867 -0.13378906 0.032226562 0.19726562 0.19042969 -0.056396484 0.08544922 -0.3125 0.09423828 -0.37695312 0.119628906 -0.22851562 -0.11376953 -0.16210938 -0.43554688 0.07080078 -0.055419922 -0.091796875 0.33203125 -0.14355469 -0.0625 0.0078125 0.26367188 0.106933594 -0.19042969 0.080566406 -0.26367188 -0.25390625 0.22558594 0.0070495605 0.15820312 -0.12109375 0.114746094 -0.24023438
phone -0.014465332 -0.12792969 -0.115722656 -0.22167969 -0.07373047 -0.059814453 -0.100097656 -0.068847656 0.14941406 0.10107422 -0.030761719 -0.032714844 -0.03125 -0.107910156 0.12158203 0.16015625 0.19335938 0.006591797 -0.15429688 0.037109375 0.22753906 0.1953125 0.08300781 0.036865234 -0.021484375 0.014831543 -0.21289062 0.16015625 0.29101562 -0.03149414 -0.05883789 0.044189453 -0.11767578 -0.12597656 0.084472656 -0.107910156 -0.11279297 0.17871094 0.044677734 0.17675781 -0.17089844 -0.021606445 -0.00061416626 -0.17480469 -0.047607422 0.068359375 -0.0546875 0.044677734 -0.19628906 -0.18554688 -0.10839844 -0.060302734 0.114746094 0.08544922 0.05859375 0.23925781 -0.07080078 0.11816406 -0.111328125 0.08300781 -0.043945312 0.00970459 -0.1484375 0.265625 -0.13769531 0.23535156 -0.19824219 0.31445312 0.02734375 0.16894531 0.20898438 -0.048095703 0.16015625 -0.0014724731 -0.13085938 -0.013122559 0.07763672 0.22851562 0.13867188 -0.2578125 0.061767578 0.03955078 0.13867188 0.08154297 0.002105713 -0.052978516 0.032226562 0.021484375 -0.21582031 0.30664062 -0.057617188 0.02722168 -0.28320312 -0.4140625 0.017456055 0.041015625 0.0035247803 0.11279297 0.046875 -0.099609375 -0.18945312 -0.24707031 0.10058594 0.35546875 0.15625 0.02319336 0.125 -0.12402344 0.13378906 0.17578125 0.064941406 -0.10644531 0.0071411133 -0.40234375 0.019897461 0.11376953 -0.10644531 -0.19921875 0.29492188 0.15527344 -0.13574219 0.16601562 -0.18457031 0.28125 0.16992188 -0.04345703 -0.203125 0.023803711 0.0026855469 0.125 -0.14550781 -0.24121094 -0.125 -0.123046875 -0.012512207 -0.203125 0.111328125 0.048583984 -0.022460938 -0.19238281 0.0022125244 -0.13378906 -0.11035156 0.1796875 0.14648438 0.119140625 -0.05419922 -0.3046875 -0.14257812 -0.0019454956 0.296875 0.34179688 -0.063964844 -0.0095825195 0.15527344 -0.064941406 -0.12792969 0.04736328 0.006866455 0.07910156 -0.31445312 0.15039062 -0.005584717 -0.008544922 -0.19726562 0.045654297 -0.0859375 -0.3125 -0.049316406 -0.17480469 0.23632812 0.018920898 -0.014709473 -0.23632812 -0.48828125 -0.09667969 0.26953125 0.2265625 -0.33007812 0.018554688 -0.15332031 -0.13769531 -0.24316406 0.12109375 0.43945312 0.05078125 -0.01574707 0.14550781 -0.27148438 0.052490234 -0.12060547 -0.107421875 -0.22070312 0.111328125 0.007659912 0.234375 -0.2734375 0.005126953 -0.017089844 0.022583008 -0.010314941 0.19433594 0.072265625 0.021850586 0.009155273 0.15722656 -0.017333984 -0.01928711 -0.088378906 0.0126953125 0.041259766 -0.056152344 -0.08105469 -0.40625 0.048828125 0.15136719 -0.060302734 -0.107910156 -0.3125 0.0024719238 0.080078125 0.203125 -0.087890625 0.06640625 0.034179688 0.20898438 -0.29101562 0.20703125 -0.23730469 -0.05517578 0.057373047 -0.13769531 -0.34960938 -0.20214844 0.13671875 -0.28710938 0.00592041 -0.21289062 -0.25585938 0.013977051 0.3203125 -0.011230469 -0.08544922 -0.16210938 0.22558594 0.05126953 0.21386719 -0.0055236816 0.059326172 -0.063964844 -0.040039062 0.21191406 0.122558594 -0.029541016 0.18554688 0.07421875 0.20605469 -0.40429688 -0.057617188 -0.095214844 -0.008300781 -0.14257812 -0.22265625 -0.22363281 -0.16601562 0.29492188 -0.0119018555 -0.111328125 -0.08642578 -0.19140625 0.018188477 0.17675781 0.040771484 -0.2734375 -0.007080078 -0.09472656 0.32421875 0.053222656 0.046875 0.11376953 0.15722656 0.06201172 0.072753906 -0.091796875 -0.095214844 -0.10839844 0.07470703 0.107421875 -0.028564453 0.16015625 -0.07910156 0.15722656 -0.061523438 -0.17480469 0.080078125 -0.13671875 -0.18359375 -0.052001953 -0.005859375 -0.15625
on 0.026733398 -0.09082031 0.027832031 0.20410156 0.006225586 -0.09033203 0.022583008 -0.16113281 0.1328125 0.061035156 -0.01574707 0.088378906 0.013793945 0.04638672 -0.055908203 -0.06689453 0.012268066 0.13671875 0.15429688 -0.046142578 -0.03930664 -0.15429688 -0.16503906 0.107910156 0.033203125 -0.05102539 0.037109375 0.1015625 0.11035156 0.020507812 0.0067749023 0.0011825562 -0.012512207 -0.125 0.014831543 -0.026855469 -0.021484375 0.015075684 0.13867188 0.048583984 -0.076660156 -0.11669922 0.106933594 0.041748047 0.012817383 -0.009460449 -0.028930664 -0.03857422 0.24316406 0.009521484 0.022094727 0.22265625 0.009155273 -0.045410156 -0.03540039 0.140625 -0.18457031 0.07763672 0.041503906 -0.08496094 -0.099121094 0.05834961 -0.09667969 -0.20214844 -0.014038086 -0.0023651123 0.14746094 0.20019531 0.059570312 0.15429688 0.13476562 0.005279541 0.125 0.08544922 -0.027709961 -0.05810547 0.18359375 0.007873535 -0.15332031 0.12402344 -0.080078125 -0.14355469 0.14941406 0.014587402 0.107910156 -0.20117188 -0.15039062 0.052490234 0.07714844 0.091796875 -0.038085938 0.1484375 0.0546875 -0.15136719 0.014282227 -0.10498047 0.019042969 -0.06347656 0.053466797 0.03491211 0.13964844 -0.13378906 0.21679688 -0.19433594 -0.05834961 -0.13476562 -0.265625 -0.104003906 0.03540039 -0.21582031 0.08251953 0.045166016 -0.06982422 -0.04321289 0.026977539 -0.09033203 0.005493164 0.049804688 -0.03564453 0.059814453 -0.14941406 -0.022094727 -0.033203125 0.17578125 -0.06640625 -0.018310547 0.011291504 -0.042236328 -0.07714844 0.017456055 -0.10498047 -0.10449219 -0.04736328 -0.029541016 -0.061523438 -0.05078125 -0.025634766 -0.095214844 -0.08105469 -0.1015625 0.20214844 0.118652344 -0.002822876 -0.060302734 0.022460938 0.13085938 0.080566406 -0.15429688 -0.08251953 0.16015625 0.057861328 0.09765625 -0.020996094 -0.045166016 -0.07324219 0.0043640137 -0.09082031 0.019165039 -0.016601562 -0.05029297 0.014709473 -0.0041503906 0.03466797 0.057373047 0.080078125 0.006225586 0.063964844 0.024536133 0.03173828 -0.125 -0.078125 -0.024536133 -0.072265625 -0.08642578 -0.07714844 0.04345703 -0.00018787384 -0.011413574 -0.099121094 0.026245117 0.053466797 0.045410156 -0.07128906 0.13867188 0.041015625 0.011169434 -0.015319824 0.032958984 0.18261719 0.017456055 -0.031982422 0.107910156 0.032958984 -0.03515625 -0.21777344 0.10205078 -0.029296875 -0.0009460449 -0.0071411133 -0.026367188 0.061767578 -0.016967773 -0.021728516 -0.119140625 0.009094238 0.103027344 -0.0030059814 0.14941406 0.10595703 -0.040283203 -0.018432617 0.035888672 -0.038085938 0.056884766 0.015319824 0.01977539 0.18066406 0.008178711 -0.15136719 0.032226562 0.15722656 0.05078125 -0.028930664 0.043945312 -0.05859375 0.0030975342 -0.012634277 0.16113281 0.10595703 -0.033935547 0.18164062 -0.044677734 0.034179688 -0.037841797 -0.008850098 -0.036865234 0.07861328 0.02709961 0.046142578 0.068847656 0.05053711 -0.0017471313 -0.13671875 -0.15332031 0.09863281 -0.16113281 0.0066223145 -0.0859375 -0.017578125 0.040771484 0.029907227 0.011413574 -0.020263672 -0.064453125 0.017456055 -0.12890625 -0.00034713745 0.042236328 0.0032958984 0.122558594 -0.095703125 0.092285156 0.10498047 -0.12451172 0.035888672 0.14550781 -0.10546875 0.022949219 -0.008361816 0.004638672 0.21972656 -0.049560547 0.23828125 -0.05834961 0.048339844 0.060546875 -0.037353516 -0.17773438 0.044921875 -0.042236328 0.08251953 0.11035156 -0.109375 0.09423828 -0.072265625 0.049072266 -0.15820312 0.078125 0.029541016 -0.12109375 0.026855469 -0.027954102 0.030883789 0.040527344 -0.13085938 0.08300781 0.01574707 -0.11669922 -0.029418945 -0.07080078
Amazon 0.20410156 0.05493164 -0.26953125 0.14355469 0.0134887695 -0.05053711 -0.25585938 0.20605469 -0.06640625 0.071777344 -0.033203125 0.13378906 0.12988281 -0.25 0.10449219 0.01574707 0.14941406 -0.01953125 0.40429688 -0.02722168 -0.033691406 -0.34179688 -0.29882812 0.118652344 0.020629883 -0.24609375 -0.056640625 -0.0859375 -0.123046875 -0.27734375 -0.015991211 0.32226562 -0.5703125 -0.28515625 -0.061279297 -0.12792969 -0.15429688 -0.4296875 0.03112793 0.15429688 0.18066406 0.20214844 -0.048828125 -0.0017700195 -0.084472656 -0.2109375 -0.14257812 -0.13964844 -0.10986328 -0.26367188 0.21777344 -0.044921875 -0.21289062 -0.37890625 0.12695312 0.1640625 -0.41992188 -0.23925781 -0.115722656 -0.20800781 -0.03173828 0.080078125 -0.18457031 0.13378906 -0.44140625 -0.084472656 0.035888672 -0.033691406 -0.09277344 -0.17089844 -0.16894531 -0.03466797 0.043945312 -0.07861328 -0.16699219 -0.17675781 0.14355469 -0.32421875 -0.064941406 0.09326172 0.08642578 0.18847656 -0.13769531 -0.14648438 0.056640625 -0.13085938 0.42382812 0.3828125 -0.049560547 0.21289062 -0.096191406 0.20898438 -0.30273438 -0.041503906 -0.08154297 -0.095214844 0.11230469 0.02758789 0.05419922 0.13476562 0.123535156 -0.13964844 -0.25585938 -0.059814453 0.14355469 -0.046875 -0.203125 -0.20019531 -0.09765625 -0.27929688 -0.171875 -0.088378906 -0.03881836 0.22558594 -0.18261719 -0.09765625 -0.12792969 -0.13085938 -0.064453125 0.41992188 0.043701172 -0.09863281 -0.38476562 -0.007873535 0.060546875 0.052978516 0.10253906 0.14160156 -0.38671875 -0.067871094 -0.17773438 -0.016235352 -0.21679688 -0.15039062 -0.006500244 0.036621094 -0.40625 -0.3125 0.10888672 -0.25585938 0.15625 -0.36523438 0.040771484 -0.171875 0.08691406 -0.14160156 0.39257812 0.14746094 -0.29492188 -0.31835938 0.43945312 -0.038085938 -0.38671875 0.2265625 0.028930664 -0.09716797 0.118652344 0.17480469 -0.265625 0.18066406 0.12060547 -0.013000488 0.25 0.013244629 0.017700195 -0.13183594 0.034179688 -0.40625 -0.17773438 0.20605469 -0.13085938 -0.052001953 0.07128906 -0.19042969 -0.12158203 -0.083984375 0.13867188 -0.40039062 -0.16992188 0.19238281 -0.39453125 -0.19042969 -0.007873535 -0.29296875 0.11328125 0.044433594 -0.23828125 0.22265625 -0.203125 -0.028930664 -0.12207031 -0.072753906 -0.052734375 -0.375 0.17285156 0.16699219 -0.17675781 -0.27734375 -0.15917969 -0.32421875 0.119140625 0.17382812 0.14648438 0.22070312 -0.03930664 0.5078125 0.02734375 -0.10644531 -0.54296875 0.15820312 -0.0029449463 0.27539062 -0.20605469 0.103027344 -0.25390625 0.12451172 0.34375 0.063964844 -0.25 -0.099609375 -0.15917969 0.29101562 0.16992188 0.051513672 -0.14453125 -0.16210938 0.12207031 -0.009277344 0.3203125 0.3515625 -0.111328125 -0.17871094 -0.23535156 -0.19335938 0.41796875 0.35742188 0.16992188 0.011779785 -0.16992188 0.24316406 0.019042969 -0.1953125 -0.07910156 -0.19921875 -0.052978516 -0.28320312 0.23535156 -0.05517578 0.064453125 0.17578125 -0.62109375 0.11816406 -0.020141602 0.106933594 0.03466797 -0.00982666 -0.010253906 0.15527344 0.27539062 -0.17578125 0.1328125 0.21191406 0.122558594 0.11767578 -0.29101562 0.05126953 -0.23828125 -0.0045166016 0.33398438 -0.13574219 -0.091308594 0.20996094 -0.06933594 -0.114746094 0.2421875 0.10449219 -0.044677734 -0.008972168 0.09082031 0.0036621094 0.15429688 -0.072753906 -0.001663208 0.16699219 0.118652344 -0.041503906 -0.28710938 0.22363281 -0.10888672 0.03881836 0.28320312 -0.07421875 -0.24023438 0.017456055 0.40039062 -0.08886719 0.35351562 0.0076904297 0.17480469 0.13085938
after 0.09375 -0.050048828 0.17480469 -0.125 0.0859375 -0.041503906 -0.107421875 -0.111816406 0.10888672 0.03955078 -0.004211426 -0.28515625 -0.03173828 0.068359375 -0.100097656 0.05053711 0.12597656 0.06347656 0.22558594 -0.017456055 -0.045898438 0.05883789 -0.12402344 0.038330078 0.08105469 0.06298828 0.095214844 0.100097656 0.27148438 0.14648438 0.015319824 -0.078125 -0.15820312 0.08886719 -0.059326172 0.025634766 -0.043701172 -0.08154297 0.0069274902 0.16015625 0.045410156 -0.265625 0.19433594 -0.045410156 0.10986328 0.0859375 -0.088378906 -0.15820312 0.053710938 0.15917969 0.048828125 -0.024902344 -0.018310547 0.20898438 -0.09082031 0.17382812 -0.005493164 -0.010314941 0.119140625 -0.1796875 -0.14648438 -0.0002784729 -0.13671875 -0.017578125 -0.056640625 0.037841797 0.0625 0.040283203 0.0029144287 0.12207031 -0.09814453 0.0079956055 0.060302734 0.15820312 -0.0061035156 0.04272461 0.09423828 0.15039062 -0.004852295 0.11767578 -0.051513672 0.0859375 0.032714844 -0.15136719 0.018920898 -0.15722656 -0.03564453 0.020629883 0.010986328 0.06982422 0.032958984 0.25585938 0.087890625 -0.018554688 -0.037353516 -0.24414062 -0.08691406 -0.10205078 0.030883789 0.049560547 0.12988281 -0.09814453 0.055419922 0.018188477 -0.03173828 -0.21191406 0.09375 -0.045410156 -0.100097656 -0.033691406 0.09472656 0.25 0.18261719 -0.19921875 -0.1171875 0.111816406 -0.07324219 0.037841797 0.099609375 0.2421875 -0.0859375 -0.004058838 -0.07763672 -0.043701172 0.080078125 -0.0390625 0.06225586 -0.07421875 0.060546875 0.15527344 0.12988281 -0.16015625 -0.18359375 -0.080078125 -0.18164062 -0.03149414 0.011779785 -0.092285156 -0.12890625 0.16308594 -0.0061950684 -0.022094727 0.12109375 0.015563965 -0.099121094 0.00062561035 -0.06933594 -0.068359375 -0.19335938 -0.050048828 0.041503906 0.14257812 -0.03112793 0.12207031 0.06591797 -0.040771484 -0.125 -0.033203125 -0.047851562 0.076171875 -0.029174805 0.032958984 0.16992188 0.103515625 0.002670288 -0.16308594 0.06225586 0.048583984 0.053955078 -0.005126953 -0.008300781 -0.15917969 -0.23535156 0.03149414 -0.091308594 -0.12158203 0.027954102 0.125 0.07373047 0.02368164 -0.0035247803 -0.099609375 -0.061035156 0.20703125 0.11328125 0.091308594 0.005554199 0.052978516 0.21972656 -0.03930664 0.045410156 -0.088378906 -0.012084961 0.13476562 -0.28710938 -0.049560547 0.07080078 -0.048095703 0.028930664 -0.07519531 -0.06298828 -0.21484375 0.040283203 -0.0076293945 0.18261719 -0.095703125 -0.025146484 0.0234375 0.07470703 -0.18847656 -0.08691406 -0.011108398 0.061035156 0.076660156 -0.039794922 -0.0069274902 -0.022460938 0.0024414062 -0.1953125 0.17382812 0.095703125 0.17675781 -0.007537842 -0.010620117 0.20117188 -0.06347656 -0.055664062 0.0078125 0.09716797 -0.026977539 0.078125 -0.053710938 -0.025512695 0.0012130737 -0.04638672 -0.067871094 0.20800781 0.05859375 -0.038330078 0.11816406 -0.08300781 -0.017333984 0.041992188 -0.10253906 0.037597656 0.031982422 0.110839844 0.13574219 0.17382812 -0.034179688 0.0703125 -0.09765625 0.11279297 0.011779785 -0.03466797 0.026489258 0.18164062 0.13867188 0.049804688 0.026611328 0.06298828 0.11376953 0.09472656 0.15820312 0.123046875 0.080078125 -0.052001953 0.14160156 0.03149414 0.072753906 0.079589844 -0.059570312 0.13085938 -0.076660156 0.068359375 -0.15234375 -0.24023438 -0.13769531 0.063964844 -0.123535156 0.11767578 -0.038085938 -0.18847656 0.19335938 -0.11376953 0.12402344 -0.1484375 -0.07080078 -0.008361816 0.103515625 -0.027709961 -0.0039367676 -0.05053711 0.0115356445 -0.04321289 -0.049804688 -0.16699219 0.008361816 0.063964844 -0.026367188
reading 0.10253906 -0.024291992 -0.14160156 0.328125 -0.099609375 0.21582031 -0.08935547 0.20996094 0.07714844 0.14941406 0.15625 0.07763672 -0.11669922 0.11816406 -0.16113281 -0.09277344 0.006958008 -0.100097656 0.22070312 -0.29101562 0.16992188 0.14355469 -0.13964844 -0.033935547 -0.022705078 -0.036865234 0.03466797 0.11621094 -0.12890625 -0.004699707 -0.25390625 -0.34179688 -0.24609375 0.020263672 0.018188477 0.010559082 -0.09033203 0.037597656 0.05444336 0.07421875 -0.1796875 -0.0011138916 0.3203125 0.119628906 -0.064453125 0.18359375 -0.009521484 -0.11621094 -0.29492188 0.033691406 -0.0625 -0.18066406 0.07373047 -0.025268555 0.37890625 0.3359375 -0.049072266 -0.14160156 -0.032470703 0.095703125 -0.03466797 -0.009094238 -0.171875 -0.16699219 0.30859375 0.31640625 -0.34960938 0.15527344 0.08300781 0.061035156 0.15917969 -0.18359375 0.22265625 -0.053466797 -0.080078125 0.009399414 0.20410156 0.17089844 0.3203125 0.2578125 0.078125 -0.016479492 0.16308594 0.17089844 0.11230469 -0.110839844 0.0064697266 0.30859375 0.08935547 -0.076171875 0.04321289 -0.22558594 0.12011719 -0.08105469 -0.1875 0.012817383 0.33789062 -0.015563965 -0.05102539 -0.122558594 0.020141602 -0.22363281 0.14550781 -0.12597656 0.15332031 -0.03540039 -0.1328125 0.022827148 -0.21289062 -0.27734375 0.052490234 0.20996094 -0.13085938 0.11669922 0.17480469 -0.07763672 0.040283203 0.31640625 -0.023803711 -0.15722656 0.01940918 0.13867188 -0.032958984 0.09716797 0.05102539 0.029785156 -0.057861328 -0.08544922 -0.42382812 0.21386719 -0.25976562 -0.21972656 -0.17578125 -0.16210938 0.10546875 0.12988281 0.103515625 -0.106933594 0.13867188 -0.22460938 0.16699219 -0.026489258 -0.53125 -0.23828125 0.03112793 -0.060546875 -0.20703125 -0.103027344 -0.041992188 -0.23535156 0.24316406 -0.00037002563 -0.17773438 0.24023438 -0.07324219 -0.109375 -0.2734375 -0.19921875 -0.14746094 0.19726562 -0.014953613 0.0073242188 0.020385742 0.19824219 0.02709961 -0.008361816 0.40234375 -0.08251953 -0.05810547 -0.08251953 -0.059814453 -0.01361084 -0.21972656 -0.19921875 -0.080566406 0.22558594 -0.15917969 -0.1953125 0.118652344 -0.23339844 0.011352539 -0.12597656 -0.045166016 -0.11425781 0.17578125 0.03540039 -0.41601562 -0.018798828 0.20996094 -0.16113281 0.14648438 -0.012878418 -0.20898438 -0.03881836 0.0038604736 0.3046875 0.16796875 -0.08935547 -0.115234375 -0.026611328 -0.16210938 -0.064453125 -0.04638672 -0.13574219 0.043701172 -0.20117188 -0.19921875 0.04736328 -0.14257812 -0.12597656 0.038085938 0.06225586 -0.034423828 -0.1953125 -0.2578125 0.05053711 0.4296875 0.09814453 -0.091308594 -0.100097656 0.09667969 -0.00340271 -0.022216797 -0.19238281 0.11425781 -0.001663208 0.022094727 0.06347656 0.026611328 -0.087890625 0.07324219 -0.10888672 -0.118652344 0.12792969 0.05834961 -0.028564453 0.103027344 0.22460938 0.26757812 -0.004760742 0.021728516 0.15527344 0.15820312 -0.056396484 0.05834961 -0.016723633 0.15332031 0.010009766 -0.38867188 -0.015625 -0.17871094 0.1484375 -0.15625 0.21679688 -0.04321289 -0.03173828 -0.048828125 0.08886719 -0.06298828 0.10205078 -0.034423828 0.03857422 0.13964844 -0.09326172 -0.16601562 0.12695312 0.07714844 0.08544922 0.16992188 -0.05126953 0.15429688 0.095214844 0.104003906 0.25585938 0.07861328 0.020141602 0.050048828 -0.20117188 -0.18359375 -0.06982422 0.20703125 -0.1796875 -0.04321289 -0.044677734 0.104003906 0.026245117 0.059326172 0.22070312 -0.03930664 0.15917969 -0.16308594 -0.15429688 0.06933594 -0.040771484 0.12451172 -0.12890625 -0.118652344 0.17480469 0.03491211 0.07519531
many 0.19335938 -0.004333496 -0.032226562 0.13964844 -0.020263672 -0.100097656 -0.0625 -0.0020599365 0.15234375 0.061279297 -0.12988281 -0.14355469 -0.025024414 0.13183594 -0.10986328 0.028808594 0.027709961 0.13964844 -0.16699219 -0.08642578 -0.00680542 -0.10986328 0.06225586 -0.057128906 0.022338867 0.050048828 -0.09277344 -0.033935547 -0.020751953 -0.21875 0.021606445 0.022827148 0.13769531 -0.12207031 0.050048828 -0.11816406 0.13769531 -0.12402344 0.04345703 -0.060302734 0.34960938 0.049560547 -0.041748047 0.07324219 0.009643555 0.017333984 -0.17089844 0.06982422 -0.14550781 -0.07373047 0.05126953 0.049560547 -0.25976562 -0.040527344 -0.063964844 0.015991211 0.01940918 -0.005126953 0.05053711 0.12890625 0.064453125 0.24804688 -0.030883789 -0.09033203 -0.075683594 -0.1484375 -0.0546875 0.099609375 -0.0019073486 0.0022277832 0.032958984 0.15820312 0.10449219 -0.07128906 -0.16992188 -0.118652344 -0.09423828 0.060791016 0.016967773 0.114746094 -0.03881836 -0.09716797 -0.079589844 -0.09472656 -0.31835938 -0.03515625 -0.22949219 -0.09716797 -0.14550781 -0.11767578 0.111328125 0.16015625 -0.091308594 -0.03149414 0.010925293 0.15136719 0.0107421875 0.012390137 0.020629883 0.09423828 -0.012939453 -0.053222656 0.072753906 0.14257812 -0.05419922 0.06689453 0.030029297 -0.091796875 0.25195312 -0.24511719 -0.051757812 0.05126953 0.053222656 -0.01965332 0.171875 -0.06347656 0.13085938 -0.05102539 0.11621094 -0.028808594 -0.119628906 0.20800781 -0.16796875 -0.024047852 0.045898438 -0.12451172 -0.10449219 0.072753906 -0.024658203 0.123535156 0.09423828 -0.10546875 -0.07763672 -0.16699219 -0.0045776367 -0.024169922 -0.0011978149 0.06933594 0.10205078 -0.04711914 -0.100097656 -0.024536133 0.20507812 0.028808594 0.27734375 0.088378906 0.020751953 0.028686523 -0.24609375 0.024658203 -0.07470703 -0.033447266 -0.15917969 -0.025146484 -0.07763672 -0.010375977 -0.023925781 0.0071105957 -0.095214844 0.01373291 -0.109375 0.12792969 -0.115234375 -0.08300781 0.23144531 -0.017089844 -0.04272461 -0.0011825562 0.15917969 -0.088378906 -0.3359375 0.23535156 -0.12597656 -0.25585938 0.12890625 -0.027954102 -0.16015625 -0.22460938 0.08984375 -0.025512695 -0.10595703 -0.11425781 -0.057373047 -0.10839844 0.07080078 0.06689453 -0.10449219 0.11621094 -0.011779785 0.10253906 0.12597656 -0.103515625 0.119140625 -0.18554688 -0.08544922 -0.020019531 -0.07519531 -0.04321289 0.021484375 -0.044189453 0.05029297 0.12109375 -0.030151367 -0.13964844 -0.11425781 -0.05078125 -0.15136719 -0.03955078 -0.122558594 0.08544922 -0.107421875 -0.095703125 0.12597656 -0.09033203 -0.0048828125 -0.028198242 0.22070312 0.06982422 -0.21191406 -0.0859375 -0.055908203 -0.100097656 -0.12109375 -0.067871094 0.18164062 -0.1875 0.052001953 -0.055419922 -0.04663086 0.07373047 0.010498047 0.095214844 0.18261719 0.008361816 0.19335938 -0.11279297 -0.09423828 -0.23730469 -0.09375 -0.002609253 -0.07128906 -0.030517578 -0.036621094 -0.18261719 0.060546875 0.015075684 -0.0010757446 -0.060302734 -0.15917969 0.020263672 -0.111816406 0.099121094 0.11621094 -0.08300781 -0.040039062 -0.00088882446 0.15039062 0.075683594 -0.1796875 -0.17382812 0.045898438 -0.08154297 -0.13574219 -0.005218506 0.08642578 0.091796875 -0.028320312 0.079589844 0.0027618408 0.010498047 0.22265625 0.14160156 -0.010253906 0.18359375 -0.005706787 -0.02368164 -0.1171875 -0.048583984 -0.068359375 -0.1953125 0.10107422 -0.028808594 0.048828125 -0.022583008 -0.06542969 0.04345703 -0.041259766 0.057861328 -0.045166016 0.203125 -0.17480469 -0.122558594 -0.14746094 -0.08886719 -0.075683594 0.07861328 0.07519531 0.052001953 0.02758789 -0.006591797
negative 0.031982422 -0.0703125 0.109375 -0.14160156 -0.22460938 0.07861328 -0.087402344 0.107910156 0.29882812 0.21777344 -0.10546875 -0.118652344 0.25976562 0.23339844 -0.19042969 0.19628906 0.03515625 0.13183594 0.04345703 -0.03173828 -0.083984375 0.17382812 -0.018554688 -0.08691406 -0.052490234 0.048339844 0.12695312 -0.11328125 0.28320312 0.004211426 -0.1796875 -0.265625 -0.0046081543 -0.11669922 0.025146484 0.0029907227 -0.07128906 0.203125 -0.12451172 -0.23046875 0.045410156 -0.08935547 0.13183594 0.064453125 -0.23730469 -0.03149414 0.17578125 -0.04248047 0.07421875 -0.017578125 0.109375 -0.07128906 -0.24902344 0.1796875 -0.036865234 -0.029907227 -0.025634766 -0.1796875 0.1640625 -0.08642578 -0.021362305 0.100097656 -0.056152344 0.06347656 0.25585938 -0.071777344 0.14746094 0.11279297 -0.15136719 0.11376953 -0.045410156 -0.24023438 -0.075683594 0.044921875 -0.034179688 -0.055908203 0.1953125 0.36914062 -0.05102539 0.123046875 0.05810547 -0.17578125 -0.056884766 0.22949219 0.055664062 -0.22949219 -0.53515625 0.1875 -0.14648438 -0.109375 0.075683594 0.006286621 0.0043640137 0.041503906 -0.20605469 0.07861328 0.20214844 0.25976562 0.31835938 0.19335938 0.045166016 -0.20898438 0.18847656 -0.20019531 0.20898438 -0.23144531 -0.17382812 -0.057373047 0.28320312 -0.48632812 -0.22949219 0.052246094 -0.18457031 -0.1640625 0.13378906 -0.24511719 -0.024658203 0.10449219 0.20410156 0.02746582 -0.042236328 -0.028076172 -0.2890625 0.075683594 -0.12792969 -0.122558594 0.21386719 0.00491333 -0.21289062 -0.10546875 0.041015625 0.00390625 0.029174805 0.115722656 0.12597656 -0.107421875 0.18554688 0.15917969 -0.012084961 -0.049072266 0.091796875 0.06933594 -0.20214844 0.037597656 -0.13476562 -0.36914062 -0.11279297 0.103515625 -0.075683594 -0.068847656 0.15136719 -0.061767578 -0.11230469 0.29101562 -0.20898438 0.07861328 -0.19140625 -0.23339844 0.027954102 0.047607422 -0.28125 0.25585938 0.38476562 0.110839844 0.087890625 0.088378906 -0.011352539 0.20214844 0.14550781 -0.07910156 -0.08886719 -0.055908203 0.029663086 0.040771484 0.014953613 0.15917969 0.30664062 0.029785156 -0.026489258 -0.18359375 -0.030517578 -0.03491211 0.076660156 0.32617188 0.14550781 -0.025756836 -0.09765625 0.21972656 0.006713867 0.37109375 -0.049316406 0.023803711 -0.088378906 0.12890625 0.09716797 0.048339844 0.03491211 0.18164062 0.022583008 0.029296875 0.13183594 0.3203125 -0.052246094 -0.21386719 -0.13574219 0.15136719 0.0016937256 -0.17480469 -0.109375 -0.08154297 -0.09716797 -0.052001953 -0.3984375 0.17675781 -0.018920898 -0.16308594 -0.008239746 -0.03491211 0.07373047 -0.12988281 0.024536133 0.4140625 -0.27734375 -0.15039062 -0.030029297 -0.022216797 0.0546875 0.05883789 0.028320312 0.08886719 0.051513672 0.11767578 0.17480469 -0.08886719 0.13085938 -0.07763672 0.0625 -0.17871094 0.109375 -0.029174805 0.20703125 -0.029785156 0.31054688 -0.040527344 -0.059326172 -0.0134887695 -0.1015625 0.24023438 -0.17480469 0.03515625 0.359375 -0.028076172 0.06933594 -0.014221191 -0.33398438 -0.390625 0.203125 0.2734375 0.28125 0.038085938 -0.10058594 0.032958984 0.18554688 0.08984375 0.107910156 0.12988281 -0.1328125 0.010437012 0.0625 0.09667969 0.100097656 0.23242188 -0.05883789 -0.03881836 0.076660156 0.06542969 0.14746094 0.12890625 0.03125 0.23535156 -0.0062561035 0.11035156 0.0057373047 0.037841797 -0.015991211 -0.10449219 0.038330078 -0.06933594 -0.06982422 -0.1875 -0.13867188 0.36914062 0.04321289 0.020141602 -0.10107422 0.10253906 0.056396484 0.053955078 0.12207031 0.01965332
reviews -0.27929688 0.030029297 -0.18164062 -0.07714844 -0.07373047 -0.029174805 -0.20214844 -0.16015625 0.015380859 0.080566406 0.007019043 0.08105469 0.0625 -0.048095703 0.17675781 0.31640625 0.060546875 0.0007019043 -0.04248047 -0.23144531 0.28515625 0.13574219 -0.1875 -0.18652344 -0.061035156 -0.038330078 0.015075684 0.15527344 0.076171875 -0.12060547 -0.20605469 -0.016235352 -0.20605469 -0.06640625 0.12011719 0.12158203 -0.071777344 0.067871094 0.10986328 -0.140625 -0.012390137 -0.20019531 -0.13769531 0.38085938 -0.01373291 -0.09375 0.16113281 -0.1796875 -0.22363281 -0.07421875 0.23730469 0.032958984 -0.09863281 0.32617188 -0.004486084 0.049560547 -0.08544922 -0.23632812 0.033691406 0.008972168 -0.059570312 0.14160156 -0.16503906 -0.15136719 0.013916016 0.25 -0.16796875 0.07421875 -0.19140625 -0.08496094 0.06933594 -0.122558594 -0.016357422 -0.0058288574 -0.23046875 -0.13964844 -0.021972656 0.25390625 -0.109375 0.4921875 0.014221191 -0.1015625 0.09277344 0.16210938 0.03149414 -0.11816406 -0.14550781 0.14746094 -0.17773438 -0.33984375 -0.07861328 -0.045654297 0.091308594 0.18847656 0.020996094 -0.13867188 -0.3046875 0.0041503906 0.079589844 0.060302734 0.17578125 0.051757812 0.15527344 -0.07373047 -0.049316406 -0.17382812 -0.39453125 -0.045166016 0.099121094 -0.31835938 0.10058594 0.32226562 0.03564453 -0.08154297 0.3828125 0.01965332 -0.23339844 0.25585938 0.41601562 0.011962891 -0.19921875 0.21484375 -0.10546875 0.16601562 0.48828125 0.034179688 0.15625 -0.010864258 -0.2421875 -0.22265625 -0.45898438 -0.19140625 -0.18945312 0.15332031 -0.2265625 0.14355469 0.013427734 0.12597656 0.171875 -0.103027344 0.23535156 -0.020141602 -0.11230469 0.11279297 0.30078125 -0.203125 0.23144531 -0.01159668 0.20507812 0.07910156 0.076171875 -0.119628906 -0.14746094 0.296875 0.08984375 -0.38671875 -0.001953125 0.06298828 -0.171875 0.01977539 -0.13085938 0.106933594 -0.18261719 0.42578125 -0.20410156 -0.0625 0.14160156 -0.051757812 0.04272461 -0.18652344 0.014404297 -0.08544922 0.10498047 -0.10839844 -0.16796875 -0.21191406 -0.083984375 -0.22851562 -0.15917969 -0.057617188 -0.21191406 -0.067871094 0.2734375 0.09277344 0.045166016 -0.06298828 -0.16601562 -0.0095825195 0.07714844 0.038085938 0.010437012 -0.068359375 -0.084472656 -0.30078125 0.083984375 -0.009033203 0.17089844 -0.34765625 -0.06738281 0.12695312 0.03173828 0.41992188 -0.03955078 -0.0069885254 0.12109375 -0.080566406 -0.03857422 0.17675781 -0.17871094 0.37304688 0.53515625 0.24023438 0.04345703 0.18652344 -0.55078125 0.13476562 0.26367188 0.59375 0.1171875 -0.2265625 0.053955078 0.19042969 -0.2734375 -0.07128906 -0.060302734 -0.041748047 -0.21191406 -0.057861328 -0.11669922 -0.4453125 0.011291504 -0.3359375 0.15625 -0.12402344 0.12060547 -0.10205078 0.28710938 -0.0078125 0.32421875 0.19042969 -0.08544922 -0.06738281 0.15527344 -0.012145996 -0.17773438 -0.19042969 -0.115234375 -0.17480469 0.02746582 0.0625 -0.15332031 0.13671875 -0.03540039 -0.09863281 -0.1640625 0.038085938 -0.045166016 0.17773438 0.036621094 0.03857422 -0.00011062622 0.34570312 -0.17382812 0.008728027 0.072753906 0.060546875 -0.37695312 -0.08496094 -0.103515625 -0.079589844 0.125 0.10888672 0.076171875 0.12695312 0.13671875 0.16699219 -0.00970459 -0.20800781 0.10253906 -0.03930664 0.25195312 -0.09667969 0.1015625 0.31640625 0.125 0.15039062 -0.119140625 0.075683594 0.06298828 0.061767578 0.033691406 0.17578125 0.08886719 0.31835938 0.075683594 0.05126953 0.18359375 -0.14453125 0.03930664 0.07763672
various 0.03491211 0.04272461 -0.14550781 0.035888672 0.00013256073 -0.08642578 -0.057373047 0.13476562 0.072753906 -0.100097656 -0.048828125 -0.13867188 -0.125 0.26757812 -0.375 0.045898438 -0.21777344 0.25 -0.25390625 0.008483887 -0.05517578 -0.06347656 -0.24121094 -0.06298828 -0.0546875 0.05908203 -0.22753906 -0.068359375 0.0024719238 -0.16210938 -0.19238281 -0.20019531 0.0703125 0.055419922 -0.125 -0.115234375 0.13671875 -0.2578125 0.021606445 -0.1796875 0.29296875 -0.018188477 -0.072265625 -0.003768921 -0.10107422 -0.0625 -0.115722656 -0.07763672 -0.06689453 0.0019302368 0.09472656 0.19335938 -0.16601562 0.08251953 -0.27929688 0.06347656 0.030273438 -0.27929688 0.20507812 0.045166016 -0.140625 0.18945312 0.1015625 -0.025756836 0.07470703 -0.09814453 -0.1640625 0.21289062 0.048828125 0.0069274902 0.026733398 0.041503906 0.14257812 0.11425781 -0.09082031 -0.004333496 -0.036132812 0.052734375 -0.087402344 0.01184082 0.033447266 -0.07910156 -0.061279297 -0.26367188 0.05053711 -0.087402344 -0.2109375 -0.06298828 -0.24804688 0.18554688 0.15820312 0.10205078 -0.025756836 -0.09423828 0.076171875 0.15917969 0.123535156 -0.14648438 0.13183594 0.20214844 0.027832031 0.025878906 0.015258789 -0.14355469 0.061035156 0.07714844 -0.087890625 0.010314941 0.40039062 -0.06347656 -0.23730469 -0.10546875 -0.0034942627 -0.11279297 0.11279297 0.011779785 0.012451172 -0.08251953 0.31835938 -0.04248047 -0.100097656 0.041748047 -0.18066406 -0.046142578 -0.006011963 -0.104003906 -0.088378906 0.011169434 -0.034179688 0.19238281 0.03881836 0.016845703 -0.13574219 -0.32617188 -0.091796875 0.060302734 -0.03125 -0.21582031 0.056396484 0.022216797 -0.07714844 0.22363281 -0.018676758 0.22851562 0.21386719 0.15234375 -0.041503906 0.12011719 -0.07519531 0.14648438 -0.04321289 0.106933594 -0.14648438 -0.014038086 -0.15722656 -0.11621094 0.0107421875 -0.068847656 0.030273438 0.033447266 -0.008911133 -0.005065918 -0.16210938 0.029174805 0.23632812 0.12060547 -0.024291992 -0.11376953 0.18652344 -0.055664062 -0.22363281 -0.010681152 0.046142578 -0.09765625 0.10595703 -0.16699219 -0.123046875 -0.31640625 0.045166016 -0.07519531 -0.16992188 -0.10107422 -0.109375 0.03491211 0.11669922 0.005554199 -0.100097656 0.11328125 0.059326172 -0.099609375 0.15527344 -0.05102539 0.021606445 -0.28710938 -0.092285156 -0.13867188 0.032470703 -0.080078125 0.056640625 -0.12109375 0.17480469 0.19140625 0.06225586 -0.18066406 -0.0004234314 -0.10839844 -0.0625 -0.018798828 -0.029052734 0.3359375 0.05883789 -0.28710938 -0.072265625 -0.076171875 0.32421875 -0.09082031 0.06298828 0.15429688 -0.10449219 -0.14550781 -0.061523438 -0.21484375 -0.11328125 -0.15039062 0.08105469 -0.006958008 -0.20019531 0.05834961 0.010559082 0.06298828 0.19238281 0.063964844 -0.057128906 0.04711914 0.09423828 -0.07080078 0.20507812 0.033691406 0.023803711 0.24902344 0.040039062 0.095703125 -0.024414062 -0.030151367 0.05126953 0.045410156 -0.064453125 -0.15039062 -0.16503906 0.035888672 0.07470703 0.28125 -0.068847656 -0.20703125 0.18945312 -0.1328125 -0.024291992 -0.104003906 0.033203125 -0.16796875 0.13085938 -0.025146484 -0.106933594 -0.0023345947 0.12792969 -0.004852295 -0.123046875 0.13867188 -0.07373047 0.015625 0.123046875 -0.012023926 -0.022216797 0.067871094 0.21777344 -0.10449219 -0.083496094 -0.10839844 -0.16210938 -0.0046081543 -0.028198242 0.022705078 0.07861328 -0.09033203 0.013122559 0.11621094 -0.12890625 0.06347656 0.106933594 0.27734375 -0.10058594 0.010803223 -0.099121094 -0.13378906 -0.17773438 0.13574219 0.13085938 0.057617188 -0.19921875 0.045654297
spent 0.25390625 0.16113281 0.033203125 0.123046875 0.02331543 0.25195312 -0.15917969 -0.18066406 0.07519531 -0.24023438 0.03930664 -0.15820312 -0.075683594 0.20800781 -0.10546875 0.24609375 0.00065612793 0.36132812 -0.071777344 0.21875 -0.38671875 0.31640625 -0.36914062 0.171875 0.07470703 0.12695312 -0.016235352 -0.12109375 -0.30859375 0.07519531 0.17871094 -0.26757812 -0.27539062 0.15429688 0.20605469 -0.03125 -0.13378906 0.13964844 -0.07373047 0.25585938 0.123046875 -0.23730469 -0.13769531 -0.2578125 0.071777344 0.012634277 -0.19140625 0.03881836 -0.18164062 -0.030761719 0.23046875 -0.11328125 0.1953125 -0.030273438 -0.26367188 -0.21679688 0.07128906 0.067871094 0.20703125 -0.27929688 -0.18554688 0.119628906 -0.16210938 -0.103515625 0.14453125 -0.17578125 -0.3359375 -0.32617188 -0.23730469 -0.091796875 0.14257812 0.11328125 0.04345703 0.26953125 -0.008056641 0.012878418 0.20703125 -0.13671875 -0.2890625 0.02368164 -0.07519531 -0.012207031 -0.06542969 -0.15136719 -0.028076172 -0.087890625 0.10498047 0.09033203 0.33203125 0.40625 0.07080078 0.057373047 0.23925781 -0.18164062 -0.08154297 -0.24023438 0.08935547 0.049316406 -0.05419922 0.08691406 0.05444336 0.20800781 0.010314941 0.06225586 0.22753906 -0.22070312 0.107421875 0.13867188 -0.0078125 -0.051513672 0.21582031 0.16015625 0.40039062 0.060791016 -0.029907227 0.111816406 0.1484375 -0.16992188 0.18066406 -0.11669922 0.104003906 0.040527344 -0.1484375 0.022216797 -0.13085938 0.018554688 0.24609375 -0.08251953 -0.20117188 0.20996094 0.09765625 -0.017456055 -0.033691406 -0.27148438 -0.16503906 0.051757812 0.0034942627 0.12890625 -0.14453125 0.24414062 0.09326172 0.17285156 0.07470703 0.09716797 -0.0234375 0.027832031 -0.24121094 0.095703125 0.029418945 -0.08544922 -0.09423828 0.203125 -0.10107422 0.08642578 0.07519531 0.21582031 -0.08642578 -0.37109375 -0.040283203 -0.10058594 0.08984375 0.23242188 0.14355469 0.18945312 -0.041015625 0.02758789 0.006164551 -0.087402344 0.27929688 0.042236328 -0.03125 -0.072265625 -0.21875 -0.047851562 -0.02319336 0.044677734 0.099121094 0.24511719 0.03540039 0.12695312 -0.11328125 0.12988281 -0.29882812 0.26171875 0.045410156 -0.21777344 -0.060058594 -0.031982422 -0.08984375 -0.036132812 0.19824219 -0.20117188 0.122558594 0.044189453 -0.34765625 0.4609375 0.25585938 0.037353516 -0.053710938 -0.060058594 -0.0138549805 0.21191406 -0.061035156 0.1953125 -0.068359375 0.035888672 -0.0009841919 -0.13378906 -0.19824219 -0.13964844 0.1328125 -0.0068969727 0.04296875 -0.11279297 0.26367188 0.000333786 -0.028686523 0.1328125 -0.011047363 -0.16699219 -0.28515625 -0.08935547 0.019165039 -0.020141602 0.23632812 0.18066406 -0.07470703 0.25390625 -0.14648438 0.12158203 0.17675781 -0.21679688 0.09765625 -0.19238281 -0.28515625 -0.019165039 0.047607422 -0.041015625 -0.16601562 -0.07861328 0.079589844 0.11376953 -0.047851562 -0.44335938 -0.07763672 0.078125 0.20703125 0.019165039 0.078125 -0.18457031 0.107421875 0.025878906 -0.071777344 0.3046875 -0.14453125 -0.07763672 0.0115356445 0.08496094 -0.296875 -0.14453125 -0.08154297 0.056396484 0.32421875 0.140625 -0.18847656 0.1796875 0.022460938 0.06738281 -0.07861328 0.12597656 0.07470703 -0.030761719 -0.17871094 0.009521484 0.119628906 -0.20898438 -0.067871094 -0.0047302246 -0.027709961 -0.25195312 0.08154297 0.09667969 -0.020751953 0.33789062 0.07470703 0.096191406 -0.24121094 0.24121094 0.21875 0.1953125 -0.19335938 0.125 -0.07324219 0.10839844 -0.25 -0.17871094 0.28125 -0.040771484 0.18261719 -0.0051574707
lot 0.17285156 0.13574219 -0.16113281 0.17089844 -0.009216309 -0.07519531 0.012634277 -0.14453125 -0.04663086 0.11816406 0.095214844 -0.21484375 0.040771484 -0.13867188 -0.27539062 -0.030883789 -0.06738281 0.39257812 -0.14746094 -0.010131836 -0.03466797 -0.05859375 0.083496094 -0.008972168 0.05126953 0.10058594 -0.11376953 -0.0036468506 0.00035858154 -0.16015625 -0.1484375 0.17871094 0.17578125 -0.05102539 0.22070312 -0.11376953 0.23828125 0.041503906 0.091308594 0.28710938 0.19335938 -0.25976562 0.20605469 0.09863281 -0.17675781 -0.0234375 -0.16015625 -0.09863281 -0.013366699 -0.048095703 0.06542969 0.2265625 -0.34765625 -0.28515625 -0.031982422 0.072265625 0.029541016 -0.19042969 0.296875 -0.42578125 -0.18457031 0.107421875 -0.068847656 0.18457031 0.049316406 -0.05859375 0.040039062 0.021606445 -0.068359375 -0.16308594 0.14355469 -0.08251953 0.1171875 -0.091308594 -0.27734375 0.042236328 0.106933594 0.1875 -0.078125 0.072265625 -0.040039062 0.064453125 0.04248047 -0.04663086 -0.36914062 -0.21386719 -0.09277344 0.27929688 0.171875 -0.17382812 0.19628906 0.19628906 -0.09716797 0.053466797 -0.20605469 -0.110839844 0.055908203 0.265625 0.0069274902 -0.026855469 -0.15429688 -0.033203125 0.10253906 0.017822266 -0.007385254 -0.0026397705 -0.18164062 -0.051513672 0.12597656 -0.31835938 -0.04272461 0.004760742 0.15917969 -0.072265625 0.18847656 -0.16503906 0.045898438 -0.07128906 0.016113281 0.091308594 -0.16113281 0.11279297 0.004058838 0.26171875 -0.013366699 -0.13574219 -0.13378906 -0.095214844 -0.04638672 0.10986328 0.16601562 -0.23828125 -0.14550781 -0.07470703 0.09765625 -0.171875 0.13867188 0.16015625 -0.027832031 -0.04248047 -0.21875 0.008605957 0.25195312 -0.030151367 -0.033935547 -0.041992188 -0.118652344 -0.091796875 -0.17089844 -0.061035156 0.060791016 0.13183594 -0.15722656 0.15234375 -0.032714844 0.025878906 0.016601562 -0.052734375 -0.15527344 0.1875 0.08300781 0.25585938 0.07910156 0.07421875 0.28320312 -0.07128906 0.041015625 0.080566406 0.3359375 -0.27734375 -0.3046875 0.24316406 -0.0074157715 -0.25195312 -0.15039062 0.07373047 -0.10644531 -0.17675781 0.05859375 0.030395508 -0.030639648 0.008361816 0.19921875 0.068847656 0.02319336 -0.08886719 -0.013366699 -0.036621094 -0.09472656 -0.040039062 -0.0053100586 -0.0012664795 -0.0056762695 -0.11035156 -0.038085938 -0.25195312 -0.15722656 0.080078125 -0.21191406 -0.02734375 0.06689453 -0.0134887695 -0.0703125 0.080566406 -0.203125 0.0014266968 -0.11230469 0.060546875 0.03149414 0.18554688 0.100097656 -0.057861328 -0.13964844 -0.072753906 0.084472656 -0.10449219 0.18457031 0.19140625 -0.096191406 -0.030883789 -0.23339844 -0.13671875 0.041015625 -0.021606445 0.027709961 -0.19140625 -0.016601562 0.15136719 -0.0069274902 0.060546875 0.007751465 0.015136719 0.26367188 0.08203125 0.09814453 0.08154297 -0.22460938 -0.30859375 0.13964844 0.072265625 0.23925781 0.1640625 0.010559082 -0.28710938 -0.023071289 0.039794922 0.031982422 0.06689453 -0.3046875 -0.029907227 0.09472656 0.45703125 -0.06640625 0.18457031 0.20019531 -0.061767578 0.09326172 0.075683594 -0.1875 -0.22753906 -0.05053711 -0.24023438 -0.08105469 -0.125 -0.033203125 0.10205078 0.08154297 0.010803223 -0.14160156 0.080078125 -0.004211426 0.26171875 0.19238281 0.052978516 -0.103027344 0.059814453 -0.13476562 -0.12988281 -0.24707031 -0.28320312 -0.051757812 -0.18554688 0.043945312 0.012451172 -0.14355469 0.11425781 -0.013671875 -0.064941406 -0.08886719 0.11425781 -0.19238281 0.24902344 -0.20410156 -0.076660156 -0.110839844 0.024658203 0.2734375 -0.19042969 -0.16503906 -0.024414062
time -0.04736328 0.1875 0.0022583008 0.17382812 -0.015991211 -0.15039062 0.11376953 -0.01550293 0.21972656 -0.010131836 0.015014648 -0.103515625 0.005340576 -0.06591797 -0.19238281 0.0038909912 0.014221191 0.08300781 0.13085938 -0.1953125 -0.119628906 -0.095703125 -0.049072266 0.0061035156 -0.013122559 0.12597656 0.053710938 0.045654297 0.033203125 0.15625 0.013366699 0.043945312 -0.046875 0.13964844 0.15820312 -0.048828125 0.011169434 -0.19628906 -0.071777344 0.18261719 0.13671875 -0.07373047 0.17382812 -0.08691406 -0.018310547 0.056152344 -0.016235352 0.15722656 -0.047607422 0.08251953 0.045898438 -0.13378906 -0.033203125 -0.026245117 -0.09326172 0.055419922 0.15722656 0.06933594 0.030151367 -0.092285156 -0.103027344 -0.0010147095 -0.045410156 -0.17285156 0.013427734 0.032470703 -0.0119018555 0.029174805 -0.111328125 -0.0703125 0.036865234 0.044677734 -0.09082031 0.006958008 -0.028930664 -0.084472656 0.115722656 0.060302734 0.068847656 0.20410156 0.10546875 0.076171875 0.09667969 -0.12597656 0.007537842 -0.06347656 -0.010498047 0.07324219 0.06640625 0.12451172 0.04345703 0.03125 -0.03173828 -0.1796875 -0.23632812 -0.23046875 -0.08642578 0.06298828 0.08154297 0.041015625 0.01940918 -0.0859375 -0.023071289 -0.053955078 -0.11669922 -0.030639648 0.022216797 0.08544922 0.08642578 -0.010559082 0.079589844 0.024780273 0.091796875 0.05834961 0.017333984 0.023803711 0.08935547 -0.0703125 -0.036621094 -0.02331543 -0.203125 -0.0546875 0.064453125 0.13085938 -0.061035156 0.011962891 0.10107422 -0.04321289 -0.07861328 0.07470703 -0.053222656 -0.22363281 -0.07324219 -0.053955078 -0.0859375 -0.28320312 -0.021850586 0.034179688 0.012756348 0.026611328 0.15136719 -0.09375 0.055664062 -0.08642578 -0.06347656 0.11767578 -0.09863281 -0.07519531 -0.13769531 -0.052490234 0.020385742 0.15136719 -0.04663086 0.009033203 0.08642578 -0.14941406 0.05029297 -0.14550781 -0.061523438 -0.24902344 -0.05126953 0.19921875 0.1484375 -0.09716797 -0.03125 0.096191406 -0.09375 -0.00017166138 0.07763672 -0.060302734 0.0012207031 -0.072753906 -0.08251953 -0.15136719 0.02758789 -0.02709961 -0.018310547 -0.080566406 0.075683594 -0.045166016 0.026733398 0.02758789 0.057373047 -0.036865234 0.03930664 -0.18554688 -0.025146484 -0.018798828 0.15917969 -0.10498047 0.07080078 0.0044555664 -0.0047302246 0.039794922 -0.10546875 0.20703125 0.107421875 0.038085938 -0.19921875 -0.17578125 -0.024169922 0.12011719 0.021240234 0.17480469 0.14355469 -0.12890625 -0.1953125 0.1171875 0.0028076172 -0.053710938 0.07470703 0.034179688 -0.21191406 0.043945312 -0.13671875 -0.049560547 0.052978516 -0.038330078 -0.049560547 0.0016784668 -0.057617188 -0.0099487305 -0.01953125 -0.061035156 -0.026245117 0.045166016 0.072753906 -0.041992188 0.036865234 0.059814453 0.041015625 -0.048095703 -0.059326172 -0.07128906 -0.03173828 0.032958984 0.016479492 -0.06689453 -0.09326172 -0.06542969 -0.011169434 0.010314941 0.06347656 -0.29492188 -0.041503906 -0.17871094 -0.030517578 0.09472656 0.012451172 -0.018310547 0.033447266 0.048583984 -0.007232666 0.076171875 -0.037353516 0.0546875 0.099121094 -0.027832031 -0.0703125 -0.03515625 -0.08496094 -0.15429688 -0.07324219 -0.0018310547 0.055419922 0.018432617 0.104003906 0.11816406 -0.068847656 -0.0078125 0.12402344 0.12890625 0.20410156 0.12597656 0.029296875 -0.068847656 -0.17675781 -0.18554688 0.07470703 -0.14355469 -0.033203125 -0.13964844 0.0017166138 0.05493164 -0.03466797 -0.07763672 -0.0859375 0.037597656 0.036376953 0.14355469 -0.15820312 0.03173828 -0.1796875 -0.16210938 -0.038085938 -0.06347656 -0.103027344 -0.0035552979 -0.0625 -0.055664062
my 0.14453125 0.04711914 0.10058594 0.328125 -0.020263672 -0.017211914 0.037841797 -0.13476562 -0.12597656 0.09716797 -0.091796875 -0.10253906 0.0019989014 -0.035888672 -0.40234375 0.052978516 0.3125 0.115234375 0.14941406 -0.14550781 -0.020996094 0.19042969 0.13183594 0.045166016 -0.14355469 0.052978516 -0.1015625 0.017089844 0.111328125 -0.083984375 0.24023438 0.026733398 0.022583008 0.21972656 0.00075912476 -0.10888672 0.13964844 0.07714844 0.011108398 -0.026855469 -0.0031585693 0.012451172 0.30273438 0.011352539 0.28515625 0.19824219 -0.012268066 0.022827148 0.18066406 -0.008483887 0.09326172 0.05029297 0.05444336 0.063964844 -0.10595703 0.21191406 -0.1328125 -0.056152344 0.032958984 -0.072753906 -0.03930664 -0.025756836 0.21582031 0.09667969 0.080566406 -0.0071105957 -0.083984375 0.02331543 -0.11279297 0.12451172 0.21777344 -0.025878906 0.09033203 0.18847656 -0.33789062 -0.10644531 0.046142578 -0.026123047 0.18652344 0.16113281 0.03491211 -0.40625 0.37304688 -0.00043678284 -0.30078125 0.16210938 -0.14453125 0.23535156 -0.12890625 0.14648438 -0.092285156 0.088378906 -0.031982422 0.0072631836 -0.2890625 0.096191406 0.08886719 0.123535156 0.064453125 -0.05419922 -0.24121094 -0.23535156 -0.04345703 -0.30664062 -0.008544922 0.16015625 -0.044677734 0.32421875 0.11767578 -0.30859375 -0.48242188 -0.08203125 -0.011169434 0.19628906 0.16894531 0.025634766 -0.0062561035 -0.12695312 0.10205078 -0.05810547 -0.17480469 -0.17773438 -0.15039062 0.27148438 -0.1640625 -0.083984375 -0.24902344 -0.09716797 -0.10644531 0.028686523 -0.37890625 -0.22070312 -0.16992188 0.08300781 -0.03564453 -0.16015625 -0.123046875 0.16796875 0.05883789 0.16992188 -0.024780273 0.095214844 -0.08251953 -0.16796875 -0.061523438 -0.0020446777 -0.24121094 -0.068359375 0.044433594 -0.171875 0.16503906 0.14550781 -0.23535156 0.08935547 -0.16894531 0.12695312 -0.15234375 -0.12402344 -0.10986328 0.08154297 -0.044189453 -0.21582031 -0.04272461 0.43359375 -0.060791016 -0.32421875 0.114746094 -0.111816406 0.19042969 -0.1953125 -0.19433594 0.09814453 -0.119140625 -0.22070312 -0.328125 0.049072266 0.14355469 -0.19824219 0.12890625 0.123535156 -0.09667969 0.20019531 -0.053710938 0.11669922 -0.125 0.09716797 -0.32617188 0.08251953 0.25585938 -0.12890625 -0.17285156 0.20703125 0.0095825195 0.04248047 -0.03540039 0.092285156 -0.09472656 0.057373047 -0.06298828 -0.32617188 -0.25195312 0.096191406 -0.07763672 0.1484375 0.04345703 0.08544922 -0.23242188 0.15527344 0.13183594 0.07324219 -0.021118164 0.12890625 -0.22363281 -0.027709961 -0.20019531 -0.111328125 0.15527344 -0.021362305 -0.31640625 -0.017700195 -0.21386719 0.020996094 0.006286621 -0.1328125 0.18847656 -0.36328125 -0.07373047 0.12011719 -0.0859375 -0.13378906 0.13671875 -0.11621094 0.23242188 -0.055908203 0.078125 0.15234375 -0.12695312 0.017089844 -0.13183594 -0.12988281 0.06933594 -0.08203125 -0.013244629 -0.13378906 -0.110839844 -0.011779785 -0.21972656 0.16992188 -0.23144531 0.15039062 0.06933594 -0.09472656 0.009765625 0.19433594 0.040771484 -0.10644531 -0.017456055 -0.20996094 -0.15625 -0.15332031 0.025268555 0.05029297 0.068359375 -0.115722656 0.20507812 0.25195312 -0.029785156 0.15527344 -0.10107422 -0.055664062 -0.171875 0.21679688 0.12060547 0.08496094 -0.0044555664 -0.26757812 0.027709961 -0.17382812 0.006713867 -0.11376953 0.16992188 -0.10205078 0.068847656 0.2578125 0.08251953 0.30273438 -0.0126953125 -0.022094727 -0.35351562 0.0234375 -0.16503906 0.23632812 -0.24023438 -0.18945312 -0.28515625 -0.15234375 -0.14550781 0.0022583008 0.09814453 -0.06689453
options -0.09082031 0.34960938 0.08154297 0.27539062 -0.03173828 0.032714844 0.13769531 -0.018066406 0.052246094 -0.22851562 -0.09765625 -0.22753906 0.05517578 -0.10449219 0.092285156 0.028320312 0.13769531 -0.13769531 0.16308594 -0.17480469 -0.11669922 0.06933594 -0.03540039 0.22949219 -0.01977539 0.25585938 -0.11035156 0.31640625 -0.033203125 -0.041259766 0.18652344 0.30664062 -0.06689453 0.115722656 0.18164062 0.056640625 0.28320312 -0.19921875 -0.11230469 -0.13476562 -0.080078125 0.00793457 -0.0859375 0.055664062 -0.118652344 0.04663086 0.051757812 -0.033447266 -0.17089844 0.079589844 0.0063476562 -0.10498047 0.06933594 0.017700195 -0.265625 -0.12597656 -0.10253906 -0.03857422 -0.071777344 -0.16210938 -0.16113281 -0.012939453 -0.006134033 0.19140625 -0.076171875 -0.19335938 -0.048828125 0.14160156 -0.140625 0.12060547 0.023803711 -0.047607422 0.23535156 0.078125 -0.03515625 -0.36132812 -0.19042969 -0.06640625 -0.375 0.2421875 0.04345703 0.12060547 0.25585938 0.28515625 0.21484375 -0.03515625 -0.25390625 0.36132812 0.16113281 0.041259766 0.22460938 0.1875 -0.19238281 0.078125 -0.027954102 -0.08300781 -0.17773438 0.033935547 -0.041015625 -0.27929688 0.032958984 -0.22851562 -0.19140625 0.06640625 0.123046875 -0.09423828 0.05102539 -0.043945312 0.0066223145 -0.10888672 0.5234375 -0.026855469 0.22851562 -0.14746094 0.15820312 -0.119140625 0.35742188 -0.14550781 0.16894531 0.028564453 -0.07421875 0.28125 0.14453125 0.10546875 0.027954102 0.002380371 -0.08300781 0.08984375 0.038085938 0.20996094 0.012451172 0.067871094 -0.078125 0.0390625 0.026977539 -0.087890625 0.030761719 -0.02331543 0.25195312 0.42773438 0.107910156 0.16601562 0.10986328 0.064941406 0.30078125 -0.16503906 -0.033935547 -0.06201172 -0.025268555 0.09472656 -0.08251953 0.39453125 -0.17871094 -0.11425781 0.07128906 0.15917969 0.0063171387 -0.43359375 -0.107910156 -0.12988281 0.14941406 0.24511719 0.16796875 0.04663086 -0.28515625 -0.110839844 -0.14648438 0.09667969 -0.21386719 -0.25390625 -0.12060547 -0.03173828 -0.19726562 0.18066406 0.26171875 -0.083984375 0.099121094 -0.28320312 -0.13085938 0.12695312 -0.36914062 -0.24316406 -0.27929688 0.119140625 0.25 -0.21679688 0.11328125 0.0042419434 0.24902344 -0.080078125 -0.15332031 -0.18847656 -0.052246094 -0.26367188 -0.16699219 0.15917969 -0.25195312 -0.25390625 0.010192871 -0.34570312 -0.111816406 -0.09423828 -0.10888672 0.013183594 0.16699219 -0.00390625 -0.039794922 -0.044189453 0.036865234 -0.08886719 0.05834961 0.13378906 -0.2890625 0.3125 -0.27539062 0.13574219 0.21191406 0.072265625 -0.13867188 0.15527344 0.009033203 0.025024414 -0.27929688 0.22558594 -0.049072266 -0.03881836 -0.19042969 -0.25 -0.09423828 0.27929688 -0.060791016 0.07421875 0.25 0.055664062 -0.07373047 -0.00075531006 0.18554688 -0.030151367 0.033447266 0.13671875 0.06933594 0.048095703 -0.04272461 -0.041015625 -0.05126953 0.1953125 -0.122558594 0.043945312 0.18457031 -0.028564453 -0.095214844 0.052978516 0.0022735596 -0.11230469 -0.063964844 -0.1796875 0.03491211 -0.022216797 -0.017211914 0.053710938 0.076660156 0.10888672 -0.118652344 -0.06689453 -0.20117188 0.09863281 0.041992188 0.15527344 -0.29882812 -0.23632812 0.006225586 0.006378174 0.14355469 -0.012268066 -0.034423828 0.29492188 0.26367188 -0.041503906 -0.011779785 0.0051574707 -0.17675781 0.14257812 -0.046875 0.0045166016 -0.064453125 0.140625 0.17089844 0.033935547 0.23535156 -0.140625 -0.07421875 -0.08251953 -0.036865234 -0.025390625 0.22558594 0.12988281 0.18457031 0.025024414 -0.24023438 0.14160156
figured 0.083496094 0.15136719 -0.01977539 0.29492188 -0.017944336 -0.123535156 0.26171875 0.018798828 -0.0073242188 -0.25390625 0.234375 -0.3203125 -0.072265625 -0.21191406 -0.036132812 0.21484375 0.26757812 0.123046875 -0.04663086 0.008422852 -0.27734375 0.13574219 0.099121094 -0.23535156 -0.061035156 -0.24902344 -0.16210938 -0.052490234 -0.17089844 0.09765625 -0.100097656 0.064941406 0.072265625 0.087402344 0.07470703 0.16503906 0.15429688 -0.15625 0.18066406 0.026855469 0.095703125 -0.15820312 0.27539062 -0.29492188 -0.15332031 -0.048339844 -0.15917969 -0.057617188 0.13867188 0.20605469 -0.25195312 -0.012939453 -0.02319336 -0.10986328 -0.05419922 0.068359375 0.24707031 -0.17871094 0.26171875 -0.0625 0.18652344 0.03125 0.06542969 0.005554199 0.00091552734 -0.08691406 -0.1171875 0.1875 -0.056152344 0.13867188 0.056396484 0.22851562 0.17578125 0.028442383 -0.34179688 -0.010681152 -0.060058594 0.10058594 -0.079589844 -0.017822266 0.043945312 -0.025512695 0.07861328 0.18066406 -0.25 0.09375 0.018554688 0.24902344 0.015380859 0.03149414 0.09326172 0.14648438 0.024658203 -0.052001953 -0.25976562 -0.14648438 -0.023071289 0.11328125 -0.17675781 -0.044433594 -0.19335938 0.03491211 -0.076171875 0.055908203 0.13867188 -0.10449219 -0.27148438 -0.030273438 0.0625 -0.01953125 -0.11328125 -0.033691406 0.030517578 0.023925781 0.118652344 -0.0703125 0.26171875 -0.03540039 0.10498047 0.0017547607 -0.22949219 0.057373047 -0.16210938 -0.12060547 -0.10205078 0.079589844 0.078125 -0.07763672 -0.24511719 -0.12890625 -0.03540039 -0.21679688 0.0023040771 0.1640625 0.21777344 0.01373291 0.043701172 0.2265625 -0.10107422 0.09277344 -0.049072266 -0.16503906 -0.12207031 -0.14550781 0.017822266 0.29101562 -0.12597656 -0.234375 0.092285156 -0.14648438 -0.034423828 -0.032958984 -0.265625 0.08105469 -0.03955078 0.017211914 -0.011657715 0.022827148 -0.296875 0.13671875 0.052734375 0.0010147095 -0.05883789 -0.067871094 0.1171875 -0.13964844 0.0009918213 -0.14648438 0.14746094 0.010131836 -0.08105469 -0.020996094 -0.12988281 -0.04296875 -0.061035156 0.11230469 0.3046875 -0.104003906 -0.06591797 0.13964844 0.11035156 0.05126953 0.20410156 0.2890625 -0.036865234 -0.12792969 -0.13183594 0.025268555 0.08496094 -0.04638672 0.11230469 -0.030517578 0.140625 0.025634766 -0.021972656 0.11279297 0.16113281 -0.025878906 0.13964844 -0.30664062 0.014953613 0.11767578 0.009033203 0.09814453 0.12988281 -0.057861328 -0.088378906 -0.13867188 0.16210938 0.07763672 -0.052734375 0.25585938 0.03564453 0.04248047 -0.14648438 0.0045166016 0.11425781 -0.021606445 -0.07324219 -0.17480469 -0.07470703 -0.17089844 0.0041503906 -0.12402344 -0.030761719 -0.15332031 -0.010620117 0.1484375 -0.29296875 -0.15527344 -0.078125 -0.1484375 0.14257812 -0.2421875 0.083496094 0.11279297 -0.013916016 -0.14550781 0.0005722046 -0.110839844 0.111328125 0.17578125 -0.033935547 -0.119140625 -0.1328125 0.071777344 0.13476562 0.10888672 0.06542969 -0.19824219 -0.18261719 -0.021118164 0.19921875 0.080566406 0.13183594 -0.096191406 -0.048339844 -0.13378906 -0.083984375 -0.265625 -0.057617188 0.07470703 -0.16503906 0.18359375 -0.10253906 0.15039062 0.03540039 -0.17773438 -0.020629883 0.12011719 0.06347656 0.006591797 0.099609375 -0.05126953 0.12792969 0.047607422 -0.078125 -0.21972656 -0.049560547 0.09277344 -0.071777344 0.140625 -0.071777344 0.12451172 0.11230469 -0.12011719 -0.044677734 0.21484375 0.06982422 -0.05834961 0.004180908 0.087890625 -0.1015625 0.06738281 -0.03930664 -0.203125 0.032470703 -0.16796875 0.18847656 0.060058594
this 0.109375 0.140625 -0.03173828 0.16601562 -0.07128906 0.01586914 -0.003112793 -0.08496094 -0.048583984 0.055664062 -0.08251953 -0.024047852 -0.006652832 0.036865234 -0.05029297 -0.029418945 0.11376953 -0.067871094 0.056396484 -0.075683594 -0.03857422 0.09716797 -0.044189453 -0.12207031 0.140625 0.08496094 0.09667969 0.07470703 -0.0039978027 0.17285156 -0.06933594 0.08886719 0.038085938 -0.00061416626 0.01184082 0.0016403198 -0.20898438 -0.08251953 0.08984375 0.07910156 0.123535156 -0.018676758 0.030395508 0.04711914 0.06542969 -0.012512207 0.0015258789 0.10644531 -0.015319824 -0.041992188 0.16796875 0.051757812 0.07470703 0.08251953 0.017211914 0.015991211 0.02734375 -0.036865234 0.08105469 -0.064453125 -0.08984375 0.107421875 0.0115356445 -0.13671875 0.051513672 -0.024291992 0.022827148 0.123535156 0.015319824 0.1484375 0.024414062 -0.0625 0.08154297 -0.064941406 0.020385742 0.05126953 0.125 0.09765625 0.05810547 0.18652344 0.05834961 -0.19921875 0.020019531 -0.04638672 -0.12158203 -0.12109375 -0.024291992 0.22851562 -0.057128906 0.030517578 0.11816406 -0.057128906 -0.125 -0.21972656 -0.061523438 -0.118652344 0.11816406 0.011962891 -0.083984375 0.048583984 -0.05053711 -0.075683594 0.028198242 -0.053710938 -0.14160156 0.075683594 -0.18164062 -0.18847656 -0.091796875 -0.15234375 -0.060058594 -0.038330078 -0.011108398 0.055419922 0.072265625 -0.009887695 0.15820312 -0.040039062 0.1328125 0.1015625 -0.03930664 -0.09472656 -0.14550781 0.018188477 -0.103027344 0.024536133 -0.018310547 -0.03125 -0.037109375 0.0012664795 -0.19042969 -0.09423828 -0.20117188 -0.14257812 0.061767578 -0.13671875 0.061523438 0.013305664 0.042236328 0.15722656 0.068847656 -0.09082031 0.1015625 -0.11669922 0.026123047 -0.022705078 -0.04321289 -0.018676758 -0.03149414 -0.056884766 0.051757812 -0.06933594 -0.15527344 0.087890625 -0.041748047 0.072753906 0.18261719 -0.18066406 -0.0039367676 -0.095214844 -0.071777344 0.0390625 -0.032714844 0.08544922 0.068359375 -0.12109375 0.19921875 -0.05517578 -0.037597656 0.10644531 -0.030029297 -0.08203125 -0.009155273 -0.123046875 -0.014038086 -0.071777344 0.09423828 -0.052001953 0.055908203 -0.052001953 -0.026367188 0.05834961 -0.11669922 0.053710938 -0.001663208 -0.04248047 -0.1875 -0.04736328 0.23046875 0.17382812 0.0034332275 0.076171875 -0.0054016113 0.012145996 0.010070801 -0.026000977 0.029296875 0.13867188 -0.007537842 -0.08984375 0.015563965 0.068359375 -0.096191406 0.19335938 -0.10058594 0.01977539 0.025024414 -0.015014648 0.10449219 0.06933594 0.057617188 0.14746094 0.10595703 0.044677734 -0.2109375 -0.0031738281 0.15527344 -0.0546875 -0.091796875 -0.018920898 -0.049804688 -0.018920898 -0.14550781 -0.049316406 0.19433594 -0.080078125 0.10986328 0.040771484 0.053222656 0.10498047 -0.088378906 -0.11230469 0.16601562 0.05517578 -0.036376953 -0.08203125 -0.037841797 0.09082031 0.115722656 0.14941406 -0.017700195 -0.014892578 -0.030639648 -0.08105469 -0.07470703 0.00491333 0.10058594 0.030151367 -0.025390625 0.013549805 -0.083496094 0.007537842 0.01361084 0.03149414 0.009460449 0.015258789 0.21777344 -0.012939453 -0.13867188 -0.09716797 0.10498047 0.022949219 -0.05444336 -0.004760742 0.07128906 0.13964844 0.12158203 -0.03564453 -0.14550781 0.0006942749 0.140625 0.19433594 0.10888672 0.05493164 0.08642578 -0.018066406 0.025024414 -0.068359375 0.036376953 -0.06591797 -0.03930664 0.076660156 0.039794922 0.15234375 0.11425781 -0.027709961 -0.1328125 -0.1484375 -0.052734375 -0.050048828 -0.064941406 0.004058838 0.010559082 0.064453125 0.015258789 -0.076660156 0.0036621094 0.007659912 0.12011719 -0.1796875
one 0.045654297 -0.14550781 0.15625 0.16601562 0.10986328 0.007507324 0.07373047 -0.03100586 0.15722656 0.099609375 0.052001953 -0.1484375 0.064453125 0.11816406 -0.026489258 0.09033203 0.009643555 -0.123535156 -0.028564453 0.007232666 -0.064453125 0.08105469 -0.087402344 -0.040771484 0.018798828 0.08251953 -0.079589844 0.07910156 0.011047363 0.083496094 0.0018463135 0.076171875 0.048339844 0.010009766 0.009094238 0.007751465 0.024536133 -0.030395508 0.045898438 -0.026611328 0.10253906 -0.013916016 0.017456055 0.06347656 0.060058594 0.03955078 0.09863281 0.011291504 -0.08691406 -0.025634766 -0.05029297 0.05029297 0.014526367 0.002243042 -0.052978516 -0.008666992 0.030517578 0.012756348 0.056884766 0.07861328 0.030517578 0.09667969 0.0038604736 -0.20605469 -0.075683594 -0.008605957 -0.064453125 0.008483887 -0.05883789 0.12890625 0.014038086 0.087402344 0.064453125 -0.010559082 -0.048583984 -0.03149414 -0.02319336 0.13476562 0.068847656 0.0859375 0.09472656 -0.16308594 0.14648438 -0.08935547 -0.1171875 -0.08886719 -0.022827148 -0.025756836 -0.046142578 -0.07080078 0.075683594 0.13476562 -0.057617188 -0.057617188 -0.17773438 -0.059326172 0.1171875 0.041992188 -0.13574219 0.047851562 -0.063964844 -0.02709961 0.021118164 -0.008972168 -0.012207031 -0.011657715 0.110839844 0.0005645752 0.00031471252 -0.092285156 -0.099609375 -0.11279297 -0.029663086 0.032226562 0.16308594 0.060058594 0.06542969 -0.047851562 0.18554688 0.02734375 -0.22753906 -0.017456055 -0.12158203 0.04638672 -0.06542969 -0.12792969 0.06298828 -0.047851562 0.04663086 0.12695312 -0.03112793 -0.16894531 -0.018920898 -0.010070801 0.1015625 -0.14257812 -0.045166016 -0.09033203 -0.022949219 0.08544922 0.11621094 -0.17480469 0.10058594 0.024414062 0.25390625 0.11621094 -0.037841797 -0.0234375 -0.08544922 -0.040039062 -0.064453125 -0.0138549805 -0.12890625 0.041503906 -0.084472656 0.040771484 -0.08642578 -0.15625 -0.004333496 -0.017089844 -0.18261719 -0.018188477 0.06347656 -0.0054016113 -0.02319336 -0.0066223145 0.07910156 -0.06933594 -0.1328125 -0.060058594 -0.18359375 -0.025756836 -0.008422852 -0.27734375 -0.03125 -0.09716797 0.015380859 -0.08203125 -0.025268555 -0.0008354187 0.041992188 -0.08642578 -0.016845703 0.08300781 -0.06738281 0.071777344 -0.0048828125 0.022094727 0.072753906 0.003250122 0.025756836 -0.015136719 0.049316406 -0.07470703 -0.079589844 -0.010498047 -0.034179688 0.060546875 -0.16894531 -0.20605469 0.04711914 0.10986328 0.034179688 0.078125 -0.11425781 -0.049072266 -0.10253906 -0.040771484 0.059814453 -0.04248047 0.09326172 0.12792969 -0.07128906 0.018676758 -0.032714844 0.08544922 -0.0050964355 -0.045898438 -0.14355469 0.067871094 0.029174805 0.05053711 0.0039367676 -0.061767578 0.12988281 -0.018432617 0.13574219 0.087890625 0.061279297 0.018310547 -0.042236328 0.011779785 0.06201172 0.092285156 0.1015625 0.0047302246 0.020751953 -0.10058594 -0.039794922 0.020751953 0.044433594 -0.020385742 -0.044921875 -0.20605469 0.123046875 0.0013656616 0.015625 -0.04663086 0.07080078 -0.046142578 -0.06738281 -0.076660156 0.03149414 0.005004883 0.0020446777 0.072753906 0.033935547 0.04736328 -0.026123047 -0.15039062 -0.03515625 -0.018676758 -0.091796875 -0.035888672 0.07714844 0.095214844 0.06591797 0.106933594 -0.18847656 0.050048828 0.06640625 -0.0059509277 -0.033203125 0.008850098 0.13183594 -0.0859375 -0.19726562 -0.12695312 -0.017700195 -0.125 -0.043701172 0.021118164 0.03149414 0.095214844 -0.017944336 -0.083496094 -0.13671875 -0.07519531 -0.014282227 0.07373047 -0.028930664 -0.013000488 -0.060302734 -0.032714844 -0.103515625 0.044677734 -0.095214844 -0.01586914 0.006713867 -0.0018844604
probably 0.12011719 0.020751953 0.07128906 0.39453125 0.022705078 0.04296875 0.12695312 -0.10888672 0.26367188 0.104003906 -0.011230469 -0.21679688 0.026611328 -0.068359375 -0.061279297 0.06347656 0.09472656 0.056152344 -0.038085938 -0.072265625 -0.19042969 0.02331543 0.15039062 -0.16113281 0.067871094 -0.087402344 -0.15625 0.025756836 -0.09033203 0.122558594 -0.017944336 0.17675781 -0.01159668 0.039794922 0.1328125 0.07714844 0.119140625 0.015991211 0.0859375 0.041015625 0.09765625 -0.11279297 0.24902344 -0.09375 -0.06347656 0.107910156 0.04663086 -0.06933594 0.007659912 -0.042236328 -0.008483887 -0.0042419434 -0.01928711 -0.015197754 0.12597656 0.08642578 0.107910156 -0.06347656 0.12890625 -0.026611328 -0.13769531 0.050048828 -0.09375 -0.027954102 -0.01965332 -0.032226562 -0.067871094 0.15917969 -0.13964844 0.038330078 0.106933594 0.10595703 0.12060547 0.15625 -0.2734375 0.029785156 0.08203125 0.1796875 0.087402344 0.063964844 0.08935547 -0.18457031 0.13574219 0.15136719 -0.24316406 -0.036376953 -0.06689453 0.28515625 0.12207031 -0.13867188 0.18554688 0.11767578 -0.12158203 -0.057128906 -0.061523438 -0.1953125 0.07080078 0.1484375 -0.036132812 -0.051513672 -0.09326172 -0.095214844 0.021972656 -0.0006904602 0.025512695 -0.057128906 -0.12792969 -0.03564453 -0.111328125 -0.12890625 -0.013977051 -0.067871094 0.041259766 0.08642578 0.03955078 -0.08691406 0.09472656 0.011474609 0.08935547 -0.068359375 -0.15429688 0.014282227 -0.053710938 0.09423828 -0.13476562 -0.18847656 0.0033721924 -0.053222656 -0.11279297 0.011779785 -0.0009994507 -0.14355469 -0.02722168 0.032958984 -0.12792969 -0.24902344 -0.00030708313 0.06298828 -0.07910156 0.1328125 0.068359375 -0.15625 0.020629883 -0.030761719 0.15527344 -0.017211914 -0.039794922 -0.14257812 -0.05810547 -0.10888672 -0.03515625 0.079589844 -0.2734375 0.08203125 -0.015380859 -0.13769531 -0.10253906 -0.033203125 -0.17285156 0.05126953 0.05444336 0.083496094 -0.040771484 -0.0087890625 0.019897461 -0.11279297 0.029052734 0.0008544922 -0.05126953 -0.045898438 -0.12597656 0.048583984 -0.104003906 -0.09765625 -0.08203125 -0.032226562 0.095214844 -0.05908203 0.0060424805 0.11376953 0.107421875 -0.08642578 -0.061523438 0.16992188 -0.13378906 0.017211914 -0.06982422 0.046142578 0.1484375 0.09716797 0.115722656 0.028930664 0.05517578 -0.014160156 -0.025878906 -0.016601562 -0.052734375 0.005065918 -0.16699219 -0.19628906 0.11621094 0.044433594 -0.15429688 0.13574219 0.07763672 0.024780273 -0.16210938 -0.06591797 0.072265625 0.049072266 -0.046875 0.08105469 0.00390625 0.025390625 -0.19628906 -0.115234375 0.068847656 -0.140625 0.030639648 0.01953125 0.0016174316 -0.11230469 -0.13964844 -0.067871094 0.06225586 -0.171875 0.07080078 0.104003906 0.0079956055 0.010375977 -0.01977539 -0.044433594 0.06347656 -0.041748047 0.103027344 0.19042969 -0.10449219 -0.18554688 0.07080078 -0.1328125 0.021362305 0.087402344 0.07128906 -0.20214844 -0.07373047 0.01977539 0.039794922 0.1640625 -0.008422852 0.013977051 -0.14550781 -0.050048828 0.07763672 0.13085938 0.09277344 -0.008728027 -0.0027770996 0.123535156 -0.030029297 -0.20410156 0.01953125 -0.16210938 -0.044921875 0.13378906 -0.030151367 0.0703125 0.04638672 -0.11230469 0.03149414 0.08691406 -0.001159668 -0.028564453 0.10839844 0.091796875 -0.07128906 -0.103515625 -0.03930664 -0.03466797 -0.0115356445 -0.080078125 0.026245117 0.0146484375 0.072753906 -0.022338867 -0.045898438 -0.052001953 -0.012634277 -0.123046875 -0.025390625 0.071777344 -0.122558594 0.13867188 -0.038085938 0.051757812 0.09082031 -0.010986328 -0.018920898 -0.11767578 0.11035156 -0.034179688
Phone -0.014465332 -0.12792969 -0.115722656 -0.22167969 -0.07373047 -0.059814453 -0.100097656 -0.068847656 0.14941406 0.10107422 -0.030761719 -0.032714844 -0.03125 -0.107910156 0.12158203 0.16015625 0.19335938 0.006591797 -0.15429688 0.037109375 0.22753906 0.1953125 0.08300781 0.036865234 -0.021484375 0.014831543 -0.21289062 0.16015625 0.29101562 -0.03149414 -0.05883789 0.044189453 -0.11767578 -0.12597656 0.084472656 -0.107910156 -0.11279297 0.17871094 0.044677734 0.17675781 -0.17089844 -0.021606445 -0.00061416626 -0.17480469 -0.047607422 0.068359375 -0.0546875 0.044677734 -0.19628906 -0.18554688 -0.10839844 -0.060302734 0.114746094 0.08544922 0.05859375 0.23925781 -0.07080078 0.11816406 -0.111328125 0.08300781 -0.043945312 0.00970459 -0.1484375 0.265625 -0.13769531 0.23535156 -0.19824219 0.31445312 0.02734375 0.16894531 0.20898438 -0.048095703 0.16015625 -0.0014724731 -0.13085938 -0.013122559 0.07763672 0.22851562 0.13867188 -0.2578125 0.061767578 0.03955078 0.13867188 0.08154297 0.002105713 -0.052978516 0.032226562 0.021484375 -0.21582031 0.30664062 -0.057617188 0.02722168 -0.28320312 -0.4140625 0.017456055 0.041015625 0.0035247803 0.11279297 0.046875 -0.099609375 -0.18945312 -0.24707031 0.10058594 0.35546875 0.15625 0.02319336 0.125 -0.12402344 0.13378906 0.17578125 0.064941406 -0.10644531 0.0071411133 -0.40234375 0.019897461 0.11376953 -0.10644531 -0.19921875 0.29492188 0.15527344 -0.13574219 0.16601562 -0.18457031 0.28125 0.16992188 -0.04345703 -0.203125 0.023803711 0.0026855469 0.125 -0.14550781 -0.24121094 -0.125 -0.123046875 -0.012512207 -0.203125 0.111328125 0.048583984 -0.022460938 -0.19238281 0.0022125244 -0.13378906 -0.11035156 0.1796875 0.14648438 0.119140625 -0.05419922 -0.3046875 -0.14257812 -0.0019454956 0.296875 0.34179688 -0.063964844 -0.0095825195 0.15527344 -0.064941406 -0.12792969 0.04736328 0.006866455 0.07910156 -0.31445312 0.15039062 -0.005584717 -0.008544922 -0.19726562 0.045654297 -0.0859375 -0.3125 -0.049316406 -0.17480469 0.23632812 0.018920898 -0.014709473 -0.23632812 -0.48828125 -0.09667969 0.26953125 0.2265625 -0.33007812 0.018554688 -0.15332031 -0.13769531 -0.24316406 0.12109375 0.43945312 0.05078125 -0.01574707 0.14550781 -0.27148438 0.052490234 -0.12060547 -0.107421875 -0.22070312 0.111328125 0.007659912 0.234375 -0.2734375 0.005126953 -0.017089844 0.022583008 -0.010314941 0.19433594 0.072265625 0.021850586 0.009155273 0.15722656 -0.017333984 -0.01928711 -0.088378906 0.0126953125 0.041259766 -0.056152344 -0.08105469 -0.40625 0.048828125 0.15136719 -0.060302734 -0.107910156 -0.3125 0.0024719238 0.080078125 0.203125 -0.087890625 0.06640625 0.034179688 0.20898438 -0.29101562 0.20703125 -0.23730469 -0.05517578 0.057373047 -0.13769531 -0.34960938 -0.20214844 0.13671875 -0.28710938 0.00592041 -0.21289062 -0.25585938 0.013977051 0.3203125 -0.011230469 -0.08544922 -0.16210938 0.22558594 0.05126953 0.21386719 -0.0055236816 0.059326172 -0.063964844 -0.040039062 0.21191406 0.122558594 -0.029541016 0.18554688 0.07421875 0.20605469 -0.40429688 -0.057617188 -0.095214844 -0.008300781 -0.14257812 -0.22265625 -0.22363281 -0.16601562 0.29492188 -0.0119018555 -0.111328125 -0.08642578 -0.19140625 0.018188477 0.17675781 0.040771484 -0.2734375 -0.007080078 -0.09472656 0.32421875 0.053222656 0.046875 0.11376953 0.15722656 0.06201172 0.072753906 -0.091796875 -0.095214844 -0.10839844 0.07470703 0.107421875 -0.028564453 0.16015625 -0.07910156 0.15722656 -0.061523438 -0.17480469 0.080078125 -0.13671875 -0.18359375 -0.052001953 -0.005859375 -0.15625
came 0.12597656 0.12792969 0.19628906 -0.09277344 0.033203125 -0.36132812 -0.0076904297 0.044677734 0.091308594 0.1640625 0.10253906 -0.20507812 -0.03857422 0.095703125 -0.011657715 0.041748047 0.13867188 0.19726562 0.030883789 0.1953125 -0.18457031 0.26757812 -0.099609375 0.107910156 0.21875 0.024902344 0.026367188 0.119628906 0.025390625 0.125 -0.021606445 -0.22363281 -0.10546875 0.017089844 -0.04296875 -0.032470703 -0.033447266 0.04711914 0.08691406 0.056396484 0.067871094 -0.10253906 0.16113281 0.12109375 0.05859375 -0.068359375 -0.17675781 -0.24023438 0.0049438477 0.034423828 -0.11328125 -0.06640625 0.06640625 0.13769531 0.010498047 0.14257812 0.10449219 0.17382812 0.06298828 -0.08935547 0.026855469 0.16308594 -0.06982422 -0.16894531 -0.17089844 -0.08203125 -0.10888672 0.008056641 -0.049316406 0.14550781 0.0018386841 -0.14257812 0.106933594 -0.032958984 -0.12109375 0.026611328 -0.0025024414 0.17773438 -0.009765625 0.17578125 -0.02319336 -0.10498047 0.072265625 -0.022338867 0.088378906 0.06347656 -0.11816406 0.013793945 -0.16894531 0.04248047 0.18164062 0.22558594 -0.07910156 0.12792969 -0.17382812 -0.12011719 -0.16894531 0.29882812 0.024047852 0.0030975342 -0.04736328 0.09765625 -0.22558594 -0.053710938 -0.09423828 -0.1484375 0.09082031 0.028320312 0.07910156 -0.123535156 -0.11035156 0.08886719 -0.006286621 -0.08300781 0.107421875 0.12597656 0.12060547 -0.018066406 0.18847656 0.15722656 0.0703125 0.11816406 -0.15820312 0.07421875 0.056884766 0.24707031 0.096191406 -0.26953125 -0.039794922 0.076171875 -0.032958984 -0.30273438 -0.114746094 0.06298828 0.06738281 0.018432617 0.15234375 0.014465332 -0.1484375 -0.060791016 -0.24121094 0.15429688 0.14746094 -0.08154297 -0.16210938 0.328125 -0.12402344 -0.26171875 -0.004333496 -0.10986328 0.15332031 0.18261719 -0.061523438 0.17089844 0.022583008 0.06738281 0.025756836 -0.12695312 0.099121094 0.08300781 0.028320312 -0.15136719 0.16210938 -0.045898438 0.076660156 -0.32421875 -0.03100586 0.004638672 0.19824219 -0.057617188 -0.13183594 -0.07373047 0.00579834 -0.111816406 -0.12060547 0.013366699 0.22460938 0.123046875 0.23925781 0.16308594 0.030761719 0.00093460083 0.01574707 0.14160156 0.064941406 -0.039794922 -0.11816406 -0.029907227 0.1875 -0.017578125 0.34960938 -0.07861328 0.39453125 0.14453125 -0.061523438 0.23242188 0.018066406 -0.140625 -0.05126953 -0.119140625 -0.07324219 -0.09472656 -0.012390137 0.10449219 0.22949219 0.13378906 -0.052246094 -0.033691406 0.26171875 0.014526367 -0.16113281 -0.07128906 0.14746094 -0.017456055 -0.16210938 -0.12695312 0.064453125 0.018798828 -0.20019531 -0.072265625 -0.0068969727 0.09765625 0.21484375 -0.06225586 0.064941406 -0.088378906 -0.06933594 0.110839844 -0.061035156 -0.014770508 0.18359375 0.14746094 0.07080078 -0.0005569458 0.08154297 -0.010253906 0.008911133 -0.10986328 -0.024169922 -0.010314941 0.12792969 0.109375 0.014404297 -0.12890625 0.17578125 0.03564453 0.064453125 0.11376953 0.1953125 0.041992188 -0.064453125 -0.044433594 0.104003906 0.11425781 -0.0234375 0.06298828 -0.014770508 -0.15429688 0.06298828 -0.14160156 -0.13574219 0.056152344 0.20605469 0.16894531 0.125 0.10107422 0.03540039 -0.09375 -0.028198242 0.14941406 0.05908203 0.000667572 0.016357422 0.021118164 0.37304688 0.011291504 -0.15136719 -0.16796875 -0.049804688 0.017456055 -0.092285156 -0.15429688 -0.12792969 0.14160156 -0.09326172 0.00075149536 0.0070495605 0.115234375 -0.19238281 -0.064941406 -0.29101562 0.0079956055 -0.25195312 0.31445312 0.037353516 -0.041015625 0.020874023 -0.1484375 0.19042969 -0.0390625
in 0.0703125 0.08691406 0.087890625 0.0625 0.06933594 -0.10888672 -0.08154297 -0.15429688 0.020751953 0.13183594 -0.11376953 -0.037353516 0.06933594 0.078125 -0.103027344 -0.09765625 0.044189453 0.10253906 -0.060791016 -0.036132812 -0.045410156 0.04736328 -0.12060547 -0.063964844 0.0022583008 0.037109375 -0.0029144287 0.11767578 0.061767578 0.063964844 0.08105469 -0.068847656 -0.021362305 0.05517578 -0.08544922 0.068847656 -0.12792969 -0.033203125 0.09863281 0.17578125 0.110839844 -0.03466797 -0.04711914 -0.008483887 0.035888672 0.103027344 0.026977539 -0.028686523 -0.005126953 0.10644531 0.059814453 0.09423828 0.033691406 -0.02709961 -0.09423828 0.0010299683 -0.048339844 0.034423828 0.08105469 -0.11328125 -0.08886719 0.035888672 -0.14550781 -0.24414062 -0.061523438 0.052978516 0.056884766 0.1796875 0.061035156 0.08691406 0.12402344 -0.040283203 0.022583008 0.17773438 -0.029663086 -0.029663086 0.1171875 0.03112793 -0.096191406 0.06640625 0.004699707 -0.080078125 0.06298828 -0.020629883 -0.0546875 -0.13574219 -0.06347656 0.083496094 -0.063964844 0.021484375 0.07714844 -0.037109375 -0.033691406 -0.18359375 -0.072753906 0.01586914 0.09326172 -0.061523438 -0.014221191 -0.0034484863 0.011108398 -0.15820312 -0.017089844 0.0061950684 -0.008728027 -0.080566406 -0.015258789 -0.087890625 0.003479004 -0.016113281 -0.012329102 0.09765625 -0.13964844 -0.0859375 -0.026855469 0.053955078 0.1328125 0.11279297 0.12109375 0.08544922 -0.0071105957 0.044677734 -0.14550781 -0.0032043457 -0.11767578 -0.06542969 0.07128906 -0.09423828 -0.030273438 0.12011719 0.080078125 -0.09472656 -0.16210938 -0.07763672 0.021240234 -0.08154297 0.0039367676 -0.15722656 -0.09814453 0.039794922 0.03930664 -0.009094238 0.103027344 0.067871094 -0.04272461 0.06347656 -0.049072266 0.020874023 -0.16699219 0.09326172 0.09375 0.006866455 0.053710938 0.052490234 -0.024414062 -0.032470703 -0.061523438 -0.005554199 0.096191406 0.037841797 0.012207031 -0.043945312 -0.0074768066 0.10546875 0.020385742 0.14550781 0.08203125 0.0057678223 0.0045776367 -0.09277344 -0.13867188 -0.057373047 -0.051513672 -0.13085938 -0.13964844 -0.020507812 -0.02709961 0.032714844 0.10498047 -0.0023345947 -0.022583008 0.00050354004 -0.110839844 0.08496094 -0.12988281 -0.017456055 -0.00035858154 0.107910156 0.08886719 0.044677734 0.025146484 0.023803711 0.08105469 0.02368164 -0.10986328 0.0053710938 -0.017700195 -0.033935547 -0.032958984 -0.1640625 0.095703125 -0.018310547 0.0053100586 -0.034423828 -0.044189453 -0.06640625 -0.017944336 -0.029663086 -0.007598877 -0.05126953 -0.05419922 0.08935547 -0.071777344 0.015258789 -0.08251953 -0.03173828 0.03564453 -0.021240234 -0.059326172 -0.013061523 0.046875 0.023071289 0.020996094 -0.07861328 -0.008056641 0.01953125 -0.005554199 0.041503906 0.027832031 0.01361084 0.03466797 -0.18261719 0.12011719 0.07421875 -0.041015625 -0.0099487305 0.04296875 -0.007293701 0.123046875 0.057617188 -0.053466797 -0.032226562 -0.009094238 -0.04663086 0.043945312 -0.05078125 0.068847656 0.0029907227 -0.004180908 -0.044189453 0.07373047 -0.012756348 0.06738281 0.006286621 0.07519531 -0.037841797 0.0048828125 0.044677734 -0.06738281 0.00970459 0.0047302246 0.020507812 0.07128906 0.17089844 0.17382812 0.055664062 0.091308594 -0.037353516 0.049804688 -0.03930664 0.044189453 0.0625 0.048583984 -0.053222656 0.048828125 -0.13085938 -0.028930664 -0.036132812 -0.060791016 -0.057373047 0.123046875 -0.08251953 -0.0119018555 0.125 0.0013580322 0.063964844 -0.10644531 -0.14355469 -0.042236328 0.024047852 -0.16894531 -0.08886719 -0.080566406 0.064941406 0.061279297 -0.04736328 -0.05883789 -0.047607422 0.014465332 -0.0625
